
\data\
ngram 1=16788

\1-grams:
-6.033483	401ks
-1.041393	</s>
-99	<s>
-5.435122	<unk>
-6.033483	Im
-1.744675	a
-6.033483	aaron
-5.431422	ab
-6.033483	aback
-5.732452	abandoned
-5.732452	abandoning
-6.033483	abba
-5.732452	abbey
-5.732452	abbeys
-5.431422	abby
-6.033483	abercrombie
-5.732452	abhorrent
-6.033483	abide
-6.033483	abiding
-5.431422	abilities
-4.671755	ability
-5.732452	abington
-3.608601	able
-5.732452	abnormal
-6.033483	abo
-6.033483	abominable
-6.033483	aborigine
-6.033483	aborigines
-6.033483	abortion
-5.556361	abou
-2.375662	about
-5.732452	abouts
-4.887354	above
-5.732452	abrasive
-6.033483	abre
-6.033483	abroa
-4.829362	abroad
-5.732452	abs
-6.033483	abscess
-5.556361	absence
-6.033483	absences
-5.556361	absent
-5.732452	absentee
-6.033483	absol
-6.033483	absolut
-4.857391	absolute
-3.754729	absolutely
-5.732452	absolutes
-5.732452	absorb
-6.033483	absorbed
-6.033483	absorption
-5.255331	abstract
-6.033483	abstraction
-5.130393	absurd
-6.033483	absurdist
-5.732452	abundance
-4.99209	abuse
-6.033483	abused
-6.033483	abuses
-5.732452	abusing
-5.431422	abusive
-4.99209	ac
-4.99209	academia
-4.857391	academic
-6.033483	academically
-5.188385	academics
-5.556361	academy
-6.033483	acc
-6.033483	accelerated
-6.033483	accelerates
-4.285295	accent
-4.954301	accents
-4.489414	accept
-4.77821	acceptable
-5.732452	acceptance
-5.033483	accepted
-5.556361	accepting
-4.255331	access
-5.556361	accessible
-5.732452	accessories
-4.586324	accident
-5.732452	accidental
-5.334512	accidentally
-6.033483	accidently
-4.887354	accidents
-6.033483	acclimated
-5.556361	accommodate
-6.033483	accompanied
-4.99209	accomplish
-5.431422	accomplished
-6.033483	accomplishes
-5.431422	accomplishment
-6.033483	accord
-5.033483	according
-5.732452	accordingly
-5.130393	account
-6.033483	accountability
-5.732452	accountable
-5.431422	accountant
-5.188385	accountants
-6.033483	accounted
-4.671755	accounting
-5.188385	accounts
-5.556361	accumulate
-5.556361	accumulated
-6.033483	accumulation
-5.130393	accurate
-5.732452	accurately
-6.033483	accusations
-5.255331	accused
-5.431422	accustomed
-6.033483	ace
-5.188385	ach
-6.033483	ache
-5.334512	aches
-6.033483	achey
-5.556361	achieve
-5.431422	achieved
-5.732452	acid
-6.033483	acids
-5.431422	acknowledge
-6.033483	acne
-5.334512	acquaintances
-6.033483	acquaintant
-6.033483	acquainted
-5.732452	acquire
-5.732452	acquired
-5.556361	acre
-5.556361	acres
-4.124998	across
-6.033483	acso
-4.255331	act
-5.130393	acted
-5.334512	actifed
-4.602118	acting
-4.410233	action
-5.033483	actions
-5.556361	activate
-5.188385	activated
-4.542121	active
-5.255331	actively
-5.732452	activist
-5.732452	activists
-4.29312	activities
-4.803033	activity
-5.188385	actor
-4.711263	actors
-5.732452	actress
-5.732452	actresses
-5.130393	acts
-5.033483	actu
-4.285295	actual
-6.033483	actuality
-6.033483	actualize
-2.715837	actually
-4.857391	ad
-5.556361	adam
-5.732452	adamant
-5.732452	adams
-6.033483	adap
-5.431422	adapt
-5.556361	adaptation
-4.489414	add
-4.887354	added
-5.431422	addict
-4.754729	addicted
-5.255331	addicting
-4.919539	addiction
-5.07924	addictive
-5.556361	addicts
-5.188385	adding
-5.188385	addition
-5.556361	additional
-6.033483	additive
-6.033483	additives
-4.803033	address
-5.431422	addressed
-5.732452	addresses
-5.556361	addressing
-5.188385	adds
-6.033483	adele
-6.033483	adept
-5.431422	adequate
-6.033483	adjoining
-6.033483	adjunct
-4.887354	adjust
-5.732452	adjusted
-5.556361	adjusting
-5.255331	adjustment
-6.033483	adjustments
-6.033483	administer
-4.334512	administration
-5.732452	administrative
-5.732452	administrator
-6.033483	admiration
-5.334512	admire
-4.602118	admit
-6.033483	admitted
-6.033483	admittedly
-5.732452	admitting
-6.033483	adolescent
-5.07924	adopt
-4.77821	adopted
-6.033483	adorable
-6.033483	adore
-6.033483	adrenal
-5.556361	adrenaline
-6.033483	adrienne
-4.919539	ads
-4.754729	adult
-6.033483	adulthood
-4.69106	adults
-5.07924	advance
-5.033483	advanced
-6.033483	advancement
-6.033483	advances
-6.033483	advancing
-4.77821	advantage
-6.033483	advantageous
-5.334512	advantages
-5.334512	advent
-5.255331	adventure
-6.033483	adventures
-5.431422	adventurous
-6.033483	adversarial
-6.033483	adverse
-5.255331	advertise
-5.07924	advertised
-5.255331	advertisement
-5.334512	advertisements
-6.033483	advertiser
-6.033483	advertisers
-4.556361	advertising
-5.07924	advice
-6.033483	advil
-6.033483	advise
-6.033483	adviser
-6.033483	advisers
-5.732452	advising
-5.431422	advisor
-5.556361	advisors
-6.033483	advocacy
-5.334512	advocate
-6.033483	advocating
-6.033483	aerial
-6.033483	aerobic
-5.431422	aerobics
-6.033483	aeroplane
-5.732452	aerosol
-6.033483	aester
-6.033483	aesthetic
-5.188385	af
-5.255331	affair
-5.556361	affairs
-4.277607	affect
-4.453699	affected
-4.887354	affecting
-6.033483	affection
-5.732452	affectionate
-6.033483	affective
-4.618509	affects
-5.188385	affiliated
-6.033483	affiliation
-6.033483	affirm
-6.033483	affirmation
-4.919539	affirmative
-5.732452	affirming
-5.732452	affixed
-5.732452	affleck
-6.033483	affliction
-6.033483	affluent
-4.442418	afford
-6.033483	affordable
-5.732452	afghan
-5.732452	afghanis
-4.301089	afghanistan
-6.033483	afghanistans
-4.146992	afraid
-6.033483	afric
-4.542121	africa
-4.99209	african
-6.033483	africanamerican
-6.033483	afrin
-5.732452	aft
-3.276086	after
-6.033483	aftermath
-4.602118	afternoon
-5.556361	afternoons
-6.033483	afterschool
-5.431422	afterward
-4.556361	afterwards
-5.556361	ag
-3.433599	again
-3.854506	against
-3.881194	age
-5.556361	aged
-5.431422	agencies
-4.829362	agency
-5.033483	agenda
-6.033483	agent
-5.334512	agents
-4.954301	ages
-6.033483	aggrandize
-6.033483	aggravates
-6.033483	aggravating
-6.033483	aggress
-6.033483	aggressed
-5.732452	aggression
-6.033483	aggressions
-4.887354	aggressive
-5.732452	aggressor
-6.033483	aggressors
-5.431422	aging
-6.033483	agitated
-6.033483	agitation
-5.732452	agnostic
-3.437986	ago
-5.556361	agr
-3.454843	agree
-6.033483	agreeable
-4.829362	agreed
-5.431422	agreeing
-4.77821	agreement
-6.033483	agreements
-5.556361	agrees
-6.033483	agricultural
-6.033483	agriculture
-5.556361	aguilera
-2.594782	ah
-4.188385	aha
-4.489414	ahah
-4.024882	ahead
-6.033483	ahem
-6.033483	ahmed
-6.033483	ahs
-4.887354	aid
-5.334512	aida
-6.033483	aide
-5.732452	aids
-6.033483	ailing
-5.732452	ailments
-6.033483	ails
-5.188385	aim
-6.033483	aiming
-4.857391	aint
-3.896762	air
-5.732452	airborne
-5.130393	aircraft
-6.033483	airfare
-6.033483	airhead
-6.033483	airheads
-4.502004	airline
-6.033483	airliners
-4.502004	airlines
-4.325912	airplane
-4.635542	airplanes
-3.752449	airport
-4.255331	airports
-6.033483	airs
-6.033483	airspace
-6.033483	airstrips
-6.033483	aisle
-6.033483	ak47
-6.033483	akunge
-4.277607	al
-4.919539	alabama
-6.033483	alal
-6.033483	alamo
-6.033483	alan
-5.556361	alanna
-5.130393	alarm
-6.033483	alarming
-4.919539	alaska
-5.431422	alaskan
-5.732452	albany
-6.033483	alberta
-6.033483	albrick
-5.556361	albums
-4.020645	alcohol
-4.857391	alcoholic
-5.334512	alcoholics
-5.431422	alcoholism
-6.033483	alcohols
-6.033483	ale
-5.07924	alert
-5.732452	alerted
-6.033483	alertness
-6.033483	alexan
-5.431422	alexandria
-6.033483	alexi
-5.732452	alexis
-6.033483	algebra
-6.033483	algeria
-5.732452	algonquin
-6.033483	algorithms
-5.334512	ali
-5.732452	alias
-6.033483	alibi
-5.732452	alice
-6.033483	alie
-5.188385	alien
-5.732452	alienated
-6.033483	alienation
-5.732452	aliens
-6.033483	aligned
-5.431422	alike
-6.033483	alina
-5.556361	alison
-6.033483	alissa
-4.514968	alive
-2.461774	all
-6.033483	allan
-6.033483	allaniah
-6.033483	alle
-6.033483	allegedly
-6.033483	allegheny
-5.188385	allegra
-5.732452	allen
-6.033483	aller
-6.033483	allerg
-4.77821	allergic
-4.060355	allergies
-4.542121	allergy
-5.431422	alleviate
-5.431422	alley
-6.033483	allied
-5.033483	allies
-5.431422	alligators
-6.033483	allo
-6.033483	allocate
-6.033483	allotted
-4.586324	allow
-4.182224	allowed
-5.188385	allowing
-5.07924	allows
-6.033483	allure
-5.188385	ally
-5.732452	alm
-6.033483	alma
-6.033483	almighty
-6.033483	almos
-3.569589	almost
-4.317479	alone
-3.834825	along
-5.255331	aloud
-5.732452	alphabet
-6.033483	alphabets
-6.033483	alps
-6.033483	alr
-3.761641	already
-4.528333	alright
-6.033483	alrighty
-5.334512	als
-3.136956	also
-5.334512	alter
-5.732452	alterations
-5.556361	altered
-6.033483	altering
-5.556361	alternate
-5.07924	alternative
-6.033483	alternatives
-3.757021	although
-6.033483	altitude
-5.556361	altogether
-6.033483	altoretta
-5.732452	aluminum
-5.732452	alumni
-6.033483	alumnus
-6.033483	alverno
-5.732452	alvin
-5.732452	alw
-5.556361	alwa
-6.033483	alway
-3.037847	always
-3.3861	am
-5.732452	ama
-6.033483	amalgamation
-6.033483	amass
-5.732452	amateur
-6.033483	amaz
-4.77821	amazed
-5.188385	amazes
-4.033483	amazing
-5.431422	amazingly
-5.431422	amazon
-6.033483	ambassador
-5.431422	amber
-6.033483	ambi
-6.033483	ambiance
-6.033483	ambiguity
-5.556361	ambitious
-6.033483	ambivalent
-5.732452	ambulance
-6.033483	ambulatory
-5.431422	amer
-6.033483	ameri
-6.033483	americ
-3.872114	america
-3.620183	american
-5.732452	americanism
-5.556361	americanized
-4.109203	americans
-5.033483	americas
-5.188385	ames
-5.431422	amherst
-6.033483	amin
-6.033483	amina
-6.033483	amino
-5.334512	amish
-6.033483	amittsburgh
-6.033483	ammonia
-6.033483	ammonium
-5.732452	ammunition
-6.033483	ammunitions
-6.033483	amok
-6.033483	amollah
-4.754729	among
-5.255331	amongst
-6.033483	amoral
-6.033483	amortization
-4.004099	amount
-4.803033	amounts
-5.255331	amsterdam
-5.334512	amtrak
-5.732452	amtraks
-6.033483	amused
-5.732452	amusement
-5.431422	amusing
-5.255331	amy
-6.033483	amys
-2.834002	an
-6.033483	ana
-6.033483	anaheim
-5.556361	anal
-5.732452	analogous
-5.732452	analogy
-5.033483	analysis
-5.732452	analyst
-6.033483	analytical
-5.033483	analyze
-6.033483	analyzed
-5.255331	analyzing
-5.732452	anarchy
-6.033483	anational
-6.033483	anchor
-6.033483	anchors
-5.255331	ancient
-1.578546	and
-5.334512	anderson
-5.732452	andrew
-5.556361	andy
-6.033483	anecdote
-6.033483	anecdotes
-6.033483	anew
-5.188385	angel
-4.954301	angeles
-6.033483	angelo
-6.033483	angels
-5.255331	anger
-6.033483	angers
-6.033483	angie
-6.033483	anglais
-5.431422	angle
-5.732452	angles
-6.033483	anglicans
-6.033483	anglo
-6.033483	angrier
-6.033483	angriness
-4.571084	angry
-6.033483	angst
-6.033483	ani
-4.653271	animal
-4.400014	animals
-5.732452	animation
-6.033483	animations
-6.033483	animosity
-5.732452	ankara
-5.732452	ankle
-6.033483	ankles
-5.07924	ann
-4.803033	anna
-6.033483	annan
-5.431422	anne
-6.033483	annette
-6.033483	annex
-6.033483	annie
-6.033483	annihilate
-6.033483	annihilating
-6.033483	annis
-5.732452	anniversaries
-5.188385	anniversary
-6.033483	annotate
-6.033483	annotated
-5.556361	announce
-5.255331	announced
-5.732452	announcement
-5.732452	annoy
-5.556361	annoyance
-5.033483	annoyed
-4.542121	annoying
-5.556361	annoys
-6.033483	annual
-6.033483	annually
-6.033483	anonymity
-5.431422	anonymous
-6.033483	anorexic
-6.033483	anoth
-3.379306	another
-6.033483	anothers
-6.033483	anouja
-4.146992	answer
-4.954301	answered
-4.542121	answering
-4.954301	answers
-5.334512	ant
-6.033483	antabuse
-6.033483	antagonistic
-5.732452	antagonize
-6.033483	antagonizing
-6.033483	antelope
-6.033483	antenna
-5.556361	anthony
-4.954301	anthrax
-5.556361	anthropology
-4.489414	anti
-6.033483	antiamerican
-5.431422	antibacterial
-6.033483	antibi
-4.919539	antibiotic
-4.502004	antibiotics
-6.033483	antibodies
-5.334512	anticipation
-5.732452	anticlimactic
-5.732452	antidepressant
-6.033483	antidepressants
-5.732452	antidote
-5.334512	antihistamine
-6.033483	antihistamines
-6.033483	antiholiday
-5.732452	antiimmigrant
-6.033483	antiquated
-5.732452	antique
-6.033483	antisocial
-6.033483	antithetical
-6.033483	antivietnam
-5.556361	antiwar
-6.033483	antonia
-5.556361	antonio
-5.556361	ants
-6.033483	antsy
-5.556361	anxiety
-5.334512	anxious
-2.965297	any
-6.033483	anyb
-3.857391	anybody
-5.556361	anybodys
-5.130393	anyhow
-3.805596	anymore
-4.029161	anyone
-5.732452	anyones
-6.033483	anyplace
-6.033483	anyth
-3.038726	anything
-5.334512	anythings
-4.99209	anytime
-5.732452	anyw
-6.033483	anywa
-3.566615	anyway
-4.502004	anyways
-4.164251	anywhere
-6.033483	ap
-4.502004	apart
-5.732452	apartheid
-4.352241	apartment
-5.07924	apartments
-5.732452	apathy
-6.033483	aphorism
-5.556361	apocalypse
-6.033483	apocryphal
-6.033483	apolo
-5.732452	apologetic
-4.954301	apologize
-6.033483	apologized
-5.431422	apologizing
-5.556361	apology
-6.033483	apostrophes
-5.732452	app
-6.033483	appa
-5.732452	appalachia
-6.033483	appalachian
-5.556361	appalled
-5.431422	appalling
-5.556361	apparent
-4.17615	apparently
-4.602118	appeal
-6.033483	appealed
-4.99209	appealing
-5.255331	appeals
-4.954301	appear
-6.033483	appearance
-5.334512	appearances
-5.334512	appears
-6.033483	appendix
-5.732452	appetizer
-6.033483	appetizers
-6.033483	appetizing
-5.255331	apple
-6.033483	applebees
-5.556361	apples
-6.033483	appliances
-6.033483	applicable
-5.732452	applicants
-5.334512	application
-4.99209	applications
-4.635542	applied
-5.556361	applies
-4.671755	apply
-4.887354	applying
-6.033483	appointed
-4.857391	appointment
-6.033483	appointments
-4.431422	appreciate
-5.334512	appreciated
-5.732452	appreciating
-5.255331	appreciation
-5.556361	apprehensive
-6.033483	apprentices
-4.671755	approach
-6.033483	approachable
-5.556361	approached
-5.556361	approaching
-4.602118	appropriate
-5.431422	approval
-5.334512	approve
-5.732452	approved
-6.033483	approximate
-5.732452	approximately
-6.033483	apraxia
-4.99209	april
-6.033483	apron
-5.732452	apt
-5.556361	aquarium
-6.033483	aquatic
-6.033483	aquinas
-5.07924	ar
-6.033483	ara
-4.39003	arab
-4.602118	arabia
-5.556361	arabian
-6.033483	arabians
-4.919539	arabic
-4.919539	arabs
-6.033483	arachnophobia
-5.732452	arafat
-6.033483	arbitrariness
-6.033483	arbitrator
-5.732452	arbor
-6.033483	arbour
-6.033483	arcada
-6.033483	archeology
-6.033483	arching
-6.033483	architect
-6.033483	architects
-5.556361	architecture
-5.732452	arctic
-5.732452	arda
-2.332865	are
-3.69106	area
-4.431422	areas
-5.732452	arena
-3.845962	arent
-6.033483	argenbright
-5.556361	argentina
-5.556361	argh
-4.754729	argue
-5.431422	argued
-5.188385	arguing
-4.754729	argument
-6.033483	argumentative
-5.431422	arguments
-5.556361	ari
-6.033483	ariel
-5.732452	arises
-4.220569	arizona
-6.033483	ark
-5.334512	arkansas
-5.431422	arlington
-5.255331	arm
-6.033483	armaments
-4.803033	armed
-6.033483	armenian
-5.431422	arming
-6.033483	armored
-4.213939	arms
-4.542121	army
-6.033483	armys
-6.033483	arnold
-6.033483	arou
-3.163664	around
-6.033483	arrange
-5.334512	arranged
-5.334512	arrangement
-6.033483	arrangements
-6.033483	array
-5.255331	arrest
-4.829362	arrested
-6.033483	arresting
-6.033483	arrests
-5.732452	arrhythmia
-6.033483	arrival
-5.334512	arrive
-5.188385	arrived
-6.033483	arrives
-6.033483	arriving
-5.732452	arrogance
-5.556361	arrogant
-5.732452	arrow
-6.033483	arsenal
-4.29312	art
-6.033483	arterial
-6.033483	arterials
-5.255331	arthritis
-6.033483	arthur
-6.033483	arthurian
-6.033483	artic
-4.711263	article
-4.99209	articles
-6.033483	articulate
-6.033483	articulated
-6.033483	articulation
-4.99209	artificial
-6.033483	artisans
-5.130393	artist
-5.431422	artistic
-5.188385	artists
-4.887354	arts
-6.033483	artsy
-5.556361	arule
-2.618676	as
-6.033483	asbestos
-6.033483	ashamed
-5.556361	ashcroft
-5.732452	ashley
-5.556361	ashtray
-6.033483	ashtrays
-4.887354	asia
-4.77821	asian
-4.586324	aside
-3.766311	ask
-3.940061	asked
-4.234142	asking
-4.954301	asks
-4.954301	asleep
-6.033483	asparagus
-4.453699	aspect
-4.829362	aspects
-6.033483	aspen
-6.033483	aspirations
-6.033483	aspirer
-6.033483	aspirin
-6.033483	asplen
-6.033483	asplin
-5.033483	ass
-6.033483	assassinated
-6.033483	assertions
-5.556361	assertive
-6.033483	assess
-5.556361	assessment
-5.732452	asset
-5.732452	assets
-5.732452	asshole
-6.033483	assiduously
-6.033483	assign
-5.334512	assigned
-6.033483	assigning
-5.334512	assignment
-5.07924	assignments
-5.732452	assimilation
-6.033483	assist
-5.732452	assistance
-4.829362	assistant
-6.033483	assistants
-6.033483	assistantship
-6.033483	assisting
-6.033483	assists
-6.033483	assoc
-5.130393	associate
-4.99209	associated
-5.334512	associates
-5.431422	association
-5.556361	associations
-6.033483	assorted
-6.033483	assu
-6.033483	assuaged
-4.514968	assume
-5.033483	assumed
-6.033483	assumes
-4.653271	assuming
-5.556361	assumption
-6.033483	assured
-6.033483	assuring
-6.033483	asterisk
-4.586324	asthma
-5.556361	asthmatic
-5.431422	astonished
-6.033483	astronomer
-5.556361	astrophysics
-6.033483	asylum
-2.520531	at
-5.732452	atari
-4.69106	ate
-5.334512	athens
-5.732452	athlete
-5.188385	athletes
-5.188385	athletic
-6.033483	athletics
-4.325912	atlanta
-5.556361	atlantas
-5.732452	atlantic
-4.803033	atmosphere
-5.732452	atom
-5.431422	atomic
-5.732452	atonement
-6.033483	atredes
-6.033483	atrocities
-6.033483	atrop
-5.732452	atropine
-5.732452	ats
-5.556361	atta
-5.732452	attach
-5.188385	attached
-5.732452	attachment
-4.119668	attack
-4.887354	attacked
-6.033483	attacker
-6.033483	attackers
-4.887354	attacking
-4.334512	attacks
-6.033483	attain
-4.954301	attempt
-5.732452	attempted
-5.431422	attempting
-5.732452	attempts
-5.732452	attend
-5.255331	attendance
-5.334512	attendants
-5.556361	attending
-4.084093	attention
-6.033483	attentive
-5.431422	attic
-6.033483	attire
-4.420699	attitude
-5.130393	attitudes
-5.07924	attorney
-5.431422	attorneys
-6.033483	attrac
-5.033483	attract
-5.07924	attracted
-5.188385	attraction
-4.586324	attractive
-6.033483	attractively
-5.556361	attracts
-5.431422	attribute
-5.556361	attrition
-6.033483	attuned
-5.556361	au
-5.431422	auction
-4.887354	audience
-6.033483	audiences
-6.033483	audio
-5.732452	audit
-5.556361	auditing
-5.334512	audition
-6.033483	auditioning
-5.556361	auditions
-5.556361	auditor
-5.556361	auditors
-6.033483	auditory
-6.033483	audrey
-6.033483	aught
-5.732452	augmented
-4.514968	august
-4.754729	aunt
-6.033483	auntie
-4.954301	aunts
-6.033483	aura
-6.033483	aurelia
-5.732452	aussi
-5.732452	austen
-4.857391	austin
-4.829362	australia
-6.033483	australian
-6.033483	australians
-6.033483	austria
-5.732452	austrian
-6.033483	auth
-4.99209	authentic
-6.033483	authenticity
-5.255331	author
-6.033483	authoritarian
-5.732452	authoritate
-5.431422	authorities
-4.99209	authority
-5.334512	authors
-5.732452	autism
-5.334512	autistic
-5.732452	auto
-6.033483	autocad
-6.033483	autograph
-4.954301	automated
-5.334512	automatic
-4.69106	automatically
-5.732452	automobile
-5.732452	autopilot
-4.857391	autumn
-6.033483	auxiliary
-5.556361	availability
-4.453699	available
-6.033483	avalon
-6.033483	avenue
-6.033483	avenues
-4.618509	average
-6.033483	averages
-5.556361	averse
-5.732452	aversion
-6.033483	avert
-5.556361	aviation
-5.255331	avid
-5.556361	aviv
-5.732452	avocado
-4.370725	avoid
-6.033483	avoided
-6.033483	avoiding
-5.334512	avon
-4.829362	aw
-5.732452	awa
-4.99209	awake
-5.334512	award
-6.033483	awarded
-5.431422	awards
-4.220569	aware
-5.07924	awareness
-3.430338	away
-6.033483	awe
-4.571084	awesome
-4.213939	awful
-4.99209	awfully
-4.542121	awhile
-4.954301	awkward
-6.033483	axe
-5.334512	axis
-6.033483	axius
-5.732452	ay
-6.033483	aya
-6.033483	ayatollah
-6.033483	aye
-5.732452	azgul
-5.732452	aziz
-4.270054	b
-4.99209	ba
-6.033483	babbitt
-5.732452	babble
-6.033483	babbled
-6.033483	babe
-4.754729	babies
-4.124998	baby
-6.033483	babyish
-5.732452	babys
-6.033483	babysat
-5.556361	babysit
-6.033483	babysitter
-6.033483	babysitting
-5.732452	bac
-6.033483	bach
-4.146992	bachelor
-4.571084	bachelorette
-5.556361	bachelorettes
-6.033483	bacheloric
-4.954301	bachelors
-6.033483	bachom
-3.070167	back
-5.732452	backbone
-5.130393	backed
-6.033483	backfire
-4.241091	background
-5.033483	backgrounds
-5.130393	backing
-6.033483	backlash
-6.033483	backlashes
-5.255331	backpack
-5.431422	backs
-6.033483	backside
-6.033483	backstab
-6.033483	backstabber
-6.033483	backstabbers
-5.431422	backstabbing
-5.732452	backup
-5.07924	backwards
-6.033483	backwoods
-5.431422	backyard
-6.033483	backyards
-5.732452	bacon
-6.033483	bacter
-5.130393	bacteria
-5.334512	bacterial
-3.167786	bad
-6.033483	badgered
-4.829362	badly
-6.033483	badminton
-6.033483	bads
-6.033483	baffle
-6.033483	bafflement
-4.489414	bag
-5.334512	bagel
-6.033483	bagels
-4.754729	baggage
-6.033483	baggages
-6.033483	baggy
-6.033483	baghdad
-4.431422	bags
-6.033483	bah
-5.732452	bahamas
-5.556361	bail
-5.431422	bailed
-6.033483	bailing
-5.033483	bake
-5.255331	baked
-5.431422	baker
-4.919539	bakery
-4.803033	baking
-6.033483	bal
-5.732452	bala
-4.671755	balance
-4.919539	balanced
-5.334512	balances
-6.033483	balancing
-6.033483	balconies
-5.431422	bald
-6.033483	baldwins
-6.033483	bali
-4.754729	ball
-6.033483	balled
-6.033483	ballerina
-6.033483	ballerinas
-5.033483	ballet
-6.033483	ballgame
-6.033483	balling
-5.732452	ballot
-5.732452	ballots
-6.033483	ballrooms
-5.431422	balls
-6.033483	baltics
-5.033483	baltimore
-5.431422	ban
-5.732452	banal
-5.732452	banana
-5.431422	bananas
-4.954301	band
-5.556361	bands
-6.033483	bandwagon
-5.431422	bandwidth
-5.556361	bang
-6.033483	banging
-5.732452	bangor
-6.033483	banish
-4.528333	bank
-5.556361	banking
-5.130393	bankrupt
-5.255331	bankruptcy
-5.07924	banks
-4.954301	banned
-6.033483	banner
-6.033483	banners
-5.732452	banning
-6.033483	bantering
-5.130393	baptist
-5.732452	baptists
-4.38027	bar
-6.033483	barahas
-6.033483	barapi
-5.732452	barb
-4.887354	barbecue
-5.732452	barbecues
-5.556361	barbecuing
-6.033483	barber
-5.556361	barbie
-5.732452	barcelona
-5.556361	bare
-6.033483	barefoot
-4.732452	barely
-6.033483	barest
-6.033483	bargain
-5.732452	bargaining
-6.033483	bargains
-6.033483	barge
-5.732452	bark
-6.033483	barkers
-5.556361	barking
-6.033483	barks
-6.033483	barmitzva
-6.033483	barn
-5.732452	barnes
-5.188385	baron
-5.431422	barrel
-6.033483	barreling
-6.033483	barrels
-6.033483	barricade
-5.732452	barriers
-6.033483	barrigan
-4.653271	bars
-6.033483	barstool
-6.033483	bart
-5.732452	bartender
-5.07924	bas
-4.502004	base
-4.47718	baseball
-4.200974	based
-6.033483	baseline
-5.431422	basement
-5.07924	bases
-6.033483	basi
-4.465281	basic
-3.514969	basically
-5.130393	basics
-6.033483	basil
-4.514968	basis
-5.033483	basket
-4.586324	basketball
-5.732452	baskets
-6.033483	baskin
-5.556361	baskins
-5.732452	bassoon
-6.033483	bastard
-6.033483	bastards
-5.556361	bat
-5.556361	batch
-5.431422	batches
-4.857391	bath
-6.033483	bathesda
-5.732452	bathing
-4.671755	bathroom
-5.033483	bathrooms
-6.033483	bathtub
-6.033483	bathtubs
-6.033483	baton
-5.732452	bats
-6.033483	battered
-5.431422	batteries
-6.033483	battering
-5.431422	battery
-5.07924	battle
-6.033483	battles
-4.653271	bay
-5.732452	bazaar
-6.033483	bazillion
-2.344974	be
-4.453699	beach
-5.130393	beaches
-6.033483	bead
-6.033483	beads
-5.556361	beagle
-5.431422	beagles
-6.033483	bean
-4.919539	beans
-5.07924	bear
-5.732452	beards
-5.732452	bearing
-5.255331	bears
-5.732452	beast
-6.033483	beastly
-5.732452	beasts
-4.556361	beat
-5.188385	beating
-6.033483	beatles
-5.556361	beats
-6.033483	beau
-5.732452	beaucoup
-4.270054	beautiful
-6.033483	beautifully
-5.556361	beauty
-5.556361	beaver
-5.556361	bec
-4.334512	became
-5.255331	becau
-2.468816	because
-6.033483	becky
-6.033483	beco
-3.972785	become
-4.489414	becomes
-6.033483	becomin
-4.77821	becoming
-4.442418	bed
-6.033483	bedford
-5.732452	bedridden
-4.99209	bedroom
-6.033483	bedrooms
-5.732452	bee
-4.99209	beef
-6.033483	beefed
-6.033483	beefing
-2.80074	been
-4.77821	beep
-6.033483	beeped
-5.556361	beeping
-6.033483	beeps
-4.528333	beer
-5.188385	beers
-6.033483	beet
-6.033483	beethoven
-6.033483	beethovens
-6.033483	beets
-5.556361	bef
-3.267814	before
-5.255331	beforehand
-6.033483	befuddling
-5.556361	beg
-4.99209	began
-4.602118	begin
-5.556361	beginner
-4.141388	beginning
-5.556361	beginnings
-5.431422	begins
-5.732452	begun
-5.431422	behave
-5.732452	behaved
-5.732452	behaving
-4.829362	behavior
-6.033483	behavioral
-5.334512	behaviors
-5.556361	behaviour
-6.033483	behi
-4.119668	behind
-6.033483	beholden
-5.130393	beijing
-3.194004	being
-5.255331	beings
-5.732452	bel
-6.033483	belfast
-6.033483	belgian
-5.033483	belgium
-4.919539	belief
-4.99209	beliefs
-5.431422	believable
-3.580164	believe
-5.033483	believed
-5.334512	believer
-6.033483	believers
-5.188385	believes
-5.188385	believing
-6.033483	belittling
-5.556361	belize
-4.99209	bell
-5.732452	belligerent
-6.033483	bells
-5.732452	belly
-5.188385	belong
-5.556361	belonged
-6.033483	belongings
-5.556361	belongs
-6.033483	beloved
-4.528333	below
-4.887354	belt
-6.033483	belts
-5.255331	ben
-5.431422	benadryl
-6.033483	bends
-6.033483	bene
-5.130393	benedryl
-5.130393	beneficial
-4.754729	benefit
-5.732452	benefiting
-4.919539	benefits
-6.033483	bengal
-6.033483	bennigans
-6.033483	bennington
-6.033483	bens
-5.431422	bent
-6.033483	bere
-5.431422	berea
-6.033483	bergetstown
-5.556361	berkeley
-6.033483	berkley
-6.033483	bernards
-6.033483	berries
-5.431422	beside
-4.431422	besides
-3.743448	best
-6.033483	bested
-4.104064	bet
-5.732452	beta
-5.556361	betas
-5.334512	beth
-6.033483	bethlehem
-6.033483	betrayed
-6.033483	betrays
-6.033483	bets
-6.033483	bett
-3.3861	better
-6.033483	betterment
-5.556361	betting
-6.033483	betw
-6.033483	betwee
-3.715419	between
-6.033483	bevan
-5.556361	beverages
-5.732452	beverley
-5.732452	beverly
-6.033483	beware
-6.033483	bewildering
-6.033483	beyon
-4.556361	beyond
-5.188385	bi
-6.033483	bianco
-5.431422	bias
-4.99209	biased
-5.033483	bible
-6.033483	biblical
-6.033483	biblically
-6.033483	bibliographer
-5.431422	bicker
-5.732452	bickering
-5.732452	bicycle
-5.732452	bicycles
-6.033483	bicycling
-5.431422	bid
-5.732452	bidding
-3.111276	big
-4.309206	bigger
-4.285295	biggest
-6.033483	biggie
-6.033483	bigness
-4.857391	bike
-5.556361	bikes
-5.556361	biking
-6.033483	bikini
-5.07924	bilingual
-6.033483	bilingualism
-4.653271	bill
-5.732452	billboard
-6.033483	billed
-5.556361	billing
-5.188385	billion
-5.188385	billions
-4.803033	bills
-6.033483	bimbos
-4.528333	bin
-6.033483	binds
-5.732452	binge
-6.033483	bingo
-6.033483	bins
-5.188385	bio
-5.732452	biochem
-5.188385	biochemical
-5.732452	biography
-6.033483	bioinformatics
-4.618509	biological
-5.556361	biologically
-6.033483	biologicals
-6.033483	biologist
-5.334512	biology
-5.732452	bioterrorism
-6.033483	biotics
-6.033483	biowarfare
-6.033483	bir
-6.033483	biracial
-5.255331	bird
-5.033483	birds
-6.033483	birkenstock
-5.732452	birkenstocks
-5.033483	birth
-4.343287	birthday
-5.07924	birthdays
-6.033483	birthing
-5.556361	biscuits
-6.033483	bisexual
-6.033483	bisexuality
-5.732452	bistro
-3.351337	bit
-5.556361	bitch
-5.033483	bite
-5.334512	biting
-4.857391	bits
-6.033483	bitten
-5.07924	bitter
-5.556361	bitty
-4.442418	bizarre
-6.033483	bizarrely
-5.732452	bl
-5.556361	bla
-5.732452	blab
-6.033483	blabber
-4.277607	black
-6.033483	blackballed
-5.732452	blackjack
-5.732452	blackmail
-6.033483	bladder
-5.431422	blade
-6.033483	blading
-4.420699	blah
-5.732452	blahsy
-5.431422	blair
-6.033483	blake
-4.653271	blame
-5.732452	blamed
-5.732452	blanched
-5.188385	bland
-5.334512	blank
-5.255331	blanket
-6.033483	blankie
-6.033483	blanking
-5.334512	blast
-6.033483	blasted
-5.556361	blasting
-5.732452	blatant
-5.431422	blatantly
-6.033483	blazes
-6.033483	bleached
-6.033483	bleah
-5.732452	bleed
-5.732452	bleeding
-5.556361	blend
-5.732452	blended
-6.033483	blender
-5.07924	bless
-5.255331	blessed
-6.033483	blessing
-5.556361	blew
-4.618509	blind
-6.033483	blinders
-6.033483	blindly
-6.033483	blink
-6.033483	blips
-6.033483	blissfully
-6.033483	blisters
-5.732452	blizzard
-6.033483	blo
-6.033483	blob
-4.803033	block
-6.033483	blockade
-6.033483	blockage
-6.033483	blockbusters
-5.732452	blocked
-6.033483	blocking
-5.130393	blocks
-5.556361	blond
-5.334512	blonde
-4.39003	blood
-6.033483	bloody
-5.431422	bloomberg
-6.033483	bloomington
-6.033483	blotter
-6.033483	blouse
-4.602118	blow
-6.033483	blower
-5.255331	blowing
-5.188385	blown
-5.188385	blows
-4.754729	blue
-5.431422	blues
-6.033483	blunt
-6.033483	blur
-5.732452	blurb
-6.033483	blurrsville
-6.033483	bly
-5.431422	bo
-6.033483	boa
-4.489414	board
-5.07924	boarding
-5.334512	boards
-6.033483	boars
-4.919539	boat
-5.556361	boating
-6.033483	bob
-6.033483	bobick
-6.033483	boca
-6.033483	boccie
-6.033483	bode
-6.033483	bodge
-6.033483	bodie
-4.954301	bodies
-4.060355	body
-5.431422	bodys
-6.033483	bogeyman
-5.556361	bogged
-6.033483	boggled
-5.732452	boggles
-5.732452	boggling
-6.033483	boggy
-6.033483	bogus
-5.033483	boil
-6.033483	boiled
-6.033483	boiling
-5.732452	boils
-6.033483	bois
-5.556361	bolder
-6.033483	bolivia
-6.033483	bolster
-4.410233	bomb
-6.033483	bombard
-6.033483	bombarded
-5.334512	bombed
-5.188385	bomber
-5.334512	bombers
-4.556361	bombing
-5.732452	bombings
-4.602118	bombs
-5.732452	bon
-4.99209	bond
-5.556361	bonding
-5.431422	bonds
-5.431422	bone
-6.033483	bones
-6.033483	bonfire
-6.033483	bonny
-5.188385	bonus
-6.033483	bonuses
-5.732452	boo
-6.033483	boobs
-4.084093	book
-5.556361	booked
-6.033483	bookkeeper
-5.130393	bookkeeping
-4.098984	books
-6.033483	booksellers
-4.919539	bookstore
-5.556361	bookstores
-4.919539	boom
-5.556361	booming
-6.033483	boonies
-6.033483	boop
-5.255331	boost
-5.732452	booster
-5.130393	boot
-6.033483	booted
-6.033483	booth
-5.556361	boots
-6.033483	bootstraps
-5.431422	booze
-6.033483	bopper
-6.033483	boppers
-4.671755	border
-5.732452	bordering
-5.556361	borderline
-5.334512	borders
-4.586324	bored
-6.033483	boredom
-4.453699	boring
-4.130393	born
-6.033483	boroughs
-6.033483	borrow
-5.732452	borrowed
-6.033483	borrowing
-5.07924	bosnia
-6.033483	bosniaherzegovina
-5.732452	bosnian
-4.829362	boss
-5.732452	bosses
-4.042256	boston
-6.033483	bostons
-6.033483	bot
-5.732452	botanic
-6.033483	botches
-3.495663	both
-4.352241	bother
-5.033483	bothered
-5.556361	bothering
-4.586324	bothers
-5.732452	bothersome
-4.803033	bottle
-5.732452	bottled
-5.556361	bottles
-4.69106	bottom
-5.556361	bou
-4.317479	bought
-4.919539	boulder
-6.033483	boulevard
-5.431422	bounce
-6.033483	bouncer
-5.556361	bouncing
-4.99209	bound
-5.431422	boundaries
-5.732452	boundary
-5.732452	bounds
-5.732452	bouquet
-6.033483	bourbon
-4.255331	bout
-6.033483	boutique
-5.732452	boutonniere
-4.857391	bowl
-6.033483	bowlathon
-5.431422	bowling
-5.732452	bowls
-4.431422	box
-5.556361	boxed
-5.732452	boxer
-5.732452	boxers
-4.711263	boxes
-6.033483	boxful
-5.130393	boxing
-4.033483	boy
-6.033483	boyf
-6.033483	boyfr
-4.089	boyfriend
-4.887354	boyfriends
-4.602118	boys
-5.431422	br
-5.334512	bra
-5.732452	bracket
-5.732452	brackets
-6.033483	brad
-5.431422	brady
-6.033483	bragging
-6.033483	bragiol
-6.033483	brahmin
-4.857391	brain
-6.033483	braindead
-6.033483	brained
-6.033483	brainer
-6.033483	brains
-6.033483	brainstorm
-6.033483	brainstorming
-6.033483	brainwash
-5.732452	brainwashed
-6.033483	brainwashing
-6.033483	brake
-6.033483	brakes
-6.033483	braking
-6.033483	bramma
-5.188385	branch
-6.033483	branched
-5.732452	branches
-4.803033	brand
-6.033483	brandeis
-5.556361	brands
-5.732452	brandy
-5.732452	brat
-5.334512	brave
-5.732452	brazen
-5.431422	brazil
-6.033483	brazilian
-5.732452	brea
-5.732452	breach
-4.618509	bread
-6.033483	breads
-6.033483	breadth
-6.033483	bready
-3.972785	break
-5.732452	breakdown
-6.033483	breaker
-4.754729	breakfast
-4.803033	breaking
-4.857391	breaks
-6.033483	breastfeed
-6.033483	breastfeeding
-3.711263	breath
-4.954301	breathe
-6.033483	breathed
-6.033483	breather
-5.732452	breathes
-4.732452	breathing
-6.033483	breathtaking
-5.431422	bred
-5.556361	breed
-5.255331	breeding
-5.556361	breeds
-6.033483	breeze
-5.732452	brenda
-6.033483	brent
-5.732452	brew
-6.033483	brewans
-5.732452	brewed
-6.033483	brewers
-6.033483	brewin
-6.033483	bri
-5.188385	brian
-5.255331	briars
-6.033483	bribe
-5.732452	bribed
-6.033483	bribery
-5.188385	bride
-5.431422	brides
-6.033483	bridevillas
-6.033483	bridezilla
-4.954301	bridge
-6.033483	bridged
-5.431422	bridges
-6.033483	bridget
-6.033483	bridgette
-5.255331	brief
-6.033483	briefed
-6.033483	briefings
-5.255331	briefly
-6.033483	brigade
-6.033483	brigay
-5.188385	bright
-5.732452	brighter
-5.732452	brightest
-5.334512	brilliant
-6.033483	brim
-3.976578	bring
-4.571084	bringing
-4.489414	brings
-6.033483	brisk
-6.033483	bristled
-6.033483	bristol
-4.887354	britain
-4.556361	british
-5.556361	britney
-5.732452	bro
-5.033483	broad
-6.033483	broadbased
-5.255331	broadcast
-5.732452	broadcasting
-5.732452	broadcasts
-5.431422	broader
-5.07924	broadway
-5.431422	broccoli
-6.033483	brochures
-6.033483	broiled
-6.033483	brokaw
-4.502004	broke
-4.803033	broken
-5.431422	broker
-6.033483	brokering
-5.732452	bronchial
-4.732452	bronchitis
-6.033483	bronco
-5.732452	bronx
-6.033483	brood
-5.556361	brooke
-4.954301	brooklyn
-6.033483	brooks
-6.033483	broom
-5.732452	broth
-3.745681	brother
-4.370725	brothers
-6.033483	brou
-4.207407	brought
-5.732452	browbeat
-4.887354	brown
-6.033483	brownies
-5.556361	browser
-6.033483	browsing
-6.033483	brubacker
-6.033483	bruises
-5.255331	brunette
-5.732452	brunswick
-6.033483	brush
-5.732452	brushed
-6.033483	brushes
-6.033483	bruso
-6.033483	brussel
-5.556361	brutal
-5.556361	brute
-6.033483	bryn
-5.07924	bu
-5.07924	bubble
-6.033483	bubbles
-5.255331	buck
-5.556361	bucket
-5.732452	buckle
-5.556361	buckles
-4.343287	bucks
-6.033483	buckwheat
-6.033483	bud
-5.556361	buddha
-5.255331	buddhist
-5.732452	buddies
-5.130393	buddy
-5.334512	budget
-6.033483	budgeting
-6.033483	budgie
-5.556361	buds
-6.033483	buff
-5.431422	buffalo
-5.188385	buffet
-5.033483	buffets
-5.732452	buffy
-5.188385	bug
-6.033483	bugging
-4.618509	bugs
-6.033483	buil
-4.317479	build
-5.556361	builder
-4.200974	building
-4.732452	buildings
-5.431422	builds
-4.829362	built
-5.334512	bulgaria
-6.033483	bulk
-5.130393	bull
-6.033483	bulldogs
-5.556361	bulldozer
-5.431422	bullet
-6.033483	bulletproof
-5.431422	bullets
-6.033483	bullied
-5.732452	bullies
-5.732452	bulls
-6.033483	bullying
-6.033483	bummed
-5.334512	bummer
-6.033483	bump
-6.033483	bumped
-5.556361	bumper
-6.033483	bun
-3.957936	bunch
-5.431422	bundle
-5.334512	bundled
-5.732452	bundles
-6.033483	bungalow
-6.033483	bunk
-6.033483	bunnies
-5.188385	bunny
-6.033483	burbs
-5.556361	burden
-6.033483	bureau
-5.188385	bureaucracy
-5.732452	bureaucratic
-6.033483	bureaucrats
-6.033483	burgen
-5.431422	burger
-5.732452	burgers
-5.556361	buried
-6.033483	burka
-5.732452	burke
-6.033483	burlington
-6.033483	burman
-4.919539	burn
-5.556361	burned
-5.556361	burner
-5.431422	burning
-5.556361	burns
-5.556361	burnt
-6.033483	burrito
-6.033483	burroughs
-5.732452	burst
-6.033483	bursting
-6.033483	bury
-5.033483	bus
-3.86913	bush
-6.033483	bushes
-4.887354	bushs
-6.033483	busi
-5.732452	busier
-6.033483	busiest
-5.732452	busily
-6.033483	busin
-3.387079	business
-4.431422	businesses
-5.431422	businessmen
-5.556361	busses
-5.556361	bust
-5.556361	busted
-6.033483	busting
-6.033483	bustle
-6.033483	busts
-4.241091	busy
-2.052843	but
-6.033483	butch
-6.033483	butcher
-6.033483	butchered
-6.033483	butler
-6.033483	butlers
-4.954301	butt
-4.829362	butter
-6.033483	butterfly
-4.887354	button
-5.188385	buttons
-5.732452	butts
-3.834825	buy
-4.635542	buying
-5.732452	buys
-5.556361	buzz
-6.033483	buzzer
-3.17857	by
-4.004099	bye
-5.732452	byebye
-5.732452	bypass
-6.033483	bypassed
-6.033483	byron
-4.130393	c
-4.528333	ca
-4.99209	cab
-5.732452	cabbage
-5.334512	cabin
-5.130393	cabinet
-4.352241	cable
-6.033483	caboodle
-6.033483	cabs
-6.033483	cadets
-5.431422	caesar
-5.556361	cafe
-6.033483	cafes
-5.556361	cafeteria
-5.556361	caffeinated
-4.141388	caffeine
-5.732452	caffeines
-5.431422	cage
-6.033483	caged
-4.857391	cake
-5.556361	cakes
-5.556361	cal
-6.033483	calais
-5.732452	calamari
-5.556361	calcium
-6.033483	calculate
-6.033483	calculating
-6.033483	calculation
-6.033483	calculator
-5.732452	calculus
-4.77821	calendar
-5.130393	calendars
-5.556361	cali
-6.033483	caliber
-6.033483	calif
-6.033483	californ
-3.909631	california
-5.556361	californians
-6.033483	californias
-3.333645	call
-3.529692	called
-5.130393	caller
-6.033483	callers
-6.033483	callin
-4.029161	calling
-6.033483	callous
-4.000059	calls
-4.829362	calm
-5.732452	calmed
-6.033483	calmer
-6.033483	calmness
-5.556361	calorie
-5.334512	calories
-5.732452	calvin
-5.431422	cam
-6.033483	camaros
-6.033483	cambodia
-6.033483	cambria
-5.556361	cambridge
-6.033483	camden
-3.503283	came
-6.033483	camel
-5.732452	camelot
-4.602118	camera
-4.671755	cameras
-6.033483	camouflage
-4.887354	camp
-5.334512	campaign
-5.556361	campaigns
-6.033483	campbells
-5.732452	campers
-6.033483	campfire
-4.635542	camping
-5.431422	camps
-4.241091	campus
-5.732452	campuses
-5.732452	cams
-2.621022	can
-4.227303	canada
-5.732452	canadas
-4.671755	canadian
-4.919539	canadians
-5.556361	canal
-4.954301	cancel
-6.033483	canceled
-4.919539	cancelled
-6.033483	cancelling
-4.343287	cancer
-6.033483	cancers
-5.431422	cancun
-5.732452	candace
-5.732452	candid
-5.255331	candidate
-6.033483	candidates
-5.334512	candies
-5.255331	candle
-5.334512	candles
-4.431422	candy
-5.732452	candys
-5.732452	cane
-5.033483	canned
-5.431422	canning
-5.732452	cannoli
-6.033483	cannon
-5.334512	canoe
-5.431422	canoeing
-6.033483	canopies
-5.556361	cans
-3.040487	cant
-6.033483	cantaloupe
-6.033483	cantry
-5.255331	cap
-5.556361	capabilities
-5.556361	capability
-5.130393	capable
-5.556361	capacity
-5.334512	cape
-5.732452	capita
-4.99209	capital
-5.556361	capitalism
-6.033483	capitalistic
-5.732452	capitalize
-4.99209	capitol
-6.033483	capmus
-6.033483	cappers
-6.033483	cappuccino
-5.431422	caps
-5.334512	captain
-5.732452	captains
-6.033483	caption
-5.556361	captions
-5.732452	capture
-5.732452	captured
-6.033483	capturing
-3.899944	car
-6.033483	caramel
-6.033483	carb
-5.732452	carbohydrates
-5.556361	carbonated
-6.033483	carbonation
-6.033483	carcass
-4.528333	card
-6.033483	carded
-6.033483	cardio
-6.033483	cardiologist
-4.38027	cards
-3.57409	care
-5.07924	cared
-4.653271	career
-5.255331	careers
-6.033483	caref
-4.47718	careful
-5.255331	carefully
-6.033483	carelessly
-4.803033	cares
-6.033483	caretakers
-5.732452	cargo
-5.732452	cariballo
-5.732452	caribbean
-6.033483	caricature
-6.033483	caricatures
-5.130393	caring
-6.033483	carla
-5.556361	carlin
-5.732452	carlson
-6.033483	carmela
-6.033483	carnation
-6.033483	carnegie
-6.033483	carney
-5.431422	carnival
-5.431422	carol
-4.442418	carolina
-6.033483	carolinas
-5.732452	caroling
-6.033483	carolinians
-5.431422	carols
-5.732452	carolyn
-6.033483	carpe
-6.033483	carpenters
-5.732452	carrie
-5.130393	carried
-6.033483	carrier
-5.732452	carriers
-5.556361	carries
-5.334512	carrots
-4.352241	carry
-4.77821	carrying
-5.431422	carryon
-6.033483	carryons
-4.489414	cars
-5.556361	carson
-5.556361	cart
-6.033483	carted
-5.556361	carter
-6.033483	carting
-5.732452	carton
-6.033483	cartons
-5.255331	cartoon
-6.033483	carve
-6.033483	carved
-5.255331	carvel
-6.033483	carving
-6.033483	cary
-3.916211	case
-4.829362	cases
-5.188385	cash
-5.556361	cashed
-6.033483	cashier
-6.033483	cashiers
-6.033483	cashmir
-5.334512	casino
-5.334512	casinos
-6.033483	cassandra
-5.431422	casserole
-6.033483	casseroles
-5.732452	cassie
-4.919539	cast
-6.033483	casting
-5.431422	castro
-6.033483	casts
-5.255331	casual
-5.556361	casually
-6.033483	casualties
-6.033483	casualty
-4.17016	cat
-6.033483	cata
-6.033483	catalog
-6.033483	catalogue
-5.556361	catalogues
-5.732452	catalyst
-6.033483	catalyze
-6.033483	catastrophe
-5.556361	catastrophic
-4.089	catch
-5.431422	catches
-4.732452	catching
-5.732452	categories
-6.033483	categorize
-5.334512	category
-5.732452	cater
-6.033483	catered
-6.033483	caterer
-5.334512	catering
-6.033483	caters
-6.033483	catfish
-4.732452	catholic
-6.033483	catholicism
-5.188385	catholics
-5.556361	cathy
-4.277607	cats
-6.033483	cattle
-6.033483	catty
-5.334512	cau
-5.431422	caucasian
-4.130393	caught
-6.033483	cauldron
-5.556361	cauliflower
-6.033483	caus
-3.014366	cause
-4.754729	caused
-4.829362	causes
-5.07924	causing
-5.732452	caution
-4.77821	cautious
-5.732452	cave
-6.033483	caved
-5.431422	caves
-5.732452	cavities
-6.033483	cavity
-6.033483	cawarmill
-6.033483	cayenne
-6.033483	cdroms
-5.732452	ceiling
-6.033483	cel
-6.033483	cele
-6.033483	celeb
-3.984264	celebrate
-4.711263	celebrated
-5.033483	celebrates
-4.711263	celebrating
-4.754729	celebration
-5.188385	celebrations
-6.033483	celebratory
-6.033483	celebri
-5.130393	celebrities
-4.857391	celebrity
-6.033483	celery
-6.033483	celestial
-4.453699	cell
-5.556361	cellar
-6.033483	cellos
-5.07924	cellphone
-6.033483	cellphones
-5.732452	cells
-6.033483	cellular
-6.033483	celtic
-6.033483	cemented
-6.033483	cemetery
-5.556361	censor
-5.255331	censored
-5.07924	censorship
-5.732452	census
-6.033483	cent
-6.033483	centennial
-4.343287	center
-5.732452	centerfold
-5.732452	centers
-5.732452	centigrade
-5.732452	centimeters
-4.489414	central
-6.033483	centre
-6.033483	centric
-4.99209	cents
-5.334512	centuries
-4.99209	century
-6.033483	cept
-6.033483	ception
-5.732452	cer
-5.255331	cereal
-6.033483	cerebral
-6.033483	ceremonies
-5.431422	ceremony
-6.033483	cert
-3.655085	certain
-3.813374	certainly
-6.033483	certainty
-5.130393	certificate
-5.334512	certificates
-5.255331	certification
-6.033483	certifications
-5.732452	certified
-5.556361	cervical
-5.033483	cetera
-6.033483	cette
-5.033483	ch
-5.556361	cha
-4.829362	chain
-5.334512	chains
-5.334512	chair
-5.556361	chairs
-6.033483	chalice
-5.732452	chalk
-4.754729	challenge
-5.732452	challenged
-5.033483	challenges
-4.919539	challenging
-6.033483	cham
-5.431422	chamber
-6.033483	chamo
-5.556361	chamomile
-5.334512	champagne
-5.188385	champaign
-6.033483	champaigns
-6.033483	champion
-5.431422	championship
-5.732452	championships
-5.431422	chan
-4.089	chance
-6.033483	chancellor
-4.69106	chances
-3.580164	change
-3.909631	changed
-4.000059	changes
-4.420699	changing
-4.26263	channel
-4.556361	channels
-6.033483	chanting
-5.188385	chanukah
-5.255331	chaos
-5.732452	chaotic
-5.431422	chapel
-5.556361	chapter
-5.556361	chapters
-4.919539	character
-6.033483	characteristic
-4.887354	characters
-6.033483	charcoal
-4.803033	charge
-6.033483	charged
-5.431422	charges
-5.556361	charging
-5.732452	charisma
-6.033483	charismatic
-5.732452	charitable
-5.07924	charity
-5.732452	charles
-5.431422	charlie
-5.130393	charlotte
-6.033483	charlottes
-5.732452	charlottesville
-5.556361	charm
-6.033483	charmed
-5.556361	charming
-6.033483	charter
-6.033483	charters
-6.033483	charts
-5.130393	chase
-5.255331	chasing
-4.711263	chat
-6.033483	chats
-6.033483	chattanooga
-6.033483	chatterboxes
-6.033483	chattering
-5.188385	chatting
-6.033483	chatty
-6.033483	chauvinistic
-6.033483	che
-6.033483	chea
-4.352241	cheap
-6.033483	cheapening
-4.671755	cheaper
-5.732452	cheapest
-6.033483	cheaply
-5.334512	cheat
-5.732452	cheated
-5.732452	cheaters
-6.033483	cheatin
-5.255331	cheating
-3.878146	check
-4.442418	checked
-6.033483	checker
-5.732452	checkerboards
-6.033483	checkers
-6.033483	checkin
-4.489414	checking
-5.556361	checklist
-6.033483	checkout
-6.033483	checkpoint
-5.732452	checkpoints
-4.542121	checks
-6.033483	checkup
-6.033483	checkups
-6.033483	cheddar
-5.334512	cheek
-6.033483	cheeks
-6.033483	cheer
-6.033483	cheerful
-6.033483	cheers
-4.671755	cheese
-6.033483	cheeses
-5.130393	cheesy
-5.732452	chef
-5.556361	chefs
-5.033483	chemical
-6.033483	chemically
-5.130393	chemicals
-5.130393	chemistry
-6.033483	chen
-6.033483	cheney
-5.732452	cheque
-6.033483	cherish
-6.033483	cherokee
-5.255331	cherry
-5.556361	chess
-4.99209	chest
-5.732452	chester
-6.033483	chestnut
-5.334512	chew
-6.033483	chewed
-6.033483	chewing
-6.033483	chews
-6.033483	chewy
-5.732452	cheyenne
-4.99209	chi
-6.033483	chiana
-5.732452	chic
-5.732452	chica
-4.182224	chicago
-5.556361	chick
-5.732452	chickasha
-4.213939	chicken
-5.556361	chickens
-6.033483	chico
-4.000059	child
-6.033483	childcare
-5.033483	childhood
-6.033483	childish
-3.611879	children
-4.77821	childrens
-5.732452	childs
-5.07924	chile
-6.033483	chilean
-4.829362	chili
-5.732452	chilis
-5.033483	chill
-6.033483	chilled
-6.033483	chills
-5.431422	chilly
-6.033483	chime
-6.033483	chimed
-6.033483	chimpanzees
-6.033483	chin
-4.012293	china
-5.732452	chinatown
-5.732452	chinchilla
-6.033483	chinchillas
-4.119668	chinese
-5.431422	ching
-5.556361	chip
-6.033483	chipatla
-5.732452	chips
-6.033483	chit
-6.033483	chloriseptic
-4.754729	chocolate
-5.188385	chocolates
-4.07924	choice
-4.671755	choices
-5.255331	choir
-5.732452	choke
-5.188385	cholesterol
-5.732452	cholmski
-6.033483	chomping
-6.033483	chomsky
-4.234142	choose
-5.556361	chooses
-5.188385	choosing
-5.556361	chop
-5.732452	chopping
-6.033483	chopsticks
-5.556361	chorale
-5.732452	chore
-4.857391	chose
-4.99209	chosen
-5.732452	chowder
-6.033483	chr
-5.556361	chretien
-4.99209	chris
-5.130393	christ
-4.442418	christian
-5.255331	christianity
-6.033483	christianized
-4.99209	christians
-5.334512	christina
-5.431422	christine
-3.309206	christmas
-5.431422	christmases
-5.334512	christmastime
-5.732452	christmasy
-6.033483	christy
-6.033483	chrisu
-6.033483	chromatography
-5.255331	chronic
-6.033483	chuck
-6.033483	chugging
-5.732452	chunk
-6.033483	chunky
-4.431422	church
-5.431422	churches
-6.033483	churn
-6.033483	ciga
-4.954301	cigar
-4.410233	cigarette
-4.453699	cigarettes
-5.033483	cigars
-6.033483	cilantro
-6.033483	cinavate
-5.334512	cincinnati
-6.033483	cinco
-6.033483	cinderella
-5.431422	cindy
-5.556361	cinema
-5.732452	cinemax
-4.857391	circle
-5.334512	circles
-5.732452	circuit
-5.732452	circuits
-6.033483	circulated
-5.732452	circulating
-5.334512	circulation
-6.033483	circulations
-6.033483	circulatory
-5.431422	circumstance
-4.711263	circumstances
-6.033483	circumstantial
-6.033483	circumvent
-6.033483	circuses
-6.033483	citations
-5.556361	cited
-4.671755	cities
-4.635542	citizen
-4.829362	citizens
-5.255331	citizenship
-5.334512	citrus
-3.602119	city
-5.556361	civic
-4.69106	civil
-5.732452	civilians
-6.033483	civility
-5.556361	civilization
-6.033483	civilizations
-5.033483	civilized
-5.255331	cl
-5.732452	cla
-4.99209	claim
-5.732452	claimed
-5.732452	claiming
-5.07924	claims
-6.033483	clair
-5.732452	claire
-5.732452	clairol
-5.732452	clam
-5.732452	clamoring
-6.033483	clamped
-6.033483	clamping
-6.033483	clancy
-5.556361	clare
-6.033483	claremont
-6.033483	clarinet
-4.829362	claritin
-6.033483	clark
-6.033483	clarkson
-6.033483	claryn
-6.033483	clarynox
-5.732452	clash
-6.033483	clashes
-6.033483	clashing
-3.775804	class
-3.980404	classes
-5.255331	classic
-6.033483	classically
-5.556361	classified
-6.033483	classifies
-5.732452	classify
-6.033483	classmate
-5.130393	classmates
-4.618509	classroom
-5.556361	classrooms
-5.732452	claus
-5.732452	claustrophobic
-5.732452	claveen
-5.556361	claws
-6.033483	clay
-6.033483	claymation
-4.431422	clean
-5.130393	cleaned
-5.732452	cleaner
-6.033483	cleanest
-4.857391	cleaning
-6.033483	cleanliness
-5.732452	cleanly
-6.033483	cleans
-4.343287	clear
-5.431422	cleared
-4.556361	clearly
-6.033483	clearview
-6.033483	cleft
-6.033483	clement
-6.033483	clenched
-4.954301	cleveland
-4.77821	clever
-5.732452	cliche
-5.732452	cliched
-6.033483	cliches
-5.130393	click
-5.556361	clicked
-5.556361	clicking
-5.732452	clicks
-6.033483	client
-6.033483	clientele
-4.829362	clients
-4.919539	climate
-6.033483	climates
-5.033483	climb
-6.033483	climber
-5.255331	climbing
-6.033483	climes
-5.130393	clinic
-5.188385	clinical
-6.033483	clinker
-4.829362	clinton
-5.732452	clintons
-5.732452	clip
-6.033483	clipboard
-5.07924	clippers
-5.255331	clips
-6.033483	clique
-6.033483	clo
-5.732452	cloak
-4.857391	clock
-6.033483	clocks
-6.033483	clod
-5.431422	clogged
-3.578638	close
-4.514968	closed
-4.954301	closely
-5.188385	closeness
-4.453699	closer
-6.033483	closers
-6.033483	closes
-4.754729	closest
-5.334512	closet
-5.07924	closing
-6.033483	closures
-6.033483	clot
-4.571084	clothes
-4.754729	clothing
-5.431422	cloudy
-6.033483	clout
-6.033483	clove
-5.732452	clown
-4.602118	club
-5.033483	clubs
-4.542121	clue
-5.188385	clues
-6.033483	clumsiness
-6.033483	clustered
-4.99209	co
-5.431422	coach
-6.033483	coached
-5.556361	coaching
-5.732452	coal
-6.033483	coalition
-4.093963	coast
-5.732452	coasters
-6.033483	coasts
-4.887354	coat
-6.033483	coated
-6.033483	coca
-6.033483	cocaine
-5.732452	cock
-6.033483	cocker
-4.887354	cockpit
-6.033483	cockpits
-6.033483	cockroaches
-6.033483	cocktail
-5.732452	cocktails
-5.732452	coconut
-5.556361	cod
-5.033483	code
-6.033483	coded
-5.556361	codeine
-5.431422	codes
-6.033483	coding
-5.334512	coed
-6.033483	coexist
-6.033483	cof
-4.098984	coffee
-5.732452	coffees
-6.033483	coffers
-5.334512	cognitive
-6.033483	cognizant
-5.732452	cohash
-6.033483	coi
-6.033483	coincid
-6.033483	coincide
-6.033483	coincided
-5.334512	coincidence
-6.033483	coincidences
-5.732452	coincidental
-5.556361	coincidentally
-6.033483	coincides
-6.033483	coinciding
-4.732452	coke
-5.431422	col
-5.255331	cola
-6.033483	colander
-6.033483	colas
-3.213938	cold
-4.571084	colder
-5.255331	coldest
-5.334512	coldeze
-6.033483	coldness
-4.008177	colds
-6.033483	coleslaw
-5.431422	colin
-6.033483	coll
-6.033483	collaboration
-6.033483	collage
-5.732452	collapse
-5.334512	collapsed
-6.033483	collapsing
-6.033483	collar
-6.033483	colle
-5.732452	colleague
-5.188385	colleagues
-5.07924	collect
-5.556361	collected
-5.556361	collecting
-5.431422	collection
-6.033483	collective
-5.732452	collector
-6.033483	collects
-5.732452	colleen
-3.473576	college
-6.033483	collegeing
-4.829362	colleges
-6.033483	collie
-6.033483	collins
-5.431422	colombia
-6.033483	colombo
-6.033483	colon
-5.556361	colonial
-6.033483	colonialists
-6.033483	colonization
-6.033483	colonized
-4.829362	color
-4.556361	colorado
-6.033483	colorados
-6.033483	colored
-5.334512	colorful
-5.732452	coloring
-5.334512	colors
-5.188385	columbia
-6.033483	columbine
-4.711263	columbus
-6.033483	column
-4.489414	com
-6.033483	coma
-5.732452	comb
-5.556361	combat
-6.033483	combating
-4.954301	combination
-5.255331	combine
-5.556361	combined
-5.556361	combines
-6.033483	combing
-6.033483	combining
-3.218569	come
-5.556361	comedian
-5.033483	comedians
-4.732452	comedy
-5.732452	comers
-3.728131	comes
-5.07924	comfort
-6.033483	comforta
-4.325912	comfortable
-6.033483	comfortably
-6.033483	comforter
-5.334512	comforting
-4.77821	comic
-5.732452	comical
-6.033483	comically
-3.642547	coming
-6.033483	comma
-6.033483	command
-6.033483	commandeer
-6.033483	commands
-5.431422	commemorate
-6.033483	commemorating
-6.033483	commemorative
-6.033483	commend
-6.033483	commensurates
-4.919539	comment
-5.556361	commentary
-6.033483	commentator
-5.732452	commentators
-6.033483	commented
-6.033483	commenting
-5.188385	comments
-5.732452	commerce
-4.431422	commercial
-5.07924	commercialism
-5.188385	commercialization
-6.033483	commercialize
-5.033483	commercialized
-5.732452	commercializing
-6.033483	commercially
-4.571084	commercials
-6.033483	commie
-5.732452	commission
-4.556361	commit
-4.711263	commitment
-5.732452	commitments
-5.732452	commits
-4.829362	committed
-5.556361	committee
-5.033483	committing
-4.135855	common
-5.556361	commonality
-5.334512	commonplace
-5.732452	commons
-6.033483	commonsense
-5.431422	communal
-5.732452	communicable
-4.602118	communicate
-6.033483	communicates
-4.99209	communicating
-4.586324	communication
-4.829362	communications
-5.732452	communicative
-6.033483	communism
-6.033483	communist
-6.033483	communists
-5.334512	communities
-4.317479	community
-6.033483	communitys
-5.556361	commute
-6.033483	commuter
-5.732452	commutes
-6.033483	commuting
-5.130393	comp
-4.152669	companies
-5.732452	companion
-6.033483	companions
-3.887354	company
-5.334512	companys
-5.732452	comparable
-5.556361	comparative
-4.99209	compare
-4.400014	compared
-6.033483	compares
-5.334512	comparing
-5.188385	comparison
-5.732452	comparisons
-6.033483	compartment
-5.732452	compassionate
-5.556361	compatibility
-4.99209	compatible
-6.033483	compel
-6.033483	compelled
-5.556361	compelling
-6.033483	compels
-5.732452	compensate
-5.732452	compensated
-5.732452	compensation
-5.431422	compete
-5.334512	competing
-5.033483	competition
-5.732452	competitions
-5.732452	competitive
-6.033483	competitiveness
-6.033483	competitor
-6.033483	compiled
-6.033483	compilers
-6.033483	compiling
-6.033483	compl
-4.711263	complain
-5.334512	complained
-4.99209	complaining
-5.732452	complains
-6.033483	complaint
-5.732452	complaints
-6.033483	complement
-4.502004	complete
-5.732452	completed
-3.916211	completely
-6.033483	completing
-4.887354	complex
-6.033483	compli
-6.033483	compliant
-4.77821	complicated
-5.732452	complicates
-6.033483	complication
-5.431422	complications
-5.732452	compliment
-6.033483	complimentary
-5.130393	comply
-5.732452	complying
-5.334512	component
-6.033483	components
-6.033483	composing
-5.255331	composition
-6.033483	compost
-6.033483	composure
-5.732452	comprehend
-6.033483	comprehension
-6.033483	comprehensive
-6.033483	compressed
-4.954301	compromise
-6.033483	compromises
-5.556361	compromising
-5.732452	compu
-5.334512	compulsive
-6.033483	compulsivity
-5.732452	compulsory
-5.130393	computational
-3.533795	computer
-6.033483	computerize
-6.033483	computerized
-3.790444	computers
-5.334512	computing
-6.033483	comraderie
-6.033483	coms
-4.887354	con
-6.033483	conceal
-5.732452	conceited
-6.033483	conceivable
-6.033483	conceive
-5.130393	concentrate
-6.033483	concentrated
-5.431422	concentrating
-5.556361	concentration
-6.033483	concentrations
-5.732452	concentrator
-4.602118	concept
-6.033483	conception
-5.732452	concepts
-6.033483	conceptual
-6.033483	conceptualization
-6.033483	concer
-4.489414	concern
-4.188385	concerned
-5.732452	concerning
-4.919539	concerns
-4.857391	concert
-6.033483	concerted
-5.431422	concerts
-6.033483	conciliate
-6.033483	conciliatory
-6.033483	conclude
-6.033483	conclus
-5.130393	conclusion
-5.732452	conclusions
-6.033483	conclusive
-6.033483	concoct
-6.033483	concoction
-6.033483	concord
-6.033483	concourses
-5.130393	concrete
-6.033483	concubine
-5.732452	concur
-6.033483	concurrently
-6.033483	condense
-6.033483	condensed
-6.033483	condensing
-6.033483	condiments
-4.99209	condition
-5.732452	conditional
-6.033483	conditioned
-6.033483	conditioner
-5.431422	conditioners
-5.431422	conditioning
-5.255331	conditions
-5.556361	condo
-5.334512	conduct
-6.033483	conducted
-5.732452	conducting
-5.188385	cone
-6.033483	confectionery
-4.954301	conference
-5.556361	conferences
-5.033483	confess
-6.033483	confessional
-5.732452	confide
-4.99209	confidence
-6.033483	confidences
-5.188385	confident
-6.033483	confidential
-6.033483	configure
-6.033483	configured
-5.732452	confirm
-6.033483	confirmation
-5.255331	confirmed
-6.033483	confirming
-5.334512	confiscated
-6.033483	conflated
-4.528333	conflict
-5.732452	conflicted
-6.033483	conflicting
-5.130393	conflicts
-6.033483	conform
-6.033483	conformist
-5.556361	conformity
-5.732452	confrontation
-6.033483	confrontations
-6.033483	confronted
-6.033483	confuse
-4.857391	confused
-5.732452	confuses
-5.255331	confusing
-5.732452	confusion
-6.033483	congenital
-6.033483	conger
-6.033483	congers
-5.732452	congested
-5.431422	congestion
-6.033483	congo
-5.732452	congrats
-6.033483	congratu
-4.803033	congratulations
-6.033483	congregation
-4.919539	congress
-5.130393	congressional
-5.732452	congressmen
-6.033483	conjunction
-6.033483	conjure
-6.033483	conked
-5.556361	conn
-4.829362	connect
-4.653271	connected
-4.465281	connecticut
-5.188385	connecting
-4.514968	connection
-5.07924	connections
-6.033483	connects
-6.033483	conner
-5.732452	connie
-6.033483	conning
-6.033483	connive
-6.033483	connotation
-6.033483	connotations
-6.033483	conp
-5.732452	conquer
-6.033483	conquered
-5.334512	cons
-5.334512	conscience
-4.77821	conscious
-5.431422	consciously
-5.556361	consciousness
-6.033483	conscription
-6.033483	consecutively
-5.255331	consensus
-5.732452	consequence
-4.829362	consequences
-5.556361	consequently
-6.033483	conservatism
-4.653271	conservative
-6.033483	conservatives
-6.033483	conserve
-4.089	consider
-6.033483	considerable
-5.334512	considerably
-5.188385	considerate
-5.033483	consideration
-5.732452	considerations
-4.361384	considered
-4.653271	considering
-5.732452	considers
-6.033483	consis
-6.033483	consistencies
-5.732452	consistency
-5.556361	consistent
-5.334512	consistently
-5.732452	consists
-6.033483	consonance
-5.130393	consortium
-5.130393	conspiracy
-6.033483	conspire
-6.033483	consta
-4.887354	constant
-4.325912	constantly
-6.033483	constituencies
-6.033483	constitute
-5.732452	constitutes
-6.033483	constrain
-5.732452	constrained
-5.732452	constraints
-6.033483	constrictor
-5.732452	construct
-6.033483	constructed
-4.732452	construction
-5.732452	constructive
-6.033483	consular
-6.033483	consult
-5.255331	consultant
-5.033483	consulting
-5.431422	consume
-6.033483	consumed
-5.188385	consumer
-5.033483	consuming
-5.255331	consumption
-5.732452	cont
-6.033483	conta
-4.47718	contact
-5.556361	contacted
-5.255331	contacts
-5.732452	contagion
-5.732452	contagious
-6.033483	contain
-5.732452	container
-6.033483	containers
-5.732452	contaminants
-6.033483	contaminate
-5.732452	contemplate
-5.732452	contemplated
-5.732452	contemplating
-5.732452	contend
-6.033483	contenders
-4.919539	content
-6.033483	contently
-5.255331	contest
-5.732452	contestant
-5.188385	contestants
-6.033483	contested
-5.255331	contests
-5.07924	context
-6.033483	contexts
-6.033483	contextual
-6.033483	contin
-5.556361	continent
-5.431422	continental
-5.732452	contingency
-5.732452	contingents
-6.033483	continual
-5.732452	continually
-5.556361	continuation
-4.420699	continue
-5.334512	continued
-5.188385	continues
-5.255331	continuing
-6.033483	continuity
-5.255331	continuously
-6.033483	contortion
-5.732452	contraband
-5.334512	contract
-5.556361	contracted
-5.732452	contracting
-6.033483	contraction
-6.033483	contractors
-5.130393	contracts
-6.033483	contradiction
-6.033483	contradictory
-6.033483	contrary
-5.732452	contrast
-6.033483	contri
-5.188385	contribute
-5.431422	contributed
-5.732452	contributes
-5.431422	contributing
-5.732452	contribution
-6.033483	contributions
-5.130393	contrived
-4.119668	control
-5.732452	controllable
-5.334512	controlled
-5.732452	controller
-5.033483	controlling
-5.431422	controls
-4.99209	controversial
-5.255331	controversy
-5.431422	convenience
-4.77821	convenient
-6.033483	conveniently
-5.188385	conventional
-6.033483	converge
-6.033483	converging
-6.033483	conversa
-6.033483	conversated
-3.99209	conversation
-5.334512	conversational
-4.586324	conversations
-5.07924	converse
-5.556361	convert
-5.188385	converted
-6.033483	converter
-6.033483	convertible
-6.033483	convertibles
-6.033483	converting
-6.033483	convey
-5.732452	conviction
-6.033483	convictions
-5.334512	convince
-4.954301	convinced
-5.431422	convincing
-5.732452	convincingly
-6.033483	convoluted
-3.933112	cook
-6.033483	cookbook
-5.732452	cookbooks
-5.033483	cooked
-5.431422	cookie
-4.602118	cookies
-4.194633	cooking
-5.334512	cooks
-6.033483	cookware
-3.358621	cool
-6.033483	coolan
-5.188385	cooler
-5.732452	coolers
-5.732452	coolest
-6.033483	coolidge
-6.033483	cools
-6.033483	coon
-6.033483	coonhead
-6.033483	coop
-6.033483	cooped
-5.334512	cooperate
-5.556361	cooperated
-5.188385	cooperation
-5.732452	cooperative
-6.033483	coordinate
-5.732452	coordination
-6.033483	coors
-6.033483	coowned
-5.07924	cop
-5.07924	cope
-5.732452	copenhagen
-5.732452	copies
-6.033483	coping
-6.033483	copout
-6.033483	copper
-4.732452	cops
-5.130393	copy
-5.556361	copyright
-5.732452	cor
-6.033483	cordial
-5.556361	cordless
-5.07924	core
-6.033483	corey
-6.033483	cork
-5.255331	corn
-5.732452	cornell
-4.711263	corner
-5.255331	corners
-6.033483	cornfield
-5.431422	cornfields
-5.732452	cornish
-5.732452	corny
-6.033483	corpor
-5.334512	corpora
-4.334512	corporate
-5.732452	corporates
-4.754729	corporation
-4.829362	corporations
-5.732452	corps
-5.07924	corpus
-6.033483	corpuses
-6.033483	corpuss
-4.502004	correct
-6.033483	correction
-5.033483	correctly
-6.033483	correctness
-6.033483	correlate
-5.732452	correlation
-5.732452	correlations
-6.033483	correspond
-6.033483	correspondent
-6.033483	correspondents
-5.556361	corresponding
-5.732452	corrine
-6.033483	corroborate
-5.07924	corrupt
-6.033483	corrupted
-5.556361	corruption
-6.033483	corrupts
-5.732452	corset
-5.732452	cory
-5.431422	cosby
-6.033483	cosmopolitan
-4.618509	cost
-5.732452	costa
-6.033483	costco
-5.556361	costing
-5.334512	costly
-4.919539	costs
-5.188385	costume
-6.033483	costumed
-5.130393	costumes
-6.033483	costuming
-6.033483	cosy
-6.033483	cottage
-5.431422	cou
-4.919539	couch
-6.033483	cougar
-3.539328	cough
-5.431422	coughed
-4.857391	coughing
-5.732452	coughs
-6.033483	coul
-2.926272	could
-6.033483	couldn
-3.578638	couldnt
-4.919539	couldve
-6.033483	coun
-5.033483	council
-5.732452	counsel
-6.033483	counselor
-6.033483	counselors
-4.47718	count
-5.431422	counted
-4.47718	counter
-6.033483	counteract
-6.033483	counteracting
-6.033483	counterproductive
-5.732452	counters
-6.033483	counties
-5.255331	counting
-6.033483	countr
-3.86913	countries
-3.407142	country
-5.556361	countrys
-5.556361	countryside
-6.033483	countrywide
-4.887354	counts
-4.711263	county
-5.556361	coup
-3.363237	couple
-4.732452	couples
-6.033483	coupon
-5.431422	coupons
-6.033483	cour
-6.033483	courage
-6.033483	courageous
-3.429256	course
-4.586324	courses
-4.285295	court
-6.033483	courted
-6.033483	courteous
-5.431422	courtroom
-6.033483	courtrooms
-5.732452	courts
-6.033483	courtship
-4.671755	cousin
-4.465281	cousins
-6.033483	coven
-4.711263	cover
-4.887354	coverage
-4.635542	covered
-5.188385	covering
-5.130393	covers
-6.033483	covert
-5.732452	covey
-5.188385	cow
-5.431422	cowboy
-5.334512	cowboys
-5.732452	coworker
-5.255331	coworkers
-5.556361	cows
-5.255331	coyotes
-5.556361	cozy
-5.732452	cra
-6.033483	crabs
-5.255331	crabtree
-5.732452	crack
-5.732452	cracked
-5.732452	cracking
-6.033483	crackpot
-5.431422	cracks
-6.033483	cradle
-5.07924	craft
-6.033483	crafts
-5.556361	craig
-6.033483	cram
-6.033483	cramped
-6.033483	cranberries
-5.556361	crank
-6.033483	cranked
-4.653271	crap
-5.255331	crappy
-4.829362	crash
-4.954301	crashed
-5.732452	crashes
-5.732452	crashing
-5.556361	cratered
-5.334512	crave
-6.033483	craved
-5.556361	cravings
-5.556361	crawl
-5.556361	crawling
-6.033483	craze
-6.033483	craziest
-5.334512	craziness
-3.736817	crazy
-6.033483	cre
-4.465281	cream
-6.033483	creamed
-4.084093	create
-6.033483	createameals
-4.77821	created
-5.334512	creates
-4.635542	creating
-4.602118	creative
-6.033483	creatively
-5.556361	creativity
-5.732452	creches
-5.732452	credentialing
-5.732452	credentials
-6.033483	credibility
-5.431422	credible
-4.803033	credit
-6.033483	credited
-5.732452	credits
-6.033483	creed
-5.732452	creek
-6.033483	creep
-6.033483	creeped
-5.732452	creeping
-6.033483	creeps
-5.334512	creepy
-6.033483	creswell
-5.130393	crew
-5.732452	crews
-6.033483	cribe
-6.033483	cricket
-5.732452	cried
-4.671755	crime
-5.732452	criminal
-5.255331	criminals
-5.732452	criminology
-6.033483	cripple
-5.431422	crippled
-6.033483	cripples
-5.732452	crises
-5.130393	crisis
-6.033483	crisp
-6.033483	crispy
-5.556361	criteria
-6.033483	critic
-5.130393	critical
-5.556361	critically
-5.732452	criticism
-5.255331	criticize
-5.334512	criticizing
-5.732452	critique
-6.033483	croatia
-6.033483	crochet
-5.732452	crocheting
-6.033483	crooking
-5.130393	crop
-5.732452	croquettes
-4.69106	cross
-6.033483	crosscountry
-6.033483	crossdisciplinary
-5.188385	crossed
-5.556361	crosses
-5.431422	crossing
-6.033483	crossings
-6.033483	crossroads
-6.033483	crotch
-6.033483	croutons
-6.033483	crow
-5.07924	crowd
-4.803033	crowded
-6.033483	crowding
-5.334512	crowds
-6.033483	crows
-6.033483	cru
-6.033483	crucial
-6.033483	crucifix
-6.033483	crud
-5.255331	crude
-5.255331	cruel
-6.033483	cruelest
-4.887354	cruise
-6.033483	crummy
-5.732452	crunchy
-6.033483	crusader
-5.556361	crusades
-6.033483	crushed
-6.033483	crushes
-5.255331	crust
-6.033483	crutch
-6.033483	crux
-5.033483	cruz
-5.130393	cry
-5.334512	crying
-5.431422	crystal
-6.033483	cs
-5.431422	cspan
-5.732452	cu
-5.556361	cuba
-5.732452	cuban
-6.033483	cube
-6.033483	cucumbers
-6.033483	cuddle
-6.033483	cuddling
-5.732452	cue
-6.033483	cued
-6.033483	cues
-6.033483	cuff
-5.255331	cuisine
-6.033483	cuisines
-6.033483	cul
-6.033483	culdesac
-6.033483	culmination
-5.556361	cult
-6.033483	cultivated
-5.732452	cults
-4.653271	cultural
-5.255331	culturally
-4.114404	culture
-6.033483	cultured
-4.857391	cultures
-5.732452	cumulative
-6.033483	cumulatively
-4.99209	cup
-6.033483	cuppa
-5.255331	cups
-5.431422	curb
-6.033483	curbside
-4.829362	cure
-5.732452	cured
-5.732452	cures
-6.033483	curfew
-4.99209	curiosity
-4.270054	curious
-6.033483	curly
-6.033483	currency
-4.571084	current
-4.732452	currently
-6.033483	curricular
-5.556361	curriculum
-6.033483	curry
-5.732452	curse
-6.033483	cursing
-5.431422	curtain
-6.033483	curtains
-5.732452	curtis
-6.033483	curve
-5.556361	cuss
-5.732452	cussing
-6.033483	custodian
-5.732452	custody
-5.732452	custom
-5.334512	customer
-5.130393	customers
-5.188385	customs
-3.972785	cut
-4.442418	cute
-6.033483	cutlery
-5.188385	cuts
-5.556361	cutter
-5.255331	cutters
-5.07924	cutting
-6.033483	cyber
-6.033483	cybercork
-5.07924	cycle
-5.556361	cycles
-6.033483	cyclist
-4.954301	cynical
-6.033483	cynically
-6.033483	cynicism
-5.732452	cynwyd
-6.033483	cypriots
-6.033483	cyrus
-5.732452	czech
-3.980404	d
-4.69106	da
-6.033483	dabbled
-5.732452	dachshunds
-6.033483	dacna
-4.04671	dad
-5.188385	daddy
-6.033483	daddys
-4.602118	dads
-5.556361	daffodil
-5.732452	daffodils
-5.334512	dah
-6.033483	dai
-4.528333	daily
-5.255331	dairy
-5.033483	dakota
-6.033483	dakotas
-5.732452	daley
-4.857391	dallas
-6.033483	dalmatian
-6.033483	dam
-4.754729	damage
-5.431422	damaged
-5.732452	damages
-5.732452	damaging
-4.618509	damn
-6.033483	damon
-5.732452	damp
-6.033483	damper
-6.033483	dampness
-5.732452	dan
-6.033483	danbury
-6.033483	danc
-4.671755	dance
-6.033483	danced
-5.732452	dancer
-6.033483	dancers
-5.732452	dances
-4.653271	dancing
-6.033483	dandruff
-6.033483	dandy
-6.033483	dane
-5.556361	dang
-4.556361	danger
-4.343287	dangerous
-5.556361	dangers
-6.033483	dangling
-6.033483	daniel
-5.732452	danielle
-5.732452	danish
-6.033483	danny
-6.033483	danya
-6.033483	darcy
-4.954301	dare
-6.033483	dares
-6.033483	daring
-4.618509	dark
-5.732452	darkness
-6.033483	darla
-5.255331	darn
-5.732452	darned
-6.033483	dart
-6.033483	darva
-5.556361	dash
-4.400014	data
-5.188385	database
-5.334512	databases
-6.033483	datas
-4.069695	date
-4.803033	dated
-5.732452	dateline
-5.033483	dates
-4.334512	dating
-6.033483	dau
-3.866165	daughter
-6.033483	daughterinlaw
-4.542121	daughters
-6.033483	daunting
-5.334512	dave
-4.829362	david
-6.033483	davidson
-6.033483	dawsons
-3.005318	day
-6.033483	dayan
-5.130393	daycare
-5.556361	daylight
-5.732452	daylights
-3.493153	days
-5.431422	daytime
-5.255331	dayton
-5.732452	daytona
-5.255331	dazs
-4.602118	de
-4.334512	dead
-5.033483	deadline
-5.732452	deadlines
-5.255331	deadly
-3.763969	deal
-6.033483	dealer
-6.033483	dealers
-6.033483	dealership
-4.502004	dealing
-5.732452	dealings
-4.954301	deals
-4.954301	dealt
-5.556361	dean
-4.77821	dear
-5.732452	dearly
-4.514968	death
-5.732452	deathbed
-5.556361	deathly
-5.556361	deaths
-4.887354	debate
-6.033483	debates
-5.431422	debating
-5.255331	debbie
-5.732452	deborah
-6.033483	debriga
-6.033483	debs
-5.255331	debt
-6.033483	debut
-6.033483	dec
-5.334512	decade
-5.334512	decades
-6.033483	decay
-6.033483	decaying
-6.033483	deceased
-6.033483	deceived
-4.502004	december
-4.829362	decent
-5.732452	deception
-5.431422	deceptive
-6.033483	dechan
-4.277607	decide
-4.065	decided
-6.033483	decidedly
-5.130393	decides
-5.130393	deciding
-6.033483	deciduous
-6.033483	decimal
-6.033483	decipher
-4.317479	decision
-4.602118	decisions
-5.732452	deck
-5.732452	declaration
-5.556361	declare
-5.334512	declared
-6.033483	declares
-6.033483	declaring
-5.556361	decline
-6.033483	declined
-6.033483	decompress
-5.732452	decongestant
-5.732452	decongestants
-6.033483	decor
-4.99209	decorate
-5.334512	decorated
-6.033483	decorates
-4.99209	decorating
-6.033483	decoratings
-5.556361	decoration
-4.919539	decorations
-6.033483	decorator
-5.188385	decrease
-6.033483	decreased
-6.033483	decreasing
-6.033483	decrees
-6.033483	decriminalize
-6.033483	dedicate
-5.334512	dedicated
-6.033483	dedication
-6.033483	deduct
-6.033483	deductive
-6.033483	deemed
-4.618509	deep
-5.255331	deeper
-5.431422	deeply
-5.255331	deer
-5.07924	def
-6.033483	defeated
-6.033483	defeating
-6.033483	defeats
-5.732452	defect
-6.033483	defectors
-5.732452	defence
-5.033483	defend
-5.732452	defendant
-5.255331	defending
-5.033483	defense
-5.732452	defenses
-5.431422	defensive
-5.732452	defer
-6.033483	defi
-4.618509	defiantly
-6.033483	defibrillator
-5.732452	deficit
-5.732452	defin
-4.954301	define
-5.431422	defined
-6.033483	defining
-4.857391	definite
-3.248153	definitely
-4.754729	definition
-6.033483	definitional
-5.732452	definitions
-6.033483	definitive
-6.033483	deflect
-6.033483	defrauding
-6.033483	defrosting
-6.033483	defunk
-6.033483	deg
-6.033483	degarca
-6.033483	degenerative
-5.732452	degrading
-3.984264	degree
-4.188385	degrees
-5.732452	dehydrate
-6.033483	dehydrated
-6.033483	deity
-5.255331	delaware
-6.033483	delay
-5.188385	delays
-6.033483	delegate
-6.033483	deletes
-5.732452	delhi
-5.732452	deli
-5.556361	deliberate
-5.334512	deliberately
-6.033483	delicate
-5.334512	delicious
-6.033483	delighted
-5.732452	delightful
-6.033483	delighting
-6.033483	delilah
-6.033483	deliver
-5.07924	delivered
-6.033483	deliveries
-6.033483	delivering
-6.033483	delivery
-6.033483	deloitte
-5.732452	deluded
-6.033483	delve
-5.334512	demand
-6.033483	demander
-5.732452	demanding
-5.556361	demands
-6.033483	demeaning
-5.732452	demented
-6.033483	dementia
-6.033483	demia
-5.556361	democracies
-4.919539	democracy
-4.754729	democrat
-5.130393	democratic
-5.255331	democrats
-5.556361	demographic
-6.033483	demographics
-6.033483	demolished
-6.033483	demolition
-6.033483	demons
-5.556361	demonstrated
-5.732452	demonstrating
-5.431422	demonstration
-5.431422	demonstrations
-6.033483	deni
-5.732452	denial
-5.732452	denies
-5.431422	denise
-6.033483	denison
-5.334512	denmark
-6.033483	dennis
-5.732452	dennys
-6.033483	denomination
-5.732452	denominations
-6.033483	denominator
-6.033483	density
-6.033483	dent
-5.334512	dental
-5.033483	dentist
-4.954301	denver
-6.033483	deny
-5.732452	denying
-5.732452	depart
-6.033483	departing
-4.334512	department
-5.732452	departments
-5.431422	departure
-4.618509	depend
-6.033483	dependability
-6.033483	dependant
-5.556361	depended
-6.033483	dependencies
-4.919539	dependent
-4.39003	depending
-3.954301	depends
-6.033483	depict
-5.556361	deployed
-6.033483	deported
-5.732452	depositing
-5.556361	depot
-6.033483	depre
-4.618509	depressed
-6.033483	depresses
-4.887354	depressing
-5.033483	depression
-6.033483	depressurize
-6.033483	deprivation
-5.732452	deprive
-5.732452	deprived
-6.033483	deprives
-5.732452	depth
-6.033483	depths
-6.033483	derby
-6.033483	deregulated
-5.732452	derive
-6.033483	derived
-6.033483	dermatitis
-6.033483	dermatypes
-6.033483	derogatory
-5.431422	des
-6.033483	descendants
-5.556361	descended
-6.033483	descends
-5.255331	descent
-5.188385	describe
-5.431422	described
-5.732452	describes
-5.556361	describing
-6.033483	descript
-6.033483	description
-6.033483	descriptions
-6.033483	descriptive
-6.033483	desecration
-6.033483	desensitization
-6.033483	desensitize
-5.732452	desensitized
-5.130393	desert
-5.556361	deserted
-5.130393	deserve
-6.033483	deserved
-5.732452	deserves
-4.431422	design
-6.033483	designated
-6.033483	designating
-4.954301	designed
-5.334512	designer
-5.130393	designers
-5.431422	designing
-6.033483	designs
-5.732452	desirable
-4.803033	desire
-6.033483	desires
-4.732452	desk
-6.033483	desks
-4.919539	desperate
-6.033483	desperately
-5.556361	desperation
-6.033483	despise
-6.033483	despised
-5.431422	despite
-5.255331	dessert
-5.732452	desserts
-5.732452	destabilize
-6.033483	destabilized
-5.431422	destination
-5.732452	destined
-4.919539	destroy
-5.556361	destroyed
-5.732452	destruct
-4.602118	destruction
-5.732452	destructive
-6.033483	desubscribe
-6.033483	detached
-5.431422	detail
-5.431422	detailed
-4.99209	details
-6.033483	detain
-5.431422	detect
-5.431422	detected
-5.556361	detecting
-6.033483	detectives
-4.99209	detector
-5.431422	detectors
-5.732452	deter
-6.033483	detergents
-6.033483	deteriorating
-6.033483	determin
-5.732452	determination
-5.07924	determine
-5.033483	determined
-6.033483	determines
-6.033483	determining
-6.033483	determinist
-5.188385	deterrent
-6.033483	deters
-6.033483	dethrone
-6.033483	detonated
-6.033483	detracted
-5.556361	detriment
-5.07924	detrimental
-4.887354	detroit
-6.033483	deutsche
-6.033483	dev
-6.033483	devastate
-5.732452	devastated
-5.431422	devastating
-6.033483	devastation
-6.033483	devel
-4.635542	develop
-4.857391	developed
-5.732452	developer
-4.887354	developing
-5.033483	development
-6.033483	developmental
-5.556361	develops
-5.732452	deviate
-5.556361	device
-5.334512	devices
-5.07924	devil
-5.732452	devils
-6.033483	devises
-5.255331	devote
-5.732452	devoted
-5.732452	devotion
-6.033483	devout
-6.033483	dew
-6.033483	dewy
-6.033483	dharma
-4.887354	di
-5.033483	diabetes
-5.033483	diabetic
-6.033483	diabetics
-6.033483	diag
-6.033483	diagnos
-5.556361	diagnose
-5.033483	diagnosed
-6.033483	diagnosing
-5.255331	diagnosis
-6.033483	diagrams
-5.255331	dial
-5.334512	dialect
-6.033483	dialectic
-5.334512	dialects
-6.033483	dialed
-5.431422	dialogue
-6.033483	dialogues
-6.033483	dials
-5.556361	dialysis
-5.431422	diamond
-6.033483	diamondbacks
-6.033483	diamonds
-5.556361	diana
-6.033483	diane
-6.033483	diaper
-5.732452	diapers
-6.033483	diaphragm
-5.556361	diarrhea
-5.431422	diary
-6.033483	dibs
-6.033483	dicey
-5.732452	dick
-6.033483	dickinsons
-5.431422	dictate
-6.033483	dictating
-6.033483	dictation
-5.556361	dictator
-5.556361	dictatorships
-5.130393	dictionary
-2.820762	did
-5.334512	didn
-2.908001	didnt
-4.270054	die
-4.270054	died
-4.919539	diego
-6.033483	diem
-5.556361	dies
-5.556361	diesel
-4.47718	diet
-6.033483	dietary
-6.033483	dieting
-5.732452	dietrich
-5.431422	diets
-5.556361	dif
-5.556361	diff
-5.732452	differ
-6.033483	differen
-3.829362	difference
-4.514968	differences
-3.086539	different
-6.033483	differential
-5.732452	differentiate
-4.489414	differently
-6.033483	difficul
-3.821295	difficult
-5.431422	difficulties
-5.334512	difficulty
-5.431422	dig
-6.033483	digest
-6.033483	digestion
-5.732452	diggers
-6.033483	digging
-5.255331	digital
-6.033483	digitize
-6.033483	digitizing
-6.033483	digits
-6.033483	dignify
-6.033483	dignity
-6.033483	digress
-6.033483	digs
-5.556361	dilemma
-6.033483	diligent
-6.033483	diller
-6.033483	dilute
-5.732452	diluted
-6.033483	dime
-6.033483	dimension
-6.033483	dimensional
-6.033483	dimes
-6.033483	diminish
-6.033483	diminished
-6.033483	diminishing
-6.033483	dimly
-6.033483	din
-5.334512	diner
-6.033483	ding
-5.732452	dingos
-4.887354	dining
-6.033483	dinky
-4.069695	dinner
-5.732452	diorama
-5.732452	dip
-6.033483	diploma
-5.556361	diplomacy
-5.732452	diplomatic
-6.033483	diplomatically
-6.033483	dippy
-5.732452	dire
-6.033483	direc
-4.69106	direct
-5.556361	directed
-6.033483	directing
-4.571084	direction
-5.130393	directions
-4.442418	directly
-5.334512	director
-5.732452	directors
-5.07924	dirt
-4.954301	dirty
-5.188385	dis
-4.919539	disabilities
-4.99209	disability
-6.033483	disable
-5.07924	disabled
-5.130393	disadvantage
-6.033483	disadvantaged
-5.732452	disadvantages
-4.635542	disagree
-5.732452	disagreed
-5.334512	disagreement
-5.732452	disagreements
-5.255331	disappear
-5.556361	disappeared
-6.033483	disappearing
-5.732452	disappears
-5.130393	disappointed
-5.130393	disappointing
-4.602118	disarm
-5.431422	disarmament
-5.556361	disarmed
-4.919539	disarming
-6.033483	disassociate
-5.130393	disaster
-6.033483	disasters
-6.033483	disastrous
-6.033483	disbelieve
-5.556361	disc
-6.033483	discard
-6.033483	discarded
-5.732452	discharged
-5.556361	discipline
-5.732452	disciplined
-6.033483	disclaimer
-5.732452	disclose
-5.732452	disclosure
-6.033483	discomfort
-5.334512	disconnect
-5.334512	disconnected
-6.033483	discotheque
-5.556361	discount
-5.732452	discourage
-5.556361	discouraged
-5.732452	discourages
-5.732452	discouraging
-5.188385	discourse
-5.130393	discover
-5.130393	discovered
-6.033483	discoveries
-6.033483	discovering
-4.919539	discovery
-6.033483	discriminated
-5.07924	discrimination
-5.732452	discriminatory
-6.033483	discu
-6.033483	discus
-4.465281	discuss
-5.255331	discussed
-4.99209	discussing
-4.514968	discussion
-5.130393	discussions
-4.829362	disease
-5.033483	diseases
-6.033483	diseasing
-5.732452	disempowering
-6.033483	disfigure
-6.033483	disfluencies
-6.033483	disfluent
-6.033483	disgraced
-5.732452	disguise
-6.033483	disguised
-5.334512	disgusted
-4.77821	disgusting
-5.188385	dish
-5.732452	disheartening
-4.803033	dishes
-5.334512	dishonest
-6.033483	dishonestly
-5.732452	disillusioned
-6.033483	disinclined
-6.033483	disinfectants
-6.033483	disk
-5.07924	dislike
-6.033483	dislikes
-6.033483	disliking
-5.732452	dismiss
-5.732452	dismissed
-4.954301	disney
-5.732452	disneys
-5.431422	disobedience
-6.033483	disobeyed
-5.07924	disorder
-5.732452	disorders
-5.732452	disorganization
-6.033483	disorientation
-6.033483	disparity
-6.033483	displaced
-5.556361	display
-6.033483	displayed
-5.732452	displaying
-6.033483	displays
-6.033483	disposable
-6.033483	disposal
-6.033483	dispose
-6.033483	disposed
-6.033483	disputed
-6.033483	disputes
-5.732452	disregard
-5.732452	disregarding
-6.033483	disrespect
-6.033483	disrupt
-6.033483	disrupted
-5.732452	disruption
-6.033483	dissect
-6.033483	dissecting
-6.033483	disseminates
-6.033483	dissension
-5.732452	dissent
-5.255331	dissertation
-5.732452	dissertations
-6.033483	dissident
-6.033483	dissimilar
-6.033483	dissipated
-5.732452	dissolved
-6.033483	dissolves
-4.361384	distance
-6.033483	distances
-5.130393	distant
-6.033483	distasteful
-5.732452	distilled
-6.033483	distinct
-6.033483	distinctly
-5.556361	distinguish
-5.431422	distract
-5.431422	distracted
-5.732452	distracter
-5.188385	distraction
-6.033483	distractions
-5.431422	distress
-6.033483	distressed
-6.033483	distressful
-6.033483	distressing
-5.732452	distribute
-6.033483	distributed
-6.033483	distributors
-5.334512	district
-6.033483	districts
-6.033483	distrustful
-6.033483	disturb
-4.99209	disturbing
-6.033483	disturbingly
-6.033483	ditz
-6.033483	diuretic
-5.732452	dive
-6.033483	diverge
-6.033483	divergent
-5.556361	diverse
-5.732452	diversion
-6.033483	diversionary
-5.130393	diversity
-5.431422	divert
-6.033483	diverted
-6.033483	diverting
-6.033483	divertissimo
-6.033483	diverts
-6.033483	dives
-5.255331	divide
-6.033483	divided
-6.033483	dividends
-5.732452	dividing
-5.732452	diving
-5.334512	division
-6.033483	divisive
-4.857391	divorce
-4.361384	divorced
-5.130393	divorces
-5.732452	dizzy
-2.220903	do
-6.033483	dobbins
-5.556361	doc
-6.033483	dock
-6.033483	docks
-3.655085	doctor
-5.431422	doctoral
-4.99209	doctorate
-4.309206	doctors
-4.954301	document
-5.556361	documentaries
-5.188385	documentary
-5.431422	documentation
-6.033483	documented
-4.954301	documents
-6.033483	doddington
-6.033483	dodge
-6.033483	dodgers
-5.732452	dodging
-5.431422	doe
-3.234832	does
-3.18591	doesnt
-6.033483	doeuvres
-3.890468	dog
-6.033483	doggy
-5.732452	dogma
-4.352241	dogs
-5.188385	doin
-2.993276	doing
-5.732452	doll
-4.489414	dollar
-3.743448	dollars
-5.431422	dolls
-6.033483	dolores
-5.431422	dome
-4.732452	domestic
-5.556361	domestically
-5.732452	domesticated
-6.033483	domestication
-6.033483	dominant
-6.033483	dominate
-5.431422	dominated
-6.033483	dominating
-5.732452	domination
-4.69106	don
-5.732452	donating
-5.732452	donation
-5.556361	donations
-3.301089	done
-5.431422	donna
-6.033483	donny
-6.033483	dons
-2.125212	dont
-6.033483	donut
-5.188385	donuts
-6.033483	donya
-5.732452	doo
-6.033483	doom
-4.158421	door
-6.033483	doorbells
-6.033483	doorknobs
-4.635542	doors
-6.033483	dope
-6.033483	dora
-6.033483	dorf
-6.033483	dorky
-4.47718	dorm
-6.033483	dormant
-5.556361	dormitory
-4.857391	dorms
-6.033483	dorothy
-5.556361	dory
-5.732452	dosage
-6.033483	dosages
-5.431422	dose
-6.033483	dosen
-5.732452	doses
-4.514968	dot
-6.033483	dotcomers
-6.033483	dotcoms
-5.431422	dots
-4.711263	double
-5.732452	doubled
-6.033483	doubling
-4.431422	doubt
-5.334512	doubtful
-5.334512	doubts
-5.334512	doug
-5.732452	dough
-6.033483	doughy
-6.033483	douglasville
-6.033483	dour
-5.130393	dove
-6.033483	dover
-5.556361	doves
-6.033483	dovish
-3.211314	down
-5.732452	downed
-6.033483	downer
-6.033483	downfall
-5.334512	downhill
-5.334512	download
-6.033483	downloaded
-6.033483	downloading
-6.033483	downplaying
-5.732452	downright
-5.334512	downs
-5.431422	downside
-5.732452	downstairs
-6.033483	downtime
-4.653271	downtown
-6.033483	downturn
-6.033483	downward
-6.033483	doylestown
-5.033483	dozen
-6.033483	dozing
-5.334512	dr
-6.033483	dra
-6.033483	draconian
-5.255331	draft
-5.556361	drafted
-6.033483	drafting
-5.130393	drag
-5.556361	dragged
-5.732452	dragging
-4.954301	dragon
-5.732452	dragons
-5.334512	drain
-5.732452	drainage
-5.732452	draining
-6.033483	drainings
-5.732452	drains
-4.857391	drama
-5.431422	dramas
-4.919539	dramatic
-5.431422	dramatically
-6.033483	dramatize
-4.829362	drank
-4.99209	drastic
-5.431422	drastically
-4.542121	draw
-6.033483	drawer
-4.954301	drawing
-5.431422	drawn
-5.732452	draws
-6.033483	draxwell
-6.033483	dreaded
-5.732452	dreadful
-6.033483	dreading
-4.732452	dream
-6.033483	dreamed
-6.033483	dreaming
-5.556361	dreams
-6.033483	dreamt
-6.033483	dreariness
-5.431422	dreary
-6.033483	dredge
-6.033483	dreidel
-4.602118	dress
-4.711263	dressed
-6.033483	dressers
-5.334512	dresses
-5.556361	dressing
-5.334512	drew
-6.033483	drexel
-6.033483	dri
-6.033483	dribbled
-5.431422	dried
-6.033483	drift
-6.033483	drill
-6.033483	drilling
-6.033483	drin
-3.717512	drink
-6.033483	drinkable
-5.255331	drinker
-3.840358	drinking
-6.033483	drinkings
-4.69106	drinks
-6.033483	drip
-6.033483	dripping
-5.732452	drippy
-4.074441	drive
-4.829362	driven
-5.255331	driver
-5.130393	drivers
-4.857391	drives
-6.033483	driveway
-4.255331	driving
-6.033483	drone
-6.033483	drones
-6.033483	drool
-6.033483	drooling
-4.602118	drop
-4.99209	dropped
-5.033483	dropping
-4.99209	drops
-5.334512	drought
-4.954301	drove
-5.556361	drown
-6.033483	drowned
-6.033483	drowsiness
-5.334512	drowsy
-4.635542	drug
-6.033483	druggies
-4.442418	drugs
-5.732452	drums
-4.514968	drunk
-5.556361	drunks
-4.69106	dry
-5.732452	du
-5.188385	dual
-6.033483	dub
-5.732452	duck
-6.033483	ducking
-5.732452	ducks
-6.033483	ducky
-6.033483	dud
-5.431422	dude
-6.033483	dudes
-4.857391	due
-6.033483	duel
-5.732452	dues
-5.255331	dug
-5.130393	duh
-5.431422	duke
-5.188385	dull
-6.033483	dulles
-5.732452	duly
-5.732452	dum
-4.571084	dumb
-6.033483	dumber
-5.431422	dumbest
-6.033483	dumble
-5.556361	dump
-5.334512	dumped
-5.732452	dumping
-6.033483	dumps
-6.033483	dumpsters
-6.033483	dumpy
-6.033483	duncan
-6.033483	dundy
-5.334512	dune
-5.732452	dung
-6.033483	dungeons
-5.431422	dunkin
-6.033483	dunno
-6.033483	dupe
-5.732452	duped
-5.732452	dupont
-6.033483	dur
-6.033483	duration
-5.732452	duress
-3.821295	during
-5.033483	dust
-6.033483	dusted
-6.033483	dustin
-5.732452	dusting
-6.033483	dustings
-4.954301	dutch
-6.033483	duties
-5.07924	duty
-6.033483	dvds
-6.033483	dwarf
-6.033483	dweeb
-5.431422	dwell
-6.033483	dwelling
-6.033483	dwindling
-6.033483	dyin
-4.671755	dying
-5.334512	dynamic
-5.556361	dynamics
-5.732452	dynamite
-5.732452	dysfunctional
-4.055759	e
-5.255331	ea
-3.511038	each
-5.334512	eager
-5.334512	eagles
-5.255331	eah
-4.803033	ear
-6.033483	earache
-5.732452	earaches
-4.158421	earlier
-4.109203	early
-6.033483	earmuffs
-4.919539	earn
-5.732452	earned
-6.033483	earnhardt
-5.431422	earning
-5.732452	earnings
-5.732452	earns
-6.033483	earplug
-6.033483	earplugs
-5.556361	earrings
-4.919539	ears
-4.732452	earth
-5.732452	earthquake
-5.556361	earthquakes
-6.033483	eas
-5.188385	ease
-6.033483	eases
-4.020645	easier
-5.07924	easiest
-4.285295	easily
-3.790444	east
-4.26263	easter
-4.489414	eastern
-6.033483	easterners
-5.732452	easters
-6.033483	easton
-3.773411	easy
-3.328475	eat
-5.130393	eaten
-5.188385	eater
-6.033483	eaters
-3.741226	eating
-5.033483	eats
-5.556361	eavesdrop
-5.556361	ebay
-6.033483	ebonics
-5.556361	ec
-6.033483	echelons
-5.732452	echina
-4.69106	echinacea
-5.732452	echo
-6.033483	eclectic
-6.033483	eco
-6.033483	ecoli
-5.732452	ecology
-5.334512	econ
-4.618509	economic
-5.431422	economical
-5.130393	economically
-5.033483	economics
-6.033483	economist
-4.109203	economy
-5.334512	economys
-5.732452	ecstatic
-6.033483	ecuador
-5.732452	eczema
-5.07924	ed
-6.033483	eddie
-5.732452	eddy
-6.033483	edgar
-5.188385	edge
-5.556361	edged
-5.556361	edible
-6.033483	edinburgh
-6.033483	edison
-5.732452	edit
-5.255331	edited
-5.130393	editing
-5.334512	editor
-5.556361	editorial
-6.033483	editorials
-6.033483	edna
-6.033483	edu
-5.255331	educate
-4.919539	educated
-6.033483	educating
-3.972785	education
-4.77821	educational
-5.556361	educations
-6.033483	educator
-5.556361	educators
-5.732452	edward
-6.033483	edys
-5.033483	eee
-5.732452	eerie
-5.732452	ef
-6.033483	effec
-4.098984	effect
-4.671755	effected
-5.334512	effecting
-4.602118	effective
-5.188385	effectively
-4.489414	effects
-5.732452	efficiency
-5.033483	efficient
-5.556361	efficiently
-4.528333	effort
-5.130393	efforts
-5.334512	egg
-6.033483	egged
-5.556361	eggplant
-4.857391	eggs
-5.334512	ego
-6.033483	egocentric
-6.033483	egos
-5.334512	egypt
-3.471189	eh
-5.732452	ei
-6.033483	eichmann
-6.033483	eigh
-3.739016	eight
-4.410233	eighteen
-5.334512	eighteenth
-5.033483	eighth
-4.829362	eighties
-6.033483	eightieths
-6.033483	eights
-4.317479	eighty
-6.033483	eire
-3.326765	either
-4.857391	el
-5.431422	elaborate
-6.033483	elaborately
-5.556361	elder
-5.033483	elderly
-6.033483	elders
-6.033483	eldest
-6.033483	ele
-5.255331	elect
-5.431422	electchester
-5.334512	elected
-4.556361	election
-4.919539	elections
-4.618509	electric
-5.033483	electrical
-5.255331	electricity
-5.732452	electrolyte
-5.255331	electronic
-6.033483	elegance
-5.732452	elegant
-4.635542	element
-4.47718	elementary
-5.556361	elements
-6.033483	elena
-6.033483	elevate
-6.033483	elevated
-6.033483	elevation
-5.556361	elevator
-6.033483	eleve
-3.969024	eleven
-3.750181	eleventh
-6.033483	elf
-5.334512	elimidate
-5.556361	eliminate
-6.033483	eliminated
-6.033483	eliminates
-5.732452	elimination
-6.033483	elise
-6.033483	elite
-6.033483	elizabeth
-5.431422	ell
-6.033483	elle
-5.556361	ellen
-6.033483	ellenboro
-6.033483	elli
-5.732452	elliptical
-5.556361	elmo
-6.033483	eloquently
-3.239692	else
-4.857391	elses
-5.556361	elsewhere
-6.033483	eluded
-5.732452	elvin
-5.732452	elvis
-6.033483	elzi
-3.640785	em
-3.866165	email
-4.954301	emailed
-5.556361	emailing
-4.829362	emails
-6.033483	embarasida
-6.033483	embarassed
-5.732452	embargo
-6.033483	embargoes
-5.334512	embarrass
-4.887354	embarrassed
-4.954301	embarrassing
-6.033483	embarrassingly
-6.033483	embarrassment
-6.033483	embassy
-6.033483	embedded
-6.033483	embezzled
-6.033483	embezzlement
-6.033483	embodiment
-6.033483	embody
-6.033483	embrace
-5.556361	embraced
-6.033483	embryos
-6.033483	emerald
-5.732452	emerge
-6.033483	emergencies
-4.954301	emergency
-6.033483	emerging
-5.556361	emily
-6.033483	emilys
-6.033483	emission
-6.033483	emll
-6.033483	emory
-6.033483	emot
-5.334512	emotion
-4.887354	emotional
-5.07924	emotionally
-5.255331	emotions
-6.033483	emp
-5.732452	empathetic
-6.033483	empathized
-5.188385	emphasis
-6.033483	emphasize
-5.188385	emphysema
-5.255331	empire
-6.033483	empires
-6.033483	empirical
-6.033483	empirically
-5.732452	employ
-5.033483	employed
-5.188385	employee
-4.69106	employees
-5.732452	employer
-6.033483	employers
-6.033483	employing
-5.732452	employs
-5.732452	empowering
-6.033483	emptive
-4.829362	empty
-4.919539	en
-5.732452	enable
-6.033483	enables
-6.033483	enacted
-5.732452	enamored
-6.033483	encephalitis
-5.556361	enchilada
-6.033483	enclave
-5.732452	enclosed
-6.033483	encoded
-6.033483	encompass
-6.033483	encounter
-5.556361	encountered
-4.69106	encourage
-5.334512	encouraged
-5.556361	encourages
-5.188385	encouraging
-5.556361	encyclopedia
-5.556361	encyclopedias
-3.442418	end
-5.556361	endanger
-6.033483	endangered
-5.732452	endangering
-6.033483	endangers
-6.033483	endeavors
-4.146992	ended
-6.033483	endgame
-5.130393	ending
-6.033483	endives
-5.431422	endless
-6.033483	endorphin
-6.033483	endorsed
-5.732452	endorsement
-4.571084	ends
-6.033483	endurance
-5.556361	endure
-5.07924	enemies
-4.919539	enemy
-6.033483	energetic
-6.033483	energize
-4.711263	energy
-6.033483	enforc
-6.033483	enforce
-5.130393	enforcement
-6.033483	enforcing
-6.033483	eng
-5.556361	engage
-4.754729	engaged
-5.431422	engagement
-6.033483	engagements
-5.556361	engaging
-5.255331	engine
-5.07924	engineer
-6.033483	engineered
-4.602118	engineering
-5.07924	engineers
-5.556361	engines
-4.420699	england
-6.033483	englander
-6.033483	engli
-3.872114	english
-6.033483	engulfed
-6.033483	enhancement
-6.033483	enhancing
-6.033483	eni
-5.732452	eniva
-6.033483	enjoined
-3.837583	enjoy
-5.07924	enjoyable
-4.586324	enjoyed
-4.829362	enjoying
-5.334512	enjoys
-6.033483	enlarged
-6.033483	enlarging
-6.033483	enlightened
-5.556361	enlisted
-5.130393	enormous
-6.033483	enormously
-3.505852	enough
-6.033483	enquirer
-6.033483	enr
-5.732452	enrich
-6.033483	enrichment
-5.556361	enroll
-5.431422	enrolled
-5.431422	enrollment
-4.556361	enron
-5.556361	ensure
-6.033483	ensures
-6.033483	ensuring
-5.732452	entail
-6.033483	entailed
-6.033483	entails
-4.887354	enter
-5.188385	entered
-5.431422	entering
-6.033483	enterprise
-6.033483	enters
-5.255331	entertain
-5.334512	entertained
-4.754729	entertaining
-4.671755	entertainment
-6.033483	enthusiasm
-5.732452	enthusiastic
-6.033483	enti
-5.732452	entice
-5.732452	enticing
-4.277607	entire
-4.671755	entirely
-6.033483	entities
-5.556361	entitled
-5.431422	entity
-6.033483	entourage
-5.431422	entrance
-6.033483	entree
-6.033483	entrenched
-5.334512	entrepreneur
-5.334512	entrepreneurial
-6.033483	entrepreneurialship
-5.255331	entry
-6.033483	enunciate
-6.033483	envelope
-6.033483	enveloped
-6.033483	envelopes
-6.033483	enviro
-4.542121	environment
-5.255331	environmental
-6.033483	envisage
-5.732452	envision
-5.334512	envy
-6.033483	epi
-6.033483	epidemic
-6.033483	epidemics
-6.033483	epidemiology
-6.033483	episcopa
-5.556361	episcopal
-5.732452	episcopalian
-4.453699	episode
-4.653271	episodes
-5.732452	epsilon
-4.77821	equal
-5.431422	equality
-5.556361	equally
-5.732452	equate
-5.732452	equates
-6.033483	equip
-4.732452	equipment
-6.033483	equipments
-5.556361	equipped
-6.033483	equity
-5.07924	equivalent
-4.732452	er
-5.255331	era
-5.732452	eradicating
-6.033483	erase
-5.732452	erased
-6.033483	erected
-5.130393	eric
-5.431422	erica
-5.732452	ericsson
-5.188385	erie
-5.188385	erin
-6.033483	ernest
-6.033483	eroded
-6.033483	eroticas
-6.033483	err
-6.033483	errands
-5.556361	error
-5.431422	errors
-6.033483	erudition
-6.033483	es
-5.732452	escalates
-6.033483	escalating
-6.033483	escalation
-4.99209	escape
-6.033483	escaped
-6.033483	escapes
-5.732452	escaping
-5.732452	escapism
-6.033483	escapist
-6.033483	escarole
-6.033483	eskimo
-5.732452	esophagus
-6.033483	esoteric
-5.732452	espe
-5.334512	espec
-3.509736	especially
-5.732452	espresso
-6.033483	essarily
-5.556361	essay
-6.033483	essays
-6.033483	essence
-5.431422	essential
-4.671755	essentially
-6.033483	essentials
-6.033483	establish
-5.334512	established
-6.033483	establishes
-6.033483	establishing
-5.556361	establishment
-6.033483	establishments
-5.130393	estate
-5.732452	estimate
-5.556361	estonia
-6.033483	estoy
-6.033483	estra
-6.033483	estrogen
-5.033483	et
-6.033483	etc
-5.732452	etcetera
-6.033483	eternal
-6.033483	ether
-6.033483	ethernet
-5.556361	ethic
-5.07924	ethical
-5.732452	ethics
-6.033483	ethiopia
-5.431422	ethiopian
-5.033483	ethnic
-6.033483	ethnically
-6.033483	ethnicities
-6.033483	ethnocentric
-5.732452	ethnocentrism
-6.033483	ethnographic
-6.033483	ethos
-6.033483	euclid
-5.431422	eugene
-6.033483	eur
-5.732452	eureka
-4.098984	europe
-4.711263	european
-5.255331	europeans
-6.033483	europes
-4.954301	ev
-5.732452	evacuated
-6.033483	evacuating
-5.732452	evaluate
-6.033483	evan
-5.732452	evangelical
-4.38027	eve
-2.897714	even
-6.033483	evenhandedly
-4.671755	evening
-5.431422	evenings
-5.732452	evenly
-4.325912	event
-4.618509	events
-6.033483	eventual
-6.033483	eventuality
-4.234142	eventually
-3.299483	ever
-6.033483	everest
-6.033483	everett
-6.033483	everglades
-3.239692	every
-6.033483	everybo
-3.39003	everybody
-6.033483	everybodyll
-4.270054	everybodys
-4.213939	everyday
-6.033483	everyo
-3.649667	everyone
-4.514968	everyones
-6.033483	everyth
-3.239692	everything
-4.919539	everythings
-5.130393	everytime
-4.17615	everywhere
-6.033483	eves
-6.033483	eviction
-4.528333	evidence
-5.732452	evidently
-4.410233	evil
-5.732452	evils
-6.033483	evocative
-6.033483	evolution
-6.033483	evolve
-5.255331	evolved
-5.556361	evolving
-4.671755	ew
-6.033483	eww
-4.453699	ex
-5.556361	exa
-5.334512	exac
-4.586324	exact
-6.033483	exactl
-3.102533	exactly
-6.033483	exaggerate
-5.431422	exaggerated
-5.556361	exaggerating
-6.033483	exaggeration
-4.754729	exam
-6.033483	examination
-5.732452	examined
-6.033483	examiners
-5.732452	examining
-3.926272	example
-5.556361	examples
-4.732452	exams
-6.033483	exboyfriends
-6.033483	excavation
-6.033483	exceed
-5.732452	excel
-4.514968	excellent
-4.020645	except
-6.033483	excepted
-6.033483	exception
-6.033483	exceptional
-5.556361	exceptionally
-5.130393	exceptions
-6.033483	excersi
-4.77821	excess
-6.033483	excesses
-4.671755	excessive
-4.69106	excessively
-4.803033	exchange
-6.033483	exchanged
-6.033483	exchanges
-5.732452	exchanging
-6.033483	exci
-6.033483	excite
-4.39003	excited
-5.556361	excitement
-6.033483	excites
-4.301089	exciting
-5.556361	excluded
-6.033483	exclusionary
-5.732452	exclusive
-5.732452	exclusively
-6.033483	excusable
-4.141388	excuse
-6.033483	excused
-5.431422	excuses
-5.732452	executed
-5.130393	executive
-5.188385	executives
-6.033483	exempt
-6.033483	exerc
-6.033483	exerci
-3.922893	exercise
-5.556361	exercised
-6.033483	exerciser
-5.07924	exercises
-4.200974	exercising
-5.732452	exhaust
-5.07924	exhausted
-5.732452	exhausting
-6.033483	exhibit
-6.033483	exhusband
-4.77821	exist
-5.556361	existed
-5.732452	existence
-5.556361	existing
-5.07924	exists
-5.334512	exit
-6.033483	exited
-6.033483	exiting
-6.033483	exodus
-5.732452	exorbitant
-4.919539	exotic
-5.732452	exp
-5.188385	expand
-5.556361	expands
-6.033483	expanse
-6.033483	expansio
-5.732452	expansion
-4.334512	expect
-6.033483	expectant
-5.556361	expectation
-5.033483	expectations
-4.732452	expected
-4.919539	expecting
-6.033483	expects
-6.033483	expedia
-6.033483	expedite
-5.033483	expense
-5.732452	expenses
-4.158421	expensive
-3.906378	experience
-4.711263	experienced
-4.69106	experiences
-5.255331	experiencing
-4.857391	experiment
-5.732452	experimental
-5.431422	experimenting
-5.188385	expert
-6.033483	expertise
-6.033483	experts
-6.033483	expire
-6.033483	expired
-4.586324	explain
-5.255331	explained
-5.431422	explaining
-5.556361	explains
-6.033483	explanation
-5.732452	explicit
-6.033483	explicitly
-6.033483	exploding
-5.732452	exploit
-6.033483	exploitation
-6.033483	exploited
-6.033483	exploits
-5.334512	explore
-6.033483	explorer
-6.033483	exploring
-5.556361	explosion
-5.556361	explosive
-5.033483	explosives
-6.033483	exponential
-6.033483	exported
-5.255331	expose
-4.442418	exposed
-6.033483	exposes
-5.556361	exposing
-6.033483	expository
-5.07924	exposure
-5.188385	express
-6.033483	expressed
-6.033483	expresses
-5.556361	expressing
-5.130393	expression
-5.732452	expressions
-5.732452	expressway
-5.188385	extend
-4.618509	extended
-5.732452	extending
-5.556361	extends
-5.732452	extension
-5.255331	extensive
-4.514968	extent
-5.732452	external
-6.033483	externally
-4.200974	extra
-6.033483	extract
-6.033483	extraordinarily
-6.033483	extraordinary
-6.033483	extras
-6.033483	extravagant
-4.528333	extreme
-4.69106	extremely
-5.033483	extremes
-6.033483	extremism
-6.033483	extremist
-5.556361	extrovert
-6.033483	exurbia
-5.556361	exurbs
-6.033483	exwife
-4.528333	eye
-6.033483	eyeball
-6.033483	eyebrow
-5.431422	eyed
-4.489414	eyes
-6.033483	eyewitness
-6.033483	ezpass
-4.343287	f
-4.887354	fa
-5.431422	fabric
-5.732452	fabricated
-6.033483	fabrics
-4.919539	fabulous
-5.732452	fabulously
-6.033483	facade
-4.17016	face
-5.556361	faced
-5.431422	faces
-6.033483	facile
-6.033483	facilitate
-6.033483	facility
-5.556361	facing
-3.600513	fact
-6.033483	faction
-4.119668	factor
-5.556361	factories
-6.033483	factoring
-5.188385	factors
-5.188385	factory
-4.711263	facts
-6.033483	factual
-5.431422	faculty
-5.732452	fad
-5.431422	faded
-6.033483	fades
-6.033483	fading
-6.033483	fads
-6.033483	fags
-5.732452	fahrenheit
-5.130393	fail
-5.334512	failed
-5.556361	failing
-5.732452	fails
-5.431422	failure
-6.033483	failures
-4.343287	fair
-6.033483	fairbanks
-6.033483	faire
-6.033483	faired
-6.033483	fairer
-6.033483	fairfax
-5.556361	fairfield
-4.234142	fairly
-5.334512	fairs
-6.033483	fairytale
-4.732452	faith
-4.99209	faithful
-5.556361	faithfully
-6.033483	faithfulness
-5.732452	faiths
-4.602118	fake
-6.033483	faked
-6.033483	fakes
-5.732452	faking
-5.556361	falafel
-6.033483	falahad
-4.033483	fall
-6.033483	fallacy
-6.033483	fallback
-5.431422	fallen
-5.07924	falling
-5.732452	fallow
-4.99209	falls
-6.033483	falon
-4.754729	false
-5.732452	falsely
-6.033483	falsified
-6.033483	falsify
-5.556361	fam
-5.255331	fame
-4.334512	familiar
-4.089	families
-3.070167	family
-4.618509	familys
-5.431422	famine
-4.556361	famous
-4.410233	fan
-5.732452	fanatic
-5.732452	fanatical
-5.732452	fancier
-5.033483	fancy
-4.954301	fans
-5.556361	fantasia
-6.033483	fantasies
-6.033483	fantasize
-4.857391	fantastic
-4.99209	fantasy
-3.412306	far
-5.732452	farce
-6.033483	fare
-5.732452	farfetched
-6.033483	fargo
-5.732452	farima
-5.07924	farm
-5.556361	farmer
-5.188385	farmers
-5.732452	farming
-6.033483	farmingt
-5.732452	farmington
-6.033483	farms
-6.033483	farsi
-5.732452	fart
-5.07924	farther
-6.033483	farting
-5.130393	fascinated
-5.732452	fascinates
-4.528333	fascinating
-5.255331	fascination
-4.602118	fashion
-5.732452	fashionable
-5.188385	fashioned
-4.241091	fast
-6.033483	fasted
-6.033483	fasten
-4.671755	faster
-6.033483	fastest
-6.033483	fastness
-4.453699	fat
-5.556361	fatal
-6.033483	fatalistic
-5.732452	fatalities
-5.556361	fate
-6.033483	fated
-4.060355	father
-6.033483	fatherinlaw
-4.602118	fathers
-5.431422	fathom
-6.033483	fathoming
-5.732452	fattening
-6.033483	fatty
-5.732452	faucet
-4.711263	fault
-6.033483	faults
-6.033483	faulty
-6.033483	fav
-4.99209	favor
-6.033483	favorable
-6.033483	favoring
-3.707147	favorite
-5.334512	favorites
-6.033483	favors
-6.033483	fax
-6.033483	faxed
-6.033483	faxes
-6.033483	fay
-5.556361	faze
-5.130393	fe
-3.980404	fear
-5.732452	fearful
-5.732452	fearing
-5.431422	fears
-5.431422	feasible
-5.556361	feast
-6.033483	feathers
-6.033483	feats
-6.033483	feature
-5.431422	features
-4.602118	february
-6.033483	februaryish
-6.033483	fecal
-6.033483	fected
-5.188385	fed
