
\data\
ngram 1=49396

\1-grams:
-2.619505	0
-4.612696	00
-5.04406	000
-5.74303	000001
-5.566938	00001
-6.04406	000018
-5.74303	00003
-6.04406	000064
-4.061789	0001
-6.04406	00015ω
-6.04406	00016
-5.14097	0002
-5.442	0003
-6.04406	00031
-5.442	0004
-5.442	0005
-5.74303	0006
-3.84816	001
-6.04406	0010
-6.04406	0013
-6.04406	0016Oxyy
-5.566938	0019
-4.682332	002
-6.04406	0021
-6.04406	002145
-6.04406	0023
-6.04406	0027
-4.930116	003
-6.04406	0034
-6.04406	0035ET
-6.04406	0036
-6.04406	0036Oxxx
-5.74303	0037
-5.566938	0038
-6.04406	0039
-5.74303	003cGyh1
-5.198962	004
-6.04406	0047
-4.897932	005
-6.04406	0050
-6.04406	0051
-6.04406	0052
-6.04406	0057
-5.34509	006
-6.04406	0061
-6.04406	0062
-6.04406	0064
-6.04406	0066
-6.04406	0067
-4.897932	007
-6.04406	0070
-6.04406	0072
-6.04406	0076
-5.198962	008
-6.04406	0080
-6.04406	008°
-5.566938	009
-6.04406	0097
-3.954155	01
-5.34509	010
-5.265909	011
-5.198962	012
-6.04406	012degree
-5.198962	013
-6.04406	013409
-6.04406	0143
-6.04406	01440
-6.04406	0147
-5.04406	015
-6.04406	0152
-6.04406	0158
-6.04406	015Hz
-5.34509	016
-6.04406	016411
-6.04406	017
-6.04406	017024016071
-5.198962	018
-6.04406	0184
-5.566938	019
-6.04406	0194
-6.04406	01VW
-4.231146	02
-5.442	020
-5.74303	0200
-6.04406	020501
-5.566938	021
-6.04406	02140κ1
-6.04406	02165κ1
-6.04406	02185κ1
-5.566938	022
-5.34509	023
-6.04406	0234
-5.265909	024
-5.14097	025
-5.265909	026
-6.04406	02646
-5.198962	027
-6.04406	028
-5.566938	029
-5.566938	02MnO3δ
-5.566938	02Sr0
-6.04406	02qN
-4.381302	03
-5.198962	030
-6.04406	03000
-5.74303	031
-5.34509	032
-5.566938	033
-6.04406	0344
-5.74303	035
-5.34509	036
-6.04406	036604
-6.04406	0369
-5.442	037
-5.566938	038
-5.442	039
-6.04406	03±0
-4.552698	04
-5.566938	040
-5.74303	041
-6.04406	0410
-6.04406	041903
-5.442	042
-5.34509	043
-6.04406	0438
-6.04406	044
-5.74303	045
-6.04406	0456
-6.04406	046
-5.34509	047
-6.04406	048
-3.813611	05
-5.566938	050
-6.04406	0507
-5.566938	051
-6.04406	052
-6.04406	0520
-6.04406	055
-6.04406	056
-6.04406	059
-6.04406	05MHz
-6.04406	05±0
-6.04406	05μgkgday
-4.72184	06
-5.198962	060
-6.04406	0600
-5.74303	061
-6.04406	061106
-5.74303	0613
-6.04406	0617defined
-6.04406	062
-6.04406	0625
-6.04406	063901
-5.74303	063902
-5.74303	064
-5.74303	065
-6.04406	066
-6.04406	06600
-5.74303	067
-6.04406	068
-6.04406	069
-6.04406	06°N
-4.581662	07
-6.04406	071
-5.566938	072
-6.04406	0726
-6.04406	075
-6.04406	0769
-6.04406	078
-6.04406	0784
-6.04406	079
-5.74303	07°
-4.701637	08
-5.74303	080
-6.04406	0800
-5.74303	081
-6.04406	081λ
-6.04406	0822χ3
-6.04406	082χ3
-6.04406	084
-5.74303	087
-6.04406	0878
-5.566938	088
-6.04406	0897
-6.04406	08e5
-6.04406	08year
-6.04406	08±0
-4.72184	09
-6.04406	091
-5.74303	092
-6.04406	095
-6.04406	096
-5.74303	097
-6.04406	099
-6.04406	0R
-6.04406	0T
-6.04406	0Week
-6.04406	0b
-6.04406	0definite
-6.04406	0g
-6.04406	0mgL
-5.74303	0mgg
-5.74303	0mm
-6.04406	0not
-5.74303	0s⁻¹
-6.04406	0thorder
-6.04406	0x
-5.34509	0°
-6.04406	0°10°
-5.74303	0±0
-6.04406	0±13
-6.04406	0±16
-6.04406	0·002
-6.04406	0·02
-5.442	0·04
-6.04406	0·05
-6.04406	0  no
-6.04406	0∞
-2.805011	1
-3.35564	10
-3.691877	100
-4.42081	1000
-5.002667	10000
-5.089817	100000
-6.04406	10000mm3
-6.04406	10002500
-5.74303	1000Hz
-6.04406	1000cell
-6.04406	1000ml
-6.04406	1001000
-6.04406	100109
-5.566938	100140
-6.04406	1002
-5.74303	100200
-6.04406	100200mgl
-5.74303	100250 mg
-6.04406	1003
-5.74303	100300
-6.04406	100350
-6.04406	10045
-6.04406	1005
-6.04406	100500
-6.04406	10080
-6.04406	1009
-6.04406	10095199
-6.04406	100cm
-5.74303	100fold
-6.04406	100gene
-6.04406	100hour
-6.04406	100micromdeep
-6.04406	100mm
-6.04406	100quarter
-5.566938	100 
-6.04406	100×
-6.04406	100×100
-5.04406	101
-5.566938	1010
-5.74303	10100
-5.442	1011
-5.34509	1012
-6.04406	10128
-5.74303	1013
-6.04406	1014
-5.442	1015
-6.04406	10156
-5.74303	1016
-5.74303	1017
-6.04406	10171036
-6.04406	1018
-6.04406	1019
-6.04406	101item
-4.701637	102
-5.442	1020
-6.04406	102000
-6.04406	102006
-6.04406	1022
-5.198962	1024
-6.04406	1025
-4.612696	103
-5.74303	1030
-6.04406	10300
-6.04406	10316
-6.04406	1033
-6.04406	1039
-6.04406	103Pd
-5.74303	103gmgh
-6.04406	103 Sm
-4.765306	104
-6.04406	1040
-6.04406	104106
-6.04406	10411046
-6.04406	1044
-6.04406	1045
-6.04406	10452
-5.74303	1047
-6.04406	1048
-6.04406	1048576
-6.04406	104I0
-4.663848	105
-6.04406	1051320613211
-6.04406	105196
-6.04406	1053
-5.74303	1055
-6.04406	1057
-6.04406	1058
-6.04406	105950
-6.04406	105molg
-4.581662	106
-6.04406	1060
-6.04406	10631068
-5.74303	1064
-6.04406	1065
-6.04406	106cm2min
-4.83994	107
-6.04406	10707
-6.04406	107145
-6.04406	10740
-5.74303	1075
-6.04406	10750000
-6.04406	10791297
-4.867969	108
-6.04406	108cm2min
-6.04406	108m2Vs
-5.34509	109
-6.04406	109126
-6.04406	10GHz
-6.04406	10MHz
-6.04406	10S
-6.04406	10Y
-6.04406	10cm
-6.04406	10cross
-6.04406	10d
-5.198962	10fold
-6.04406	10h
-5.74303	10kb
-6.04406	10kg
-6.04406	10mW
-6.04406	10microl
-5.34509	10min
-5.566938	10mm
-6.04406	10month
-6.04406	10mum
-6.04406	10s
-6.04406	10state
-5.442	10step
-6.04406	10th
-6.04406	10x10
-6.04406	10y
-5.14097	10year
-6.04406	10 
-5.198962	10°
-6.04406	10º
-6.04406	10μm
-5.74303	10 000
-5.74303	10 Lmin
-6.04406	10 mgm³
-6.04406	10 °C
-6.04406	10  pain
-6.04406	10⁻³
-3.751804	11
-4.964879	110
-5.265909	1100
-5.74303	11000
-5.74303	110000
-6.04406	1100000
-5.74303	1101
-6.04406	11024
-6.04406	1105
-6.04406	1109
-6.04406	1109537
-6.04406	110MHz
-5.34509	111
-6.04406	1110
-6.04406	111167
-5.74303	1112
-6.04406	11131119
-6.04406	11139
-5.566938	1114
-6.04406	1117
-5.04406	112
-6.04406	11201130
-6.04406	112122
-6.04406	11226
-6.04406	11271136
-6.04406	11281133
-5.265909	113
-6.04406	1130
-6.04406	1131±112
-6.04406	1137
-6.04406	113Clactate
-6.04406	113Cpyruvate
-6.04406	113±26
-5.002667	114
-6.04406	1144
-6.04406	11450
-6.04406	1147
-5.74303	114C
-6.04406	114±25 mgdl
-5.04406	115
-6.04406	1150
-6.04406	1158
-6.04406	115hbpageindex
-5.14097	116
-6.04406	11600
-6.04406	1167
-5.04406	117
-6.04406	1173
-5.14097	118
-6.04406	1181
-6.04406	118700
-5.442	119
-6.04406	1191
-6.04406	1195
-6.04406	1198
-6.04406	1199
-6.04406	1199Inage
-6.04406	11CDTBZPET
-6.04406	11CPIB
-6.04406	11CRPK11195
-6.04406	11CSCH23390
-6.04406	11Cdihydrotetrabenazine
-6.04406	11Cflumazenil
-6.04406	11XX
-6.04406	11fold
-6.04406	11halogenated
-6.04406	11in
-6.04406	11mer
-6.04406	11mers
-6.04406	11point
-6.04406	11positive
-6.04406	11q
-5.74303	11q13
-6.04406	11 years
-6.04406	11°
-5.74303	11βHSD1
-6.04406	11βhydroxysteroid
-6.04406	11 303
-3.603151	12
-4.371962	120
-5.34509	1200
-5.74303	12000
-5.566938	120000
-6.04406	12005
-5.74303	120180
-6.04406	1205
-6.04406	12080
-6.04406	120hour
-6.04406	120kV
-6.04406	120leaf
-6.04406	120physician
-5.04406	121
-6.04406	1211
-6.04406	1213
-5.74303	1214
-6.04406	1215
-6.04406	1216
-6.04406	1217371745
-6.04406	1218
-6.04406	12185333
-6.04406	1219
-4.964879	122
-6.04406	122155406
-6.04406	1222
-5.74303	1224
-6.04406	122±38
-5.04406	123
-6.04406	123261
-6.04406	12355346
-5.74303	123I
-5.442	123IIMP
-6.04406	123Iepidepride
-5.442	124
-6.04406	1240
-6.04406	12406
-6.04406	1240602
-6.04406	124130
-6.04406	1244
-6.04406	12442
-6.04406	1245
-6.04406	1246
-6.04406	124780
-6.04406	1249
-4.867969	125
-6.04406	1250
-6.04406	125010000
-6.04406	12507500
-6.04406	1252μT
-6.04406	1253
-6.04406	12575
-5.74303	125I
-6.04406	125kHz
-5.34509	126
-6.04406	12600
-6.04406	1261
-6.04406	1264
-5.566938	127
-6.04406	127145
-6.04406	1275560
-6.04406	127unit
-6.04406	127±40
-4.930116	128
-5.74303	1280
-6.04406	1282
-5.74303	128channel
-6.04406	128slice
-5.14097	129
-6.04406	1296
-6.04406	12971
-6.04406	129719
-6.04406	12982988
-6.04406	12994
-5.74303	129Xe
-6.04406	129±0
-6.04406	12C
-6.04406	12DCB
-6.04406	12S
-6.04406	12bit
-6.04406	12core
-6.04406	12dichlorobenzene
-5.74303	12gene
-5.442	12h
-6.04406	12hour
-6.04406	12kDa
-5.265909	12lead
-6.04406	12mer
-6.04406	12mgkg¹
-5.14097	12month
-6.04406	12positions
-6.04406	12spins
-6.04406	12stacking
-6.04406	12synchronouslead
-6.04406	12thorder
-6.04406	12week
-6.04406	12x105
-6.04406	12 bits
-6.04406	12 month
-5.74303	12°
-6.04406	12±0
-3.831872	13
-4.867969	130
-5.442	1300
-5.74303	13080
-5.34509	131
-6.04406	1310
-6.04406	13100
-6.04406	1313
-6.04406	1314
-6.04406	1315
-6.04406	1316
-6.04406	13179
-6.04406	1318581869
-6.04406	13187
-5.442	1319
-5.74303	131CT
-5.14097	131I
-6.04406	131INaI
-5.265909	132
-6.04406	1325
-5.442	133
-5.14097	133Xe
-6.04406	133±57 mgdL
-5.566938	134
-6.04406	1340
-6.04406	13400microl
-6.04406	1344
-6.04406	134±35 mgdl
-5.002667	135
-6.04406	135000
-6.04406	13527
-6.04406	13540
-5.34509	136
-6.04406	136276
-6.04406	1366InGGT
-6.04406	136 crossing
-6.04406	136±37 mgdl
-5.198962	137
-5.74303	1372
-6.04406	137200
-5.74303	137Cs
-5.442	138
-6.04406	138469
-6.04406	13887
-6.04406	1389
-5.442	139
-6.04406	139140
-6.04406	1397
-5.74303	13C
-6.04406	13Cenrichments
-6.04406	13Hz
-6.04406	13SNP
-6.04406	13V
-6.04406	13generation
-6.04406	13mm
-6.04406	13month
-6.04406	13stacking
-6.04406	13 Å
-6.04406	13°C
-3.84816	14
-4.64612	140
-5.566938	1400
-6.04406	14000
-6.04406	14080
-6.04406	14090
-5.74303	140kV
-6.04406	140±28
-5.34509	141
-6.04406	1419
-6.04406	141±0
-5.566938	142
-6.04406	1420
-6.04406	1424
-6.04406	14240
-6.04406	1425
-6.04406	1427
-5.265909	143
-6.04406	1432
-5.74303	143 × 103 mm2s
-5.566938	144
-6.04406	14400
-6.04406	144AD
-6.04406	144±48 mgdL
-5.198962	145
-6.04406	145818
-5.74303	146
-6.04406	1460
-6.04406	14680
-6.04406	147
-6.04406	1470
-6.04406	1472
-6.04406	14756
-5.566938	148
-6.04406	1480
-6.04406	148±28 mgdl
-5.74303	149
-6.04406	14901000
-5.566938	1499
-6.04406	149 ± 25
-5.442	14CDmannitol
-6.04406	14Curea
-6.04406	14N
-6.04406	14benzoquinone
-6.04406	14day
-5.74303	14dioxane
-6.04406	14folds
-6.04406	14±1
-3.64786	15
-4.487757	150
-5.14097	1500
-6.04406	15000
-6.04406	15002000
-6.04406	1500ml
-6.04406	15061513
-6.04406	150fold
-6.04406	150 × 103 mm2s
-4.897932	151
-6.04406	1517
-5.442	1519
-6.04406	151±65 mgdl
-5.442	152
-5.265909	1520
-6.04406	1521
-6.04406	1522±201
-6.04406	1523
-6.04406	1525
-6.04406	152913
-5.442	153
-6.04406	1530
-6.04406	15362
-6.04406	1539
-5.566938	153Sm
-6.04406	153±91 mgdl
-5.442	154
-5.566938	1540
-6.04406	1544
-5.566938	1545
-6.04406	15480
-6.04406	1549
-5.442	155
-5.34509	1550
-6.04406	1550years
-6.04406	1553
-6.04406	15598
-5.442	156
-5.74303	1560
-6.04406	1561
-6.04406	157
-6.04406	1574
-6.04406	1575χ3
-5.089817	158
-6.04406	158th
-5.265909	159
-6.04406	159905
-6.04406	15HU
-6.04406	15MV
-5.34509	15N
-5.74303	15Nincorporation
-6.04406	15Nlabeled
-6.04406	15Npulse
-6.04406	15OH2O
-6.04406	15Owater
-6.04406	15fold
-6.04406	15gene
-5.74303	15month
-6.04406	15sec
-5.74303	15th
-6.04406	15weekold
-5.566938	15year
-6.04406	15 min
-6.04406	15°
-6.04406	15±1
-3.81875	16
-4.813611	160
-5.566938	1600
-6.04406	160166
-6.04406	16080
-6.04406	160872
-4.83994	161
-6.04406	16150
-6.04406	1617
-5.566938	162
-6.04406	1621
-6.04406	1624
-6.04406	1629
-5.265909	163
-6.04406	1630
-6.04406	1632
-5.74303	1633
-5.442	164
-6.04406	16435
-6.04406	1644
-6.04406	1648
-5.14097	165
-6.04406	1650
-6.04406	165173
-6.04406	1654
-5.74303	166
-5.74303	1664
-5.34509	167
-6.04406	1671
-5.34509	168
-6.04406	1685
-6.04406	16O
-6.04406	16PK
-5.34509	16QAM
-5.74303	16S
-6.04406	16ary
-6.04406	16bit
-5.74303	16channel
-6.04406	16segment
-5.442	16stranded
-6.04406	16°
-6.04406	16×105
-3.913726	17
-5.442	170
-6.04406	1700
-6.04406	1706
-6.04406	171
-6.04406	1710
-6.04406	1718
-6.04406	1719
-5.265909	172
-6.04406	1724
-6.04406	1728
-5.566938	173
-6.04406	1733984
-6.04406	173±70
-5.74303	174
-5.442	175
-6.04406	1750
-6.04406	175194
-6.04406	175mA
-5.04406	176
-6.04406	1762
-6.04406	1766
-5.566938	177
-6.04406	17700
-6.04406	177DOTATE
-6.04406	177Lu
-5.442	178
-6.04406	17800
-6.04406	1783
-5.089817	179
-5.74303	17911
-6.04406	1793
-6.04406	17beta
-6.04406	17bp
-6.04406	17case
-6.04406	17fold
-6.04406	17generation
-5.74303	17item
-6.04406	17ketosteroid
-6.04406	17month
-6.04406	17±0
-3.796087	18
-4.566938	180
-5.74303	1805GT
-5.74303	180°
-5.74303	181
-6.04406	1819
-6.04406	18191
-6.04406	182
-6.04406	1822
-6.04406	18258266
-6.04406	183
-6.04406	1836
-5.74303	184
-6.04406	1849
-5.74303	185
-6.04406	1856
-6.04406	185745
-6.04406	18583
-5.74303	186
-6.04406	186373
-6.04406	1864
-6.04406	1868
-5.566938	186Re
-6.04406	186χ3
-5.442	187
-5.74303	188
-5.74303	1884
-5.74303	188Re
-5.265909	189
-6.04406	1895
-6.04406	1897
-5.74303	18F
-4.83994	18FFDG
-6.04406	18Ffluoro2deoxdeoxyglucose
-6.04406	18Ffluorodeoxyglucose
-5.566938	18S
-6.04406	18mm
-6.04406	18°
-6.04406	18±0
-6.04406	18λ
-3.968513	19
-5.566938	190
-5.74303	1900
-6.04406	190000
-6.04406	1903
-6.04406	1905
-5.442	191
-6.04406	1911
-5.74303	1914
-6.04406	19157
-5.34509	192
-6.04406	192372
-6.04406	1926
-6.04406	192Ir
-6.04406	192 bp
-5.442	193
-6.04406	1930
-6.04406	1931
-6.04406	1936
-5.442	194
-6.04406	1943
-6.04406	1949
-6.04406	195
-5.74303	1951
-6.04406	1953
-6.04406	1954
-6.04406	1956
-5.74303	1957
-6.04406	1958
-6.04406	195 bp
-5.74303	196
-6.04406	1960
-6.04406	19601962
-6.04406	1961
-6.04406	1964
-6.04406	1967
-6.04406	1968
-5.566938	1969
-5.566938	197
-5.566938	1970
-6.04406	1970s
-5.566938	1971
-6.04406	1973
-6.04406	1974
-5.74303	19741988
-6.04406	1975
-6.04406	1977
-5.74303	1979
-6.04406	198
-5.265909	1980
-6.04406	19809
-5.442	1980s
-5.442	1982
-6.04406	1983
-6.04406	19831993
-5.442	1984
-5.198962	1985
-5.74303	1986
-5.34509	1987
-6.04406	198788
-4.897932	1988
-6.04406	19881993
-6.04406	19881994
-4.964879	1989
-5.198962	199
-4.867969	1990
-6.04406	19901991
-6.04406	19902005
-6.04406	1990s
-4.964879	1991
-6.04406	19911992
-6.04406	199192
-5.04406	1992
-6.04406	199207
-6.04406	199219933944
-6.04406	19921998
-6.04406	19922002
-4.964879	1993
-6.04406	19931998
-4.788787	1994
-6.04406	19942000
-4.525546	1995
-6.04406	19952008
-6.04406	199521319344
-6.04406	199540221240
-4.788787	1996
-6.04406	19961997
-4.813611	1997
-5.74303	19971998
-6.04406	19972009
-4.612696	1998
-6.04406	19981999
-5.74303	19982003
-6.04406	19982009
-6.04406	19989813742
-4.72184	1999
-6.04406	199910550562
-5.74303	19992000
-6.04406	19992003
-6.04406	19992008
-6.04406	19fold
-5.74303	19q13
-6.04406	1A
-6.04406	1A1S
-5.442	1B
-5.442	1C
-4.581662	1D
-6.04406	1DFinite
-6.04406	1DIMRT
-6.04406	1Gy
-4.930116	1H
-6.04406	1H124oxadiazolol43a
-6.04406	1H13C
-6.04406	1H15N
-6.04406	1HJ1
-5.74303	1HNMR
-5.34509	1M
-6.04406	1MIC
-6.04406	1N
-5.089817	1O2
-6.04406	1R
-6.04406	1ROP
-6.04406	1ROPand
-6.04406	1SNP
-6.04406	1So2
-6.04406	1T1
-6.04406	1T2
-6.04406	1TD
-6.04406	1T₂
-6.04406	1Y
-6.04406	1a
-6.04406	1a4mediated
-6.04406	1amino4methyl
-6.04406	1benzyl35hydroxymethyl2furyl
-5.74303	1classifier
-6.04406	1cm
-5.74303	1day
-6.04406	1dimensional
-6.04406	1e03trtr
-6.04406	1equivocal
-6.04406	1erc
-6.04406	1f
-5.74303	1fbeta
-5.265909	1g
-5.265909	1h
-6.04406	1hour
-6.04406	1insufficient
-6.04406	1kHz
-6.04406	1microlmin
-6.04406	1min
-5.74303	1mm
-6.04406	1mm3
-6.04406	1mmdiameter
-5.74303	1month
-5.74303	1msec
-6.04406	1n
-5.198962	1naphthylamine
-6.04406	1napthylamien
-6.04406	1norm
-6.04406	1ns
-5.74303	1outofn
-6.04406	1oxide
-6.04406	1point
-5.74303	1propanol
-6.04406	1p∑p−1
-6.04406	1q21
-6.04406	1s
-6.04406	1second
-6.04406	1sigma
-5.74303	1sparse
-6.04406	1square
-5.14097	1st
-6.04406	1st4th
-5.74303	1step
-6.04406	1t
-6.04406	1vs1
-6.04406	1weighted
-6.04406	1x
-6.04406	1xn−kKn−k
-5.14097	1year
-6.04406	1yr
-6.04406	1 bpp
-6.04406	1 min
-6.04406	1 mms
-6.04406	1 year
-5.566938	1°
-6.04406	1±10
-6.04406	1¿0
-5.74303	1×1×5
-6.04406	1α
-6.04406	1μgkgday
-6.04406	1μm
-6.04406	1 mm
-6.04406	1 °C
-6.04406	1 × 10⁶kg
-6.04406	1  0
-6.04406	1∏p−1i0ri
-6.04406	1−1p∏p−1i0Ki1p
-6.04406	1√t
-6.04406	1∼1
-6.04406	1⋅109
-2.906389	2
-3.54713	20
-4.381302	200
-4.33649	2000
-5.566938	20000
-5.566938	200000
-6.04406	20002005
-6.04406	20003000
-6.04406	2000D
-6.04406	2000Dec
-6.04406	2000Feb
-6.04406	2000dynamometer
-4.682332	2001
-6.04406	20012003
-6.04406	20012009
-4.525546	2002
-6.04406	20021128362847
-6.04406	20022004
-6.04406	20022007
-6.04406	20022009
-4.581662	2003
-6.04406	20032005
-6.04406	20034
-6.04406	200350
-4.442	2004
-5.566938	200401
-6.04406	200408
-5.74303	20042011
-6.04406	2004Neuron
-4.400607	2005
-6.04406	20052006
-6.04406	2005June
-4.765306	2006
-5.566938	20062008
-6.04406	2006June
-4.629086	2007
-6.04406	200708
-6.04406	20072008
-6.04406	20072009
-6.04406	2007332618
-6.04406	2007November
-6.04406	2007a
-4.512581	2008
-6.04406	200800
-4.499992	2009
-6.04406	2009a
-6.04406	200fold
-6.04406	200kDa
-6.04406	200nm
-5.566938	201
-4.612696	2010
-6.04406	20107
-4.64612	2011
-6.04406	20110
-5.198962	2012
-5.566938	2013
-6.04406	20130
-6.04406	201500
-6.04406	20160
-6.04406	20180
-5.74303	201TI
-5.74303	201Tl
-6.04406	201Tl99mTc
-6.04406	201Tlcardiac
-6.04406	201Tlexercise
-5.442	202
-5.566938	2020
-6.04406	2024
-6.04406	20249
-5.74303	2025
-5.442	203
-5.566938	2030
-6.04406	2031
-6.04406	2032
-6.04406	20326339
-6.04406	2033μx
-6.04406	2035
-5.74303	2037
-6.04406	203±138
-5.442	204
-5.566938	2040
-6.04406	2045
-5.566938	2048
-6.04406	2048×2048
-5.74303	205
-6.04406	2050
-6.04406	206
-6.04406	2065
-5.566938	207
-6.04406	2070
-5.74303	2072
-6.04406	2075
-5.566938	208
-5.566938	2080
-6.04406	20857
-6.04406	20891
-5.74303	209
-6.04406	2090
-6.04406	2093
-5.566938	2097
-6.04406	20970
-5.265909	20Hz
-6.04406	20L
-6.04406	20Ne
-6.04406	20Y
-5.442	20fold
-6.04406	20folds
-6.04406	20micron
-5.74303	20min
-5.442	20mm
-6.04406	20th
-6.04406	20year
-5.265909	20°
-6.04406	20±5
-6.04406	20·8
-6.04406	20μLkg
-6.04406	20 µm
-3.897932	21
-6.04406	210
-5.74303	2100
-6.04406	21000
-6.04406	2101
-6.04406	2108χ3
-6.04406	210 000
-5.265909	211
-6.04406	21183
-6.04406	2119
-6.04406	211±48
-5.198962	212
-6.04406	2120
-6.04406	2120min
-6.04406	2123
-6.04406	2127
-6.04406	21283
-6.04406	2129
-5.566938	213
-6.04406	21347
-6.04406	2137153726
-5.566938	214
-6.04406	2142
-6.04406	2142μx
-6.04406	214nm
-5.74303	215
-5.566938	216
-6.04406	2166
-6.04406	216±44
-6.04406	216 × 103 mm2s
-6.04406	217
-6.04406	2170
-6.04406	2176 years
-6.04406	2179
-5.566938	218
-6.04406	21800
-6.04406	2180μx
-6.04406	2184
-6.04406	2185μx
-6.04406	2189
-5.74303	219
-6.04406	2190
-6.04406	2193
-6.04406	2198
-5.442	21D8
-6.04406	21EX
-6.04406	21night
-6.04406	21st
-6.04406	21year
-6.04406	21 mgL
-3.930116	22
-5.34509	220
-6.04406	2200
-6.04406	22000
-6.04406	22010408
-6.04406	220151171
-6.04406	2205
-6.04406	2206
-6.04406	2207
-6.04406	220±42 mgdl
-5.74303	221
-6.04406	2214
-6.04406	2215
-5.566938	222
-6.04406	2220
-6.04406	2226
-6.04406	2229
-6.04406	222±41 mgdl
-5.566938	223
-6.04406	2230993108
-6.04406	2231
-6.04406	2233
-6.04406	224
-6.04406	2240
-6.04406	22423
-6.04406	224h
-5.442	225
-6.04406	2254
-6.04406	226
-6.04406	2269
-5.198962	227
-6.04406	2270
-6.04406	22700
-5.74303	228
-6.04406	2281
-6.04406	22818
-6.04406	2285
-6.04406	2287
-6.04406	229
-6.04406	2291294
-6.04406	2299
-6.04406	22Pa
-6.04406	22bed
-6.04406	22diphenyl1picrylhydrazyl
-6.04406	22n
-6.04406	22nitro4trifluoromethylbenzoyl13cyclohexanedione
-6.04406	22yearold
-6.04406	22°
-4.022871	23
-5.198962	230
-5.74303	2300
-6.04406	2300C
-6.04406	2303
-6.04406	23130
-6.04406	2314701
-6.04406	2315
-6.04406	2316
-5.442	232
-6.04406	2320
-6.04406	2327
-6.04406	23275
-5.74303	2328
-6.04406	233
-6.04406	23331
-6.04406	23362350
-5.566938	234
-6.04406	235
-6.04406	2353
-6.04406	2354
-5.566938	236
-6.04406	2369
-6.04406	237
-6.04406	2378tetrachlorodibenzopdioxin
-5.74303	238
-5.74303	2388
-6.04406	239
-6.04406	23DPG
-5.265909	23Na
-6.04406	23commonly
-6.04406	23diphosphoglycerate
-6.04406	23pyrazolyl134oxadiazoles
-6.04406	23s
-6.04406	23±0
-6.04406	23·6
-6.04406	23 ± 6
-6.04406	23  89
-3.834545	24
-5.34509	240
-6.04406	2400
-6.04406	240000
-6.04406	240320
-6.04406	24056877
-6.04406	240minute
-6.04406	24146
-4.867969	242
-6.04406	2422
-5.566938	243
-5.74303	2430
-6.04406	2432
-6.04406	243260
-6.04406	244
-6.04406	24474
-6.04406	2448 h
-5.74303	245
-6.04406	245253
-6.04406	245 × 103 mm2s
-6.04406	246
-6.04406	2462
-5.566938	247
-5.34509	248
-5.566938	249
-6.04406	2490
-6.04406	2496
-6.04406	2499
-6.04406	24Hz
-6.04406	24Na
-6.04406	24ch
-6.04406	24channel
-6.04406	24dichlorophenol
-6.04406	24fold
-4.867969	24h
-5.265909	24hour
-5.74303	24hr
-5.74303	24mm
-5.74303	24month
-6.04406	24·0
-3.758502	25
-4.566938	250
-5.74303	2500
-5.74303	250000
-6.04406	25005000
-5.74303	2501000
-6.04406	250500 ml
-6.04406	250522
-6.04406	250mL
-6.04406	250 ml
-6.04406	251
-5.265909	252
-6.04406	2522
-6.04406	25242
-6.04406	25252525
-6.04406	2529
-5.74303	2530
-6.04406	253276
-6.04406	2535
-6.04406	2538
-5.442	254
-6.04406	2542
-6.04406	2545
-6.04406	254575
-5.566938	255
-5.566938	2550
-6.04406	2550N
-6.04406	2552
-6.04406	25549
-5.34509	256
-6.04406	256element
-5.566938	256slice
-6.04406	257
-6.04406	25706
-6.04406	2578
-6.04406	257±7
-5.14097	258
-6.04406	25800
-6.04406	2584
-6.04406	259±6 Å
-6.04406	25Foot
-6.04406	25g
-6.04406	25item
-6.04406	25km
-5.74303	25mer
-6.04406	25mers
-6.04406	25methoxy22methyl13benzothiazol6ylamino4pyridinyl1567tetrahydro4Hpyrrolo32cpyridin4one
-6.04406	25mg
-6.04406	25 g
-5.74303	25°
-5.74303	25°C
-6.04406	25Å
-5.74303	25 
-6.04406	25 × actual
-4.022871	26
-5.198962	260
-6.04406	261
-6.04406	26100
-6.04406	2618
-5.74303	262
-5.566938	263
-6.04406	2637943800
-6.04406	263 ± 49
-5.566938	264
-6.04406	264181
-5.442	265
-5.265909	266
-6.04406	2661
-6.04406	2665
-6.04406	267268
-6.04406	267279
-6.04406	2677
-5.566938	268
-6.04406	269
-6.04406	2696
-6.04406	26Dithiopurine
-5.566938	26dithiouric
-6.04406	26ms
-6.04406	26°C
-4.089817	27
-5.566938	270
-6.04406	270216
-6.04406	2703
-6.04406	270fold
-6.04406	271
-6.04406	271026
-6.04406	271 × 103 mm2s
-5.566938	272
-5.74303	273
-6.04406	274
-6.04406	275 ± 51
-5.566938	276
-6.04406	2760
-5.74303	277
-6.04406	2772
-6.04406	278
-6.04406	2781
-6.04406	279291
-6.04406	279neuron
-6.04406	27 gL
-6.04406	27 µm
-4.075577	28
-5.265909	280
-6.04406	28000
-6.04406	28074
-5.442	281
-5.566938	282
-6.04406	283
-6.04406	2830
-6.04406	2837
-5.14097	285
-6.04406	2858
-6.04406	286
-6.04406	2861
-6.04406	2867
-5.265909	288
-6.04406	28952
-5.74303	28Al
-6.04406	28sec
-6.04406	28year
-6.04406	28μs
-4.211551	29
-5.566938	290
-6.04406	290700
-6.04406	291
-6.04406	291173
-6.04406	29257
-5.566938	293
-6.04406	29300
-6.04406	2931
-6.04406	2932
-6.04406	2933
-6.04406	294
-6.04406	2946
-6.04406	2951
-5.74303	296
-5.566938	2961
-5.442	297
-5.74303	2973
-5.566938	298
-5.74303	298338
-6.04406	298731
-6.04406	298K
-5.74303	299
-6.04406	29°E
-6.04406	29±1
-5.74303	29 sec
-5.74303	2A
-5.74303	2B
-6.04406	2C
-5.74303	2CMP
-6.04406	2CP
-3.821343	2D
-5.74303	2D2D
-5.566938	2D3D
-5.74303	2DColor
-6.04406	2DFFTa
-6.04406	2DIMRT
-5.74303	2DIRSSFSE
-5.442	2DSTE
-6.04406	2Delectrophoretograms
-6.04406	2Dimaging
-6.04406	2Dimpulse
-6.04406	2Dprotein
-6.04406	2E1
-6.04406	2L
-6.04406	2PM
-6.04406	2RMS
-5.74303	2SD
-6.04406	2SNP
-5.198962	2Step
-6.04406	2T
-6.04406	2X4
-6.04406	2Y
-6.04406	2acetoxy
-6.04406	2amino44chloro224fluoro1Hpyrazol1ylethoxy6methylphenylN22difluoropropyl57dihydro6Hpyrrolo34dpyrimidine6carboxamide
-6.04406	2based
-6.04406	2by2
-5.74303	2c
-6.04406	2ch
-5.265909	2chloroadenosine
-6.04406	2class
-5.74303	2classifier
-6.04406	2cm
-6.04406	2compartment
-6.04406	2d
-5.74303	2day
-6.04406	2definite
-6.04406	2deoxyN6methyladenosine35diphosphate
-6.04406	2deoxynucleotides5monophosphates
-5.002667	2dimensional
-6.04406	2dimethylamino6lauroylnaphthalene
-6.04406	2e16
-5.74303	2field
-6.04406	2fluorodeoxyglucose
-5.265909	2fold
-6.04406	2foldachieving
-6.04406	2frame
-6.04406	2g
-5.566938	2h
-6.04406	2hour
-6.04406	2hydroxy
-5.74303	2hydroxy3alkyl14naphthoquinones
-6.04406	2l
-5.442	2m
-6.04406	2mgkg
-6.04406	2mgmL
-6.04406	2min
-5.442	2mm
-6.04406	2mmdiameter
-6.04406	2monophosphate
-6.04406	2month
-5.34509	2nd
-6.04406	2norm
-6.04406	2pFe
-6.04406	2psis1
-6.04406	2pyrrolidinone
-6.04406	2sparse
-5.74303	2stage
-5.566938	2step
-6.04406	2sufficient
-6.04406	2s⁻¹
-5.74303	2week
-6.04406	2x106
-6.04406	2x2
-6.04406	2y
-5.442	2year
-6.04406	2yr
-5.74303	2 
-6.04406	2 gL
-6.04406	2 weeks
-5.566938	2°
-6.04406	2±1
-6.04406	2±16
-6.04406	2×103 Sm
-6.04406	2×2×20
-6.04406	2 mm
-6.04406	2 mmHg
-6.04406	2 ± 2
-6.04406	2 × 10⁶
-6.04406	2 × 10⁶kg
-6.04406	2 × 5mm
-5.74303	2  0
-6.04406	2  1
-3.028281	3
-3.64612	30
-4.362819	300
-5.265909	3000
-5.566938	30000
-6.04406	300000
-6.04406	3000056000
-6.04406	3000 000
-6.04406	3001000
-6.04406	3006
-5.442	300HCT
-6.04406	300MHz
-6.04406	300fold
-6.04406	300μTm
-6.04406	300 
-6.04406	300 μs
-5.442	301
-6.04406	3010
-6.04406	30130
-6.04406	30150
-6.04406	3017
-6.04406	30183
-5.442	302
-6.04406	3020
-6.04406	3022
-5.74303	303
-6.04406	3032
-5.74303	3035 mms
-6.04406	303K
-5.74303	304
-6.04406	3040
-6.04406	3045
-5.74303	305
-5.74303	3050
-6.04406	3055
-5.566938	305d
-5.74303	306
-6.04406	307
-5.74303	3070
-5.74303	308
-5.566938	3080
-6.04406	3086 mms
-6.04406	3088
-5.74303	309
-6.04406	30S
-6.04406	30SN
-5.34509	30day
-5.566938	30direction
-6.04406	30mgkg
-5.566938	30min
-5.74303	30s
-6.04406	30second
-6.04406	30tried
-5.74303	30 min
-6.04406	30 mm
-5.566938	30°
-6.04406	30±0
-6.04406	30 ± 0
-4.157569	31
-5.34509	310
-6.04406	3109
-5.566938	311
-6.04406	311bp
-5.566938	312
-6.04406	3123I
-6.04406	313
-6.04406	3135
-6.04406	3136
-6.04406	313K
-5.74303	314
-5.74303	315
-5.442	316
-6.04406	316000
-6.04406	31610430
-6.04406	3168
-6.04406	316in
-5.566938	317
-6.04406	3171
-6.04406	3174
-5.442	318
-6.04406	318320
-5.74303	319
-6.04406	31P
-6.04406	31e7
-6.04406	31mgd
-6.04406	31 
-3.998737	32
-5.002667	320
-6.04406	3200
-6.04406	320334
-6.04406	320row
-5.74303	321
-5.74303	322
-6.04406	3220
-6.04406	3222
-5.74303	323
-6.04406	3234
-6.04406	3235μT
-6.04406	323K
-6.04406	3241
-6.04406	3242
-5.74303	325
-6.04406	3266
-5.74303	327
-6.04406	3273
-5.442	328
-6.04406	329
-6.04406	3292
-5.74303	32Hz
-5.566938	32P
-5.74303	32ary
-6.04406	32cell
-6.04406	32channel
-5.74303	32element
-6.04406	32site
-5.442	32  HCT
-4.052834	33
-5.442	330
-6.04406	3300
-5.74303	331
-6.04406	3310
-6.04406	3311
-6.04406	332
-6.04406	3330
-6.04406	33380
-5.442	334
-6.04406	335
-6.04406	3350
-6.04406	3351
-6.04406	33533360
-6.04406	335TriodoLthyronine
-6.04406	336
-6.04406	33666
-5.442	337
-5.74303	3375GC
-5.74303	339
-6.04406	33year
-6.04406	33±9
-4.124981	34
-5.34509	340
-6.04406	340000
-6.04406	341356
-6.04406	342
-6.04406	3435CT
-6.04406	3436
-6.04406	344
-6.04406	3440
-6.04406	345
-6.04406	3453
-6.04406	345dimethylthiazol2Yl25diphenyltetrazolium
-6.04406	345fold
-5.74303	345trisphosphate
-5.34509	347
-6.04406	3490
-6.04406	34DCA
-6.04406	34cm3
-6.04406	34diCQA
-6.04406	34h
-6.04406	34i0
-6.04406	34 gL
-5.74303	34βE12
-6.04406	34  0
-4.057288	35
-4.964879	350
-5.74303	3500
-6.04406	35000
-6.04406	35014
-6.04406	350ml
-5.74303	351
-5.74303	3511001125
-5.74303	352
-6.04406	3538
-6.04406	3541
-6.04406	355
-6.04406	3560
-6.04406	356588
-6.04406	357
-6.04406	3570
-6.04406	357364
-5.566938	358
-6.04406	35S
-6.04406	35diCQA
-6.04406	35diiodoLthyropropionic
-6.04406	35fold
-6.04406	35mm
-6.04406	35th
-6.04406	35 
-6.04406	35±0
-4.109561	36
-4.964879	360
-6.04406	3600
-6.04406	3605
-5.74303	360°
-5.74303	361
-6.04406	3615
-6.04406	361compound
-6.04406	361element
-5.74303	362
-6.04406	3622μT
-6.04406	3623
-6.04406	363
-6.04406	36340
-6.04406	364
-6.04406	3645
-5.34509	365
-6.04406	3651
-5.74303	366
-6.04406	3667
-5.34509	369
-5.74303	36bed
-6.04406	36fold
-6.04406	36item
-6.04406	36th
-6.04406	36week
-6.04406	36 g
-5.74303	36±0
-6.04406	36  6
-4.109561	37
-5.265909	370
-6.04406	3704
-6.04406	3719701977
-5.74303	372
-6.04406	3725
-5.74303	373
-6.04406	375
-6.04406	3755380
-6.04406	3756
-6.04406	376
-6.04406	3769
-5.74303	377
-6.04406	3773
-6.04406	3782240
-6.04406	37channel
-6.04406	37  72
-4.180737	38
-5.442	380
-6.04406	380H2O2n0phiAR27
-5.74303	381
-6.04406	3816
-6.04406	382
-6.04406	38278
-5.74303	384
-6.04406	3840
-6.04406	3844
-6.04406	38479
-6.04406	384strip
-6.04406	384well
-5.74303	385
-5.74303	386
-6.04406	3871
-6.04406	38x105
-6.04406	38 months
-6.04406	38±0
-4.265909	39
-5.442	390
-6.04406	391
-6.04406	39190199
-6.04406	3926
-6.04406	393
-6.04406	3941
-6.04406	395
-6.04406	3951
-6.04406	396
-5.442	397
-6.04406	398ps
-6.04406	399
-6.04406	399423
-6.04406	39Hz
-6.04406	39item
-6.04406	39s
-6.04406	39±
-6.04406	39±0
-6.04406	3CMP
-6.04406	3CP
-6.04406	3CQA
-3.357424	3D
-5.442	3D2D
-5.74303	3D3D
-5.74303	3DAC
-6.04406	3DCOFFEE
-5.089817	3DFRFSE
-6.04406	3DHit
-6.04406	3DPG
-5.566938	3DQSAR
-6.04406	3DRCA
-5.265909	3DRP
-6.04406	3DRTP
-5.34509	3DSTE
-5.198962	3DVR
-6.04406	3Dfourdimensional
-6.04406	3Dlocalization
-6.04406	3Dmorphometry
-6.04406	3Dordered
-6.04406	3Dvessel
-6.04406	3Dvision
-6.04406	3GB
-5.265909	3HE17betaG
-5.442	3He
-6.04406	3L
-6.04406	3LEHR
-6.04406	3LZM
-5.74303	3M
-6.04406	3N
-6.04406	3OH
-5.566938	3R
-6.04406	3SNP
-4.930116	3T
-5.265909	3T3
-6.04406	3Tesla
-5.442	3UTR
-5.74303	3UTRs
-6.04406	3Y
-5.74303	3a
-6.04406	3a1VIPMTV3V1
-6.04406	3atom
-6.04406	3b
-6.04406	3choice
-6.04406	3class
-5.74303	3classifier
-6.04406	3cm
-5.566938	3d
-6.04406	3dB
-6.04406	3dMDface™
-6.04406	3ddeconvolution
-6.04406	3deazauridine
-6.04406	3dexamethasone
-4.72184	3dimensional
-6.04406	3dimensionally
-5.74303	3flanking
-6.04406	3fold
-5.74303	3gkg
-5.74303	3glucoside
-6.04406	3good
-5.74303	3h
-6.04406	3hydroxy3methylglutaryl
-6.04406	3hydroxy3methylglutarylcoenzyme
-6.04406	3hydroxyl
-6.04406	3j
-5.74303	3kinase
-5.442	3material
-6.04406	3methylhistidine
-5.442	3mm
-6.04406	3mm2
-5.74303	3mmthick
-6.04406	3monophosphate
-5.566938	3month
-6.04406	3moold
-6.04406	3nalkyl
-6.04406	3position
-5.34509	3rd
-5.74303	3segment
-6.04406	3untranslated
-6.04406	3week
-6.04406	3x
-5.74303	3year
-6.04406	3 
-6.04406	3 gLday
-5.74303	3°
-6.04406	3±
-6.04406	3±1
-6.04406	3±140
-6.04406	3±68
-6.04406	3·7
-6.04406	3º
-6.04406	3×1010
-6.04406	3×1011
-6.04406	3×104
-6.04406	3×105
-6.04406	3β
-6.04406	3 nm
-6.04406	3∼0
-3.159831	4
-3.781609	40
-4.53891	400
-6.04406	40000
-6.04406	4001000
-6.04406	400D
-6.04406	400microm
-6.04406	400mlmin
-6.04406	400nm
-6.04406	400tuple
-5.74303	401
-5.74303	4012
-6.04406	402409
-6.04406	4025
-6.04406	403
-6.04406	4030CB
-6.04406	4031
-5.74303	4041
-6.04406	4044
-6.04406	4048
-5.566938	405
-6.04406	4050
-6.04406	405575
-6.04406	405nm
-6.04406	4060
-6.04406	40673
-6.04406	407
-6.04406	4070
-5.74303	408
-5.74303	409
-6.04406	409Tbs
-5.74303	40Gbps
-6.04406	40h
-6.04406	40kPa
-6.04406	40month
-6.04406	40 492
-5.74303	40°
-4.186727	41
-5.198962	410
-6.04406	41000
-6.04406	410262
-6.04406	410470
-5.442	411
-6.04406	41115
-5.442	412
-5.002667	412272
-5.74303	412272induced
-6.04406	412272mediated
-6.04406	412272stimulated
-6.04406	413
-6.04406	4138
-5.566938	414
-6.04406	41400
-6.04406	41428
-6.04406	4149
-6.04406	414ngmL1
-5.198962	415
-5.566938	416
-6.04406	4161
-6.04406	41628
-6.04406	417
-6.04406	4173
-6.04406	417420
-5.442	418
-6.04406	4184
-6.04406	4189
-5.74303	418MHz
-5.74303	419
-6.04406	4190
-6.04406	4198
-6.04406	41 mgL
-6.04406	41 years
-4.251668	42
-5.002667	420
-6.04406	4200
-5.74303	42000
-6.04406	42004
-6.04406	4204
-6.04406	420nm
-6.04406	421
-6.04406	4224
-5.74303	424
-6.04406	4245
-5.74303	425
-6.04406	4250
-6.04406	426
-6.04406	4261
-6.04406	4268
-6.04406	4270
-6.04406	42714720
-6.04406	427159
-6.04406	42779786
-6.04406	42787797
-6.04406	42807812
-5.74303	429
-6.04406	42s
-6.04406	42±0
-6.04406	42·9
-4.303697	43
-5.566938	430
-5.74303	432
-5.74303	433
-6.04406	4338
-6.04406	433fold
-5.74303	434
-5.74303	435
-6.04406	435 000
-6.04406	436
-6.04406	437
-6.04406	438
-6.04406	4380
-6.04406	439
-6.04406	4390
-6.04406	43976
-6.04406	43Fe
-6.04406	43Hquinozolone
-5.566938	43 
-6.04406	43°
-6.04406	43±0
-6.04406	43λ
-6.04406	43 min
-4.231146	44
-5.442	440
-6.04406	4409
-5.74303	441
-5.74303	442
-6.04406	4420
-5.34509	443
-6.04406	444
-6.04406	444567573
-6.04406	445
-6.04406	4459
-6.04406	446
-6.04406	4460
-6.04406	4463
-6.04406	4490
-6.04406	44 
-6.04406	44±14
-4.080272	45
-5.089817	450
-6.04406	450000
-6.04406	451
-6.04406	45114517
-6.04406	4521
-6.04406	4527
-6.04406	45372
-5.089817	454
-6.04406	45450 µm
-5.74303	454Roche
-5.442	455
-6.04406	455460
-5.566938	456
-6.04406	4565
-6.04406	45680
-6.04406	4572
-6.04406	4573
-6.04406	458
-5.74303	459
-6.04406	45bisphosphate
-6.04406	45cm
-6.04406	45d
-5.74303	45diCQA
-6.04406	45gene
-6.04406	45min
-5.74303	45°
-6.04406	45 µm
-4.319784	46
-5.74303	460
-6.04406	4601
-5.74303	460CT
-6.04406	462
-6.04406	46322
-6.04406	4632694
-6.04406	4639221bp
-5.74303	465
-5.74303	466
-5.74303	467
-5.74303	4675
-6.04406	4679
-6.04406	4681
-5.74303	469
-6.04406	4695
-6.04406	46diamidino2phenylindole DAPI
-6.04406	46ms
-4.23788	47
-5.265909	470
-6.04406	472
-6.04406	474758
-5.34509	475
-6.04406	4759
-5.442	476
-6.04406	477
-5.74303	478
-6.04406	4788
-6.04406	47×
-4.192801	48
-5.002667	480
-6.04406	480nm
-6.04406	480x512x128
-5.74303	481
-6.04406	4814
-6.04406	48168
-6.04406	48185mgg1
-6.04406	4819
-6.04406	482
-5.74303	483
-6.04406	484
-6.04406	4841
-5.442	485
-5.74303	486
-6.04406	4867
-5.442	488
-5.442	4880
-6.04406	4883
-6.04406	4896
-6.04406	489qesp
-6.04406	48G7
-5.566938	48h
-6.04406	48mer
-6.04406	48micromwide
-6.04406	48 h
-6.04406	48 years
-6.04406	48±1
-4.319784	49
-5.566938	490
-6.04406	491
-5.74303	492
-6.04406	493
-6.04406	495
-6.04406	496509
-6.04406	497
-6.04406	49704976
-6.04406	4980
-6.04406	499
-6.04406	4998
-6.04406	49±5
-5.74303	4AFC
-6.04406	4CH
-6.04406	4CP
-5.089817	4D
-6.04406	4D10L
-5.198962	4DCT
-5.265909	4DM
-5.265909	4DMSPECT
-6.04406	4DMsoftware
-6.04406	4DPPH·CS₂
-6.04406	4Dfingerprint
-5.566938	4Dfingerprints
-6.04406	4Gbs
-5.74303	4H4
-6.04406	4KHz
-5.74303	4N
-6.04406	4OβDglucopyranosylDglucose
-5.74303	4PSK
-6.04406	4a
-6.04406	4aminoH4B
-5.74303	4aryl4Hchromenes
-6.04406	4b
-5.74303	4channel
-6.04406	4chloro
-6.04406	4chlorocatechol
-6.04406	4chlorophenol
-6.04406	4chlorophenols
-6.04406	4excellent
-6.04406	4field
-6.04406	4fields
-5.74303	4fold
-6.04406	4h
-6.04406	4hour
-5.74303	4mm
-6.04406	4mmHg
-6.04406	4monthly
-6.04406	4nitrophenol
-6.04406	4phase
-5.74303	4pixel
-6.04406	4point
-6.04406	4qN
-6.04406	4s
-6.04406	4score
-6.04406	4second
-5.442	4step
-5.74303	4s⁻¹
-6.04406	4thorder
-5.74303	4variable
-5.74303	4week
-6.04406	4x
-6.04406	4x4
-5.34509	4year
-6.04406	4 
-6.04406	4 mEqL
-6.04406	4°
-6.04406	4±0
-6.04406	4±2
-6.04406	4±3
-6.04406	4 Gy
-6.04406	4 ± 10
-3.027444	5
-3.639226	50
-4.663848	500
-4.930116	5000
-5.442	50000
-6.04406	500000
-6.04406	5000100000
-6.04406	500840
-6.04406	500micron
-6.04406	500ml
-6.04406	500nm
-6.04406	500pixel
-5.566938	500 ml
-6.04406	500 k
-6.04406	50100
-6.04406	50110
-5.74303	50150
-5.74303	504
-6.04406	50450
-6.04406	504RW
-6.04406	504W
-6.04406	505
-5.74303	5050
-6.04406	50500
-6.04406	5060
-6.04406	50630
-6.04406	5065
-6.04406	507
-6.04406	5070
-6.04406	5075
-6.04406	5080
-6.04406	5085
-6.04406	5087
-6.04406	5089
-6.04406	50S
-6.04406	50cm
-6.04406	50h
-6.04406	50ha
-6.04406	50micron
-6.04406	50s
-5.566938	50th
-6.04406	50x50
-6.04406	50°
-6.04406	50±14 mgdl
-6.04406	50 
-6.04406	50 GB
-6.04406	50″
-4.303697	51
-5.198962	510
-6.04406	5100
-6.04406	51000
-6.04406	51005
-6.04406	5100Hz
-5.04406	512
-6.04406	513
-6.04406	514
-5.442	515
-5.74303	516
-6.04406	5163
-5.74303	517
-5.74303	518
-6.04406	51 
-6.04406	51 ± 0
-4.273208	52
-5.34509	520
-6.04406	5200
-5.74303	521
-6.04406	5211
-5.74303	522
-6.04406	523
-6.04406	5239
-5.34509	525
-5.442	527
-5.74303	529
-6.04406	52951
-6.04406	52month
-6.04406	52week
-4.33649	53
-5.265909	530
-6.04406	5300
-6.04406	531
-6.04406	53130
-6.04406	531537
-6.04406	531541
-5.442	532
-6.04406	532263245
-5.74303	534
-5.74303	535
-6.04406	5358
-6.04406	5367
-6.04406	537
-6.04406	53±17
-4.231146	54
-5.442	540
-6.04406	541
-6.04406	543
-6.04406	545
-6.04406	5459
-6.04406	54637
-6.04406	5469
-6.04406	547
-6.04406	5472
-6.04406	5474
-6.04406	548
-5.74303	549
-6.04406	54 μg
-4.205211	55
-5.198962	550
-6.04406	5500
-6.04406	55000
-6.04406	550000
-6.04406	550kb
-6.04406	550 kHz
-6.04406	551
-6.04406	5515
-6.04406	552
-6.04406	553
-6.04406	553566
-6.04406	554
-6.04406	5571579
-6.04406	558
-6.04406	55th
-4.319784	56
-5.74303	560
-6.04406	5600
-6.04406	5604
-6.04406	561
-6.04406	561570
-6.04406	562
-6.04406	563578
-5.74303	564
-6.04406	5656
-5.34509	566
-5.74303	567
-5.74303	568
-6.04406	56919
-6.04406	56940943
-6.04406	56Mn
-6.04406	56sec
-4.25873	57
-5.566938	570
-6.04406	5700K
-6.04406	573
-5.74303	574
-6.04406	575
-6.04406	5750250
-6.04406	5759
-5.74303	576
-6.04406	57600
-6.04406	5767
-6.04406	5768
-6.04406	57951
-6.04406	57±19 mgdl
-6.04406	57 min
-4.231146	58
-5.566938	580
-6.04406	581
-6.04406	5814
-6.04406	583
-6.04406	584
-6.04406	585
-6.04406	586
-5.74303	587
-6.04406	588
-6.04406	58925
-4.381302	59
-5.442	590
-6.04406	59000
-6.04406	5901370
-6.04406	5918
-6.04406	593
-5.566938	595
-6.04406	596
-6.04406	597
-6.04406	598
-5.74303	599
-6.04406	5996
-6.04406	59±11
-6.04406	5ARI
-6.04406	5ARIs
-6.04406	5CQA
-6.04406	5D
-5.04406	5FU
-5.566938	5FUFA
-5.566938	5FUIFNα
-6.04406	5GCAGGTTTAAACCTCG3
-6.04406	5HT
-5.566938	5HT2A
-5.74303	5HT3
-5.442	5HT6
-6.04406	5Hz
-6.04406	5L
-5.74303	5MHz
-6.04406	5O
-6.04406	5O2thiodiphosphate
-6.04406	5O3thiodiphosphate
-4.964879	5T
-5.74303	5UTR
-6.04406	5UTRs
-6.04406	5Y
-5.566938	5a
-6.04406	5acetonitrilemethanobidistilled
-6.04406	5adenylimidodiphosphate
-6.04406	5alphareductase
-6.04406	5b
-6.04406	5bisphosphate
-6.04406	5cm2
-6.04406	5dimensional
-6.04406	5emsp14min
-6.04406	5end
-5.566938	5fluorouracil
-6.04406	5fluorouracilbased
-5.265909	5fold
-5.74303	5hydroxytryptamine
-6.04406	5j
-6.04406	5kV
-6.04406	5mgg
-6.04406	5minute
-5.566938	5mm
-6.04406	5mm2
-6.04406	5mmlong
-6.04406	5mmthick
-6.04406	5nitro3carboxybenzisoxazole
-5.74303	5point
-6.04406	5position
-6.04406	5ring
-6.04406	5s
-6.04406	5segment
-6.04406	5strand
-6.04406	5tesla
-5.442	5th
-6.04406	5tier
-5.74303	5untranslated
-6.04406	5variable
-5.74303	5voxel
-6.04406	5x1
-6.04406	5x103
-5.74303	5x5
-4.663848	5year
-6.04406	5 
-6.04406	5 T
-6.04406	5 bpp
-6.04406	5 g
-5.265909	5 mEqL
-6.04406	5 mms
-5.34509	5°
-5.74303	5°C
-6.04406	5±0
-5.74303	5αreductase
-6.04406	5μLkg
-6.04406	5 μm
-6.04406	5 µm
-6.04406	5 MHz
-6.04406	5 min
-6.04406	5 × 10⁶kg
-6.04406	5 μg
-3.231815	6
-3.831872	60
-4.964879	600
-5.265909	6000
-5.566938	60000
-6.04406	600000
-6.04406	6000000
-6.04406	6000mgL
-6.04406	6001250
-6.04406	600690
-6.04406	600CD
-6.04406	600 
-6.04406	60100
-6.04406	6017node
-6.04406	603
-6.04406	60300
-6.04406	604
-6.04406	605
-6.04406	606
-6.04406	6066
-6.04406	60695
-6.04406	6070
-6.04406	6080
-6.04406	609
-5.74303	60Co
-6.04406	60Hz
-6.04406	60dB
-6.04406	60item
-6.04406	60mer
-5.265909	60min
-6.04406	60mm
-6.04406	60qN
-6.04406	60seconddelayed
-6.04406	60°
-5.74303	60°C
-4.390847	61
-6.04406	610min
-6.04406	611
-6.04406	61116
-5.74303	612
-6.04406	61413
-6.04406	615
-5.74303	617
-6.04406	617038
-5.34509	618
-5.566938	619
-6.04406	6193
-4.288185	62
-5.566938	620
-6.04406	621
-6.04406	62119
-6.04406	62175
-5.566938	622
-6.04406	62219
-6.04406	623
-5.34509	625
-6.04406	6251mm
-5.566938	626
-6.04406	627
-5.566938	628
-6.04406	6286
-6.04406	6297
-6.04406	62yearold
-4.33649	63
-6.04406	63000N
-6.04406	6314
-6.04406	632
-6.04406	633
-6.04406	635
-5.74303	636
-6.04406	637nm
-6.04406	63858
-6.04406	6387
-6.04406	639
-6.04406	6397
-6.04406	63 gL
-4.217985	64
-5.198962	640
-6.04406	641
-5.74303	644
-5.442	645
-6.04406	6465
-6.04406	6467
-6.04406	6469
-6.04406	647
-5.74303	648
-6.04406	64Cu
-6.04406	64Fe
-6.04406	64QAM
-6.04406	64bitsHz
-5.566938	64direction
-6.04406	64point
-5.74303	64row
-5.442	64slice
-6.04406	64±12
-6.04406	64±7
-4.151965	65
-5.265909	650
-5.74303	6500
-6.04406	6500K
-6.04406	6501400
-6.04406	6515
-6.04406	65153
-6.04406	652
-6.04406	655
-6.04406	6551
-6.04406	65536
-6.04406	65579
-6.04406	656
-5.74303	657
-6.04406	6579
-6.04406	65792002
-6.04406	65°
-6.04406	65±0
-6.04406	65±11 years
-6.04406	65 kg
-4.25873	66
-5.442	660
-6.04406	662
-6.04406	6675
-6.04406	669
-6.04406	6698
-6.04406	66year
-6.04406	66±0
-6.04406	66 ± 12
-4.265909	67
-6.04406	670
-5.74303	671
-6.04406	6711
-6.04406	675
-6.04406	6750
-6.04406	676
-6.04406	678
-6.04406	679
-6.04406	67dimethoxy4ethylbetacarboline3carboxylate
-4.303697	68
-5.442	680
-6.04406	68000
-6.04406	6802
-6.04406	6803
-5.442	683
-6.04406	68560
-6.04406	687
-6.04406	688
-6.04406	689
-6.04406	68Ge
-5.74303	68yearold
-6.04406	68±0
-4.328056	69
-5.442	690
-6.04406	69115
-6.04406	6913
-6.04406	692
-5.74303	695
-6.04406	697
-6.04406	6979
-6.04406	699
-6.04406	69 
-5.442	6DOF
-6.04406	6F18fluoroLDOPA
-6.04406	6M
-6.04406	6MV
-6.04406	6MVphoton
-5.442	6MW
-6.04406	6R
-6.04406	6R16
-5.74303	6W
-5.566938	6fold
-6.04406	6h
-6.04406	6hydroxydopamine
-6.04406	6l
-5.442	6mercaptopurine
-5.74303	6mgkg¹
-5.566938	6mm
-5.34509	6month
-6.04406	6parameter
-6.04406	6point
-6.04406	6qN
-5.74303	6s
-5.74303	6week
-6.04406	6wk
-6.04406	6x109
-5.74303	6year
-5.442	6°
-6.04406	6×6
-6.04406	6 LPmm
-5.74303	6 min
-6.04406	6 ± 1
-3.344222	7
-3.964879	70
-5.198962	700
-6.04406	7000
-6.04406	70000
-6.04406	701
-6.04406	70160 Hz
-6.04406	702
-6.04406	703
-6.04406	704
-6.04406	705
-6.04406	7075
-6.04406	7079
-6.04406	708
-6.04406	7080
-6.04406	7085
-5.74303	709
-6.04406	70S
-6.04406	70fold
-6.04406	70kg
-6.04406	70residue
-5.74303	70°
-6.04406	70 mgdL
-4.186727	71
-5.198962	710
-6.04406	7100
-6.04406	71030
-6.04406	7104
-5.74303	711
-6.04406	7119
-6.04406	711S4
-5.442	712
-6.04406	7124
-6.04406	713
-6.04406	713115121
-6.04406	713y
-6.04406	7147
-5.74303	715
-6.04406	71500
-6.04406	716
-5.74303	717
-6.04406	718
-6.04406	71957199
-6.04406	7196
-6.04406	7198
-6.04406	71±0
-6.04406	71 ± 8 years
-4.23788	72
-5.566938	720
-6.04406	7200
-6.04406	721000
-5.566938	722
-6.04406	724
-5.74303	725
-5.74303	727
-6.04406	7275
-6.04406	7278
-5.74303	728
-6.04406	728λ
-6.04406	729
-6.04406	72hour
-4.34509	73
-5.74303	730
-6.04406	731
-6.04406	7313
-6.04406	732
-5.74303	733
-5.566938	734
-6.04406	73411
-6.04406	73517844
-6.04406	73663
-6.04406	738
-6.04406	7384
-5.74303	739
-6.04406	73±2
-4.288185	74
-6.04406	740
-6.04406	7400
-5.566938	741
-6.04406	74160
-5.74303	744
-6.04406	7448
-6.04406	745
-5.74303	746
-6.04406	7475
-6.04406	748
-6.04406	74830
-6.04406	749
-6.04406	74sensitivity
-6.04406	74±0
-4.04406	75
-5.14097	750
-6.04406	7500
-6.04406	75000
-6.04406	7507
-6.04406	750microndiameter
-6.04406	750°C
-6.04406	75100
-6.04406	75101
-6.04406	75110
-6.04406	7513
-6.04406	75150
-6.04406	75200
-6.04406	75217866
-6.04406	753
-6.04406	7530
-6.04406	75375
-6.04406	754
-6.04406	754763
-6.04406	7570
-5.74303	758
-6.04406	7580
-6.04406	75cm
-6.04406	75element
-6.04406	75th
-6.04406	75 bpp
-6.04406	75 ± 8
-4.244719	76
-5.34509	760
-6.04406	7617
-5.566938	762
-6.04406	7645
-6.04406	765
-6.04406	767
-6.04406	768
-6.04406	7682
-6.04406	7686
-6.04406	76residue
-6.04406	76±0
-4.244719	77
-6.04406	770
-6.04406	77017844
-6.04406	770mAseff
-6.04406	77130
-6.04406	772
-6.04406	7730
-6.04406	7739
-6.04406	774
-6.04406	77517
-6.04406	77602
-6.04406	7780
-6.04406	7788
-6.04406	77±0
-6.04406	77·3
-4.311666	78
-5.14097	780
-6.04406	780mgg1
-5.566938	781
-6.04406	781±0
-6.04406	782
-6.04406	78203
-6.04406	783
-5.74303	784
-6.04406	785
-6.04406	786
-6.04406	787
-6.04406	7899
-6.04406	78±0
-4.224516	79
-6.04406	79016
-5.74303	791
-6.04406	79100
-6.04406	79107914
-6.04406	79217866
-6.04406	79275
-5.566938	795
-5.74303	796
-6.04406	797
-6.04406	79±0
-6.04406	7M
-6.04406	7MHz
-5.442	7T
-6.04406	7Y
-5.74303	7a
-5.265909	7day
-6.04406	7field
-5.74303	7fold
-6.04406	7helix
-6.04406	7mm2
-5.74303	7oxo
-6.04406	7p22
-6.04406	7point
-6.04406	7s⁻¹
-5.566938	7year
-6.04406	7 
-6.04406	7 gL
-6.04406	7°
-6.04406	7°C
-5.74303	7±0
-6.04406	7×
-6.04406	7 cm
-6.04406	7 ± 7
-6.04406	7 × 10⁴
-6.04406	7⋅107
-3.312471	8
-3.891771	80
-5.14097	800
-5.566938	8000
-6.04406	80000
-6.04406	800bp
-5.089817	801
-6.04406	80118
-5.442	80140
-6.04406	8014201438
-6.04406	802
-5.566938	8020
-6.04406	803
-6.04406	8031
-6.04406	80420
-6.04406	8048
-6.04406	805
-5.74303	807
-6.04406	808
-5.74303	809
-5.566938	8090
-6.04406	80h
-5.74303	80kV
-6.04406	80mm
-6.04406	80residue
-6.04406	80yearold
-6.04406	80yearolds
-6.04406	80 
-6.04406	80°
-6.04406	80 
-4.211551	81
-5.265909	810
-5.74303	81000
-6.04406	810yearold
-5.34509	811
-6.04406	811281
-5.442	812
-6.04406	813
-6.04406	813mgg1
-6.04406	814
-5.566938	816
-6.04406	8184
-4.362819	82
-5.566938	820
-5.74303	821
-5.74303	822
-6.04406	8228
-6.04406	825
-5.34509	827
-5.566938	828
-5.74303	8284
-6.04406	82year
-6.04406	82·6
-4.205211	83
-5.566938	830
-6.04406	8302
-6.04406	830 nm
-6.04406	831
-5.74303	8318
-6.04406	83324
-5.74303	836
-6.04406	83617844
-6.04406	837
-5.74303	838
-5.442	839
-6.04406	83±12
-6.04406	83±2
-6.04406	83±6
-4.205211	84
-5.442	840
-6.04406	8400
-6.04406	84000
-6.04406	8408
-6.04406	84119
-6.04406	842
-5.74303	845
-5.74303	846
-6.04406	84±1
-4.099577	85
-5.566938	850
-6.04406	8500
-6.04406	8523
-6.04406	8528
-6.04406	854
-6.04406	8543
-6.04406	8551
-6.04406	856
-6.04406	857
-5.74303	858
-5.74303	859
-6.04406	8593
-6.04406	85Fe
-6.04406	85h
-6.04406	85±0
-5.74303	85±9
-4.311666	86
-5.74303	860
-6.04406	86017866
-5.74303	861
-6.04406	86113
-6.04406	863
-6.04406	8630
-5.74303	864
-5.74303	866
-6.04406	867
-5.74303	868
-5.74303	8687
-6.04406	869
-6.04406	8691
-6.04406	86 75 
-4.244719	87
-5.566938	870
-6.04406	8702200
-5.74303	872
-6.04406	872mgg1
-5.74303	873
-6.04406	874
-6.04406	875
-6.04406	876
-6.04406	877
-6.04406	8778
-5.74303	878
-6.04406	879
-6.04406	87 
-6.04406	87±0
-4.14097	88
-5.74303	880
-6.04406	88048
-6.04406	882
-6.04406	88248083
-6.04406	884
-5.74303	885
-6.04406	888
-5.74303	889
-6.04406	88 gcm³
-4.23788	89
-5.442	890
-6.04406	89151971
-6.04406	892
-6.04406	893
-6.04406	8936
-6.04406	894
-6.04406	8950
-6.04406	896
-6.04406	897
-5.74303	899
-5.74303	89Sr
-5.74303	8QAM
-6.04406	8W
-6.04406	8anilino1naphthalenesulfonate
-6.04406	8ary
-6.04406	8bit
-6.04406	8cell
-6.04406	8channel
-6.04406	8channels
-6.04406	8cyclopentyl13dipropylxanthine
-6.04406	8fold
-6.04406	8gkg
-5.74303	8lyr
-6.04406	8mm
-6.04406	8mm2
-6.04406	8ms
-5.74303	8stranded
-6.04406	8wavelength
-5.566938	8week
-5.74303	8x106
-6.04406	8y±7
-6.04406	8 
-6.04406	8±4
-6.04406	8×105
-6.04406	8λ
-3.470028	9
-3.813611	90
-5.566938	900
-5.74303	9000
-6.04406	900000
-6.04406	90011994
-5.74303	90012000
-6.04406	9001500
-5.566938	901
-5.74303	90120
-6.04406	90197
-6.04406	902
-6.04406	9026
-6.04406	903
-5.74303	905
-6.04406	906
-6.04406	9060
-6.04406	9067
-5.74303	907
-6.04406	9070
-6.04406	909
-6.04406	9090
-6.04406	9097
-6.04406	90DOTATOC
-6.04406	90SrY
-5.74303	90Y
-5.74303	90d
-6.04406	90day
-6.04406	90ms
-6.04406	90nm
-6.04406	90residue
-5.442	90s
-5.442	90th
-5.566938	90°
-4.205211	91
-5.74303	910
-6.04406	911
-6.04406	91102
-5.442	912
-5.74303	913
-6.04406	9130
-6.04406	9133
-6.04406	914
-6.04406	9144
-6.04406	915
-6.04406	9155
-5.74303	915E
-5.566938	916
-6.04406	9161120
-6.04406	916E
-6.04406	916ENeodol
-5.566938	917
-6.04406	918E
-6.04406	918ENeodol
-5.74303	919
-6.04406	9197
-6.04406	91st
-6.04406	91 71 
-6.04406	91 mgL
-4.168998	92
-5.566938	920
-6.04406	92000
-5.74303	921
-6.04406	9222
-6.04406	923
-6.04406	924
-6.04406	925
-6.04406	9251480
-6.04406	926
-6.04406	928
-6.04406	9285
-6.04406	929
-5.442	92gene
-6.04406	92°
-4.09467	93
-6.04406	930
-6.04406	9300
-6.04406	931
-6.04406	93110
-5.566938	932
-6.04406	933
-6.04406	9331
-6.04406	936
-6.04406	9362
-6.04406	93633422
-6.04406	938
-5.34509	939
-4.124981	94
-5.74303	940
-5.566938	941
-6.04406	94134144
-5.74303	942
-6.04406	9421
-6.04406	9424
-5.74303	943
-6.04406	9430
-6.04406	944
-6.04406	9445
-5.566938	945
-6.04406	9451
-5.566938	946
-6.04406	9476
-6.04406	948
-6.04406	9484
-6.04406	9495
-6.04406	94 
-3.564053	95
-5.265909	950
-6.04406	95000
-5.74303	951
-6.04406	9529
-6.04406	953
-6.04406	9536
-6.04406	953B
-6.04406	9545
-6.04406	9569
-5.566938	957
-6.04406	959
-6.04406	9596
-6.04406	9598
-5.089817	95CI
-5.74303	95th
-4.135575	96
-5.74303	960
-6.04406	961
-5.566938	962
-5.442	964
-6.04406	9642
-6.04406	9668
-5.74303	967
-6.04406	968
-6.04406	969
-6.04406	9697
-6.04406	96well
-6.04406	96 
-4.114641	97
-6.04406	97175889
-5.74303	9726
-5.74303	973
-6.04406	9735
-6.04406	9759
-6.04406	976
-6.04406	97640
-6.04406	9765
-6.04406	976983
-6.04406	9775
-6.04406	977557
-6.04406	9790
-6.04406	9792
-6.04406	97x
-6.04406	97°
-4.085018	98
-6.04406	980
-5.74303	981
-6.04406	98100
-6.04406	9823
-5.566938	983
-6.04406	984
-6.04406	985
-5.74303	986
-6.04406	987
-6.04406	988
-6.04406	98 
-3.979602	99
-6.04406	990
-6.04406	9900
-6.04406	990HU
-5.74303	991
-6.04406	99100
-5.74303	995
-5.74303	996
-5.74303	997
-6.04406	997±0
-5.34509	998
-6.04406	99840
-5.265909	999
-6.04406	9997
-6.04406	9998
-6.04406	9999
-6.04406	99Tc
-6.04406	99Tcm
-5.34509	99mTc
-6.04406	99mTcECD123IFPCIT
-5.34509	99mTcHEPIDA
-6.04406	99mTcMAG3
-6.04406	99mTcMIBI
-6.04406	99mTcO4ink
-6.04406	99mTcmethoxyisobutylisonitrile
-5.442	99mTcsestamibi
-6.04406	99mTcteboroxime
-6.04406	9Hole
-6.04406	9emsp14months
-6.04406	9fold
-6.04406	9min
-6.04406	9mm
-6.04406	9mmHg
-6.04406	9q12
-6.04406	9qN
-6.04406	9th
-6.04406	9year
-6.04406	9y±7
-5.74303	9 mEqL
-5.74303	9 mms
-6.04406	9±1
-6.04406	9±3
-6.04406	9 ± 0
-6.04406	9 ± 3
-6.04406	9 × 10⁵
-6.04406	9  63
-1.041393	</s>
-99	<s>
-5.440116	<unk>
-2.730403	A
-5.442	A1
-5.74303	A1AR
-6.04406	A1ARs
-5.566938	A1c
-6.04406	A1c7
-6.04406	A1t
-5.74303	A2
-6.04406	A2058
-6.04406	A2059
-5.74303	A22
-6.04406	A22A˜221
-6.04406	A23
-5.74303	A2451
-5.74303	A2602
-6.04406	A2A
-5.74303	A2AAR
-6.04406	A2B
-6.04406	A2BARs
-6.04406	A2C
-6.04406	A2Cderived
-5.74303	A2t
-5.74303	A2Σν
-5.74303	A3
-5.34509	A3AR
-6.04406	A3Alike
-6.04406	A3B2
-6.04406	A3B2C2
-6.04406	A3like
-6.04406	A4
-5.74303	A4C
-6.04406	A51
-5.34509	A549
-6.04406	A6
-6.04406	A98S
-5.74303	A9H2
-5.34509	AA
-6.04406	AA6061T6
-5.002667	AAA
-6.04406	AAATTT
-5.442	AAC
-5.442	AACMM
-6.04406	AACMMs
-5.566938	AACPI
-6.04406	AAD
-5.442	AAG
-5.74303	AAIR
-5.566938	AAIRbased
-6.04406	AAM
-6.04406	AAMI
-5.566938	AAPM
-5.74303	AAPSP
-5.74303	AAR
-5.74303	AAS
-5.74303	AAT
-5.442	AATMM
-5.566938	AAU
-5.14097	AB
-5.74303	AB1700
-5.566938	ABC
-5.14097	ABCA
-6.04406	ABCA1
-6.04406	ABCA1mediated
-5.265909	ABCB1
-6.04406	ABCB1relevant
-5.442	ABCD
-6.04406	ABCDmatrices
-5.442	ABCG
-6.04406	ABCG1
-6.04406	ABCG2
-6.04406	ABI
-5.566938	ABL
-6.04406	ABL1
-6.04406	ABOincompatible
-5.198962	ABP
-5.74303	ABPM
-6.04406	ABR
-5.002667	ABSTRACT
-6.04406	ABScan
-5.442	ABW
-6.04406	ABlike
-6.04406	AB→C
-4.612696	AC
-6.04406	ACA
-5.74303	ACC
-5.265909	ACCPR
-4.867969	ACD
-6.04406	ACDprediction
-4.83994	ACE
-5.74303	ACEKF
-5.198962	ACF
-5.442	ACG
-5.74303	ACGME
-5.74303	ACL
-5.442	ACLS
-5.74303	ACLinjured
-6.04406	ACO
-6.04406	ACR
-5.265909	ACRI
-4.964879	ACS
-5.566938	ACSEA
-6.04406	ACSNT
-6.04406	ACT2
-6.04406	ACTH
-5.442	ACTIVITY
-6.04406	ACTivity
-6.04406	ACeDB
-4.897932	ACs
-4.390847	AD
-6.04406	ADA
-5.74303	ADAC
-5.442	ADAM
-5.34509	ADAMTS13
-6.04406	ADAR1
-6.04406	ADAS
-6.04406	ADAs
-4.442	ADC
-5.74303	ADCd
-5.14097	ADCs
-6.04406	ADDS
-5.14097	ADG
-5.74303	ADH
-6.04406	ADH1B
-5.74303	ADHD
-5.34509	ADI
-6.04406	ADIR
-6.04406	ADIs
-5.34509	ADM
-5.442	ADME
-6.04406	ADMETox
-5.34509	ADNI
-5.442	ADP
-6.04406	ADPATP
-5.265909	ADPP
-6.04406	ADPS
-5.14097	ADPbetaS
-5.74303	ADPbetaSinduced
-5.566938	ADR
-5.566938	ADRC
-4.930116	ADRs
-6.04406	ADW
-4.581662	AE
-5.442	AEA
-5.442	AEC
-5.34509	AECG
-6.04406	AED
-5.74303	AEDA
-5.14097	AEDs
-6.04406	AEDshave
-5.34509	AEE
-5.74303	AEGA
-5.14097	AEND
-6.04406	AEderived
-4.897932	AEs
-4.205211	AF
-5.566938	AF1
-5.74303	AF2
-5.74303	AF3
-5.74303	AF4
-4.964879	AFB
-5.442	AFE
-5.566938	AFLP
-5.34509	AFM
-5.74303	AFROC
-5.566938	AFTCS
-5.198962	AFTNs
-6.04406	AFUD
-5.442	AFW
-5.442	AFormula
-5.442	AG
-5.74303	AGA
-5.442	AGB
-6.04406	AGDOCK
-6.04406	AGO1
-5.442	AGP
-6.04406	AGPbinding
-6.04406	AGPs
-4.74303	AH
-6.04406	AH5N1
-5.74303	AHCPR
-5.74303	AHH2O
-5.002667	AHI
-6.04406	AHI1
-5.442	AHP
-5.566938	AHR
-6.04406	AHRs
-5.74303	AHSC
-6.04406	AH···H2O
-5.089817	AI
-5.74303	AIC
-4.897932	AIDS
-5.566938	AIDSdefining
-5.04406	AIF
-5.566938	AIFind
-5.566938	AIFpop
-5.566938	AIFs
-5.74303	AIM
-6.04406	AIMS
-5.089817	AIMs
-6.04406	AIN76A
-5.74303	AIN93G
-5.002667	AIP
-5.265909	AIS
-6.04406	AIS3
-5.74303	AIx
-6.04406	AJ
-5.198962	AK
-6.04406	AKIHDHI
-5.442	AKS
-5.14097	AKT
-6.04406	AKT1
-5.442	AL
-6.04406	ALC
-6.04406	ALCOVE
-5.74303	ALD
-6.04406	ALE
-6.04406	ALIAS
-5.442	ALIS
-5.265909	ALK
-5.566938	ALL
-6.04406	ALOC
-6.04406	ALOHA
-4.788787	ALS
-5.34509	ALT
-6.04406	ALignment
-5.74303	ALs
-5.089817	AM
-6.04406	AMAS
-5.34509	AMBER
-6.04406	AMBER94
-6.04406	AMCAC
-5.74303	AMCS
-5.442	AMD
-6.04406	AMDIS
-6.04406	AMFM
-4.512581	AMI
-5.34509	AML
-6.04406	AMLALL
-5.566938	AMOVA
-6.04406	AMOVAbased
-5.74303	AMPA
-6.04406	AMPPCP
-5.198962	AMS
-5.14097	AMT
-5.442	AN
-5.74303	ANA
-6.04406	ANAES
-6.04406	ANB
-5.34509	ANC
-5.74303	ANCOVA
-6.04406	ANConly
-6.04406	ANCs
-5.198962	AND
-5.74303	ANDOR
-5.34509	ANG
-4.83994	ANH
-5.442	ANH50
-4.328056	ANN
-5.34509	ANNGA
-5.74303	ANNbased
-5.265909	ANNs
-5.002667	ANOVA
-6.04406	ANRS
-5.566938	ANRSIAS
-6.04406	ANS
-5.74303	ANSI
-6.04406	ANSapomyoglobin
-5.74303	ANXA5
-6.04406	ANalysis
-6.04406	ANalyzer
-5.14097	AO
-6.04406	AOA
-6.04406	AOAaided
-5.566938	AOFAS
-5.566938	AOFC
-5.34509	AOH
-5.74303	AOPs
-5.74303	AOUHRFDOCT
-6.04406	AOflood
-6.04406	AOsystem
-4.663848	AP
-5.34509	AP1
-5.442	AP2
-6.04406	AP5
-5.198962	APACHE
-6.04406	APACHEII
-4.964879	APC
-5.34509	APCs
-5.74303	APD
-5.198962	APE
-6.04406	APER
-5.442	APEX
-5.74303	API
-5.442	APL
-5.566938	APNP
-5.34509	APOCHIP
-6.04406	APOE
-6.04406	APPA
-6.04406	APPARPO
-6.04406	APPPS1
-5.442	APS
-6.04406	APSA
-5.74303	APSF
-5.566938	APT
-6.04406	APXhard
-4.788787	APs
-6.04406	AP∕CC
-5.566938	AQ
-6.04406	AQbased
-4.813611	AR
-5.74303	AR2
-5.566938	AR27
-6.04406	ARAC
-6.04406	ARACNE
-5.442	ARB
-6.04406	ARCSolver
-5.74303	ARE
-5.74303	AREX
-5.089817	ARF
-6.04406	ARG
-6.04406	ARGONAUTE1
-6.04406	ARIA
-5.265909	ARIAE
-5.74303	ARL
-5.566938	ARMA
-5.442	AROC
-5.566938	ARP
-4.964879	ART
-5.442	ARTIVA
-5.442	ARTMAP
-5.566938	ARTS
-5.74303	ARTSY
-5.566938	ARTconceived
-6.04406	ARTexperienced
-5.002667	ARV
-6.04406	ARVnaive
-5.74303	ARVs
-4.964879	AS
-5.74303	ASA
-5.74303	ASB
-6.04406	ASBloaded
-5.566938	ASC4
-5.74303	ASCS
-4.813611	ASD
-5.566938	ASE
-6.04406	ASHRAE
-5.74303	ASIF
-5.442	ASIR
-5.089817	ASL
-5.34509	ASLCBP
-6.04406	ASM1
-5.74303	ASO
-5.566938	ASPB
-6.04406	ASPM
-5.566938	ASR
-6.04406	ASReml
-6.04406	ASRs
-6.04406	ASS
-5.74303	ASSR
-6.04406	ASSs
-5.442	AST
-5.74303	AST05
-5.34509	ASTER
-6.04406	ASTM
-6.04406	ASinfected
-4.487757	AT
-6.04406	AT4140
-5.442	ATA
-5.34509	ATAF
-6.04406	ATAs
-6.04406	ATH
-6.04406	ATL
-5.442	ATO
-5.566938	ATOATRA
-4.596902	ATP
-6.04406	ATP6S1
-6.04406	ATP7B
-5.74303	ATPGTP
-5.74303	ATPbinding
-6.04406	ATPbound
-6.04406	ATPcompetitive
-6.04406	ATPdepletors
-6.04406	ATPgammaS
-6.04406	ATPγS
-5.74303	ATR
-5.74303	ATRA
-5.74303	ATRIUM
-5.198962	ATRs
-6.04406	ATRs1236
-6.04406	ATRs4082
-6.04406	ATRs4327
-6.04406	ATRs5575
-6.04406	ATRs733
-6.04406	ATTRACT
-6.04406	ATb
-5.566938	ATrich
-5.14097	ATs
-6.04406	ATsensing
-5.34509	AT₋a
-5.566938	AT₋b
-4.390847	AUC
-5.566938	AUC0
-6.04406	AUC02h
-5.14097	AUCs
-5.74303	AUC∞
-5.566938	AUDIT
-5.566938	AUETC
-6.04406	AURG
-5.442	AUROC
-4.487757	AV
-5.198962	AVA
-6.04406	AVAILABILITY
-5.74303	AVAs
-5.442	AVC
-5.14097	AVG
-5.14097	AVGs
-5.566938	AVM
-5.566938	AVMs
-6.04406	AVR
-5.089817	AVSH
-5.566938	AVT
-6.04406	AVTstimulated
-6.04406	AVblock
-5.74303	AVdelay
-6.04406	AWBM
-5.74303	AWD
-5.74303	AWE
-5.442	AWG
-5.74303	AWI
-6.04406	AWM
-5.265909	AWOSEM
-5.566938	AWOSEMregion
-5.442	AYA
-6.04406	AYAs
-5.442	AZT
-5.34509	AaiC
-6.04406	Aalborg
-6.04406	AaltB
-5.74303	Aarhus
-6.04406	Ab
-6.04406	AbInitioRelax
-5.442	Abaqus
-6.04406	Abarbanel
-5.442	Abb
-6.04406	Abbes
-6.04406	Abbreviated
-5.14097	Abcg2
-5.198962	Abch1
-5.14097	Abdominal
-6.04406	Abdulkarim
-6.04406	Abelian
-5.566938	Ablation
-6.04406	Abnormal
-6.04406	Abnormally
-6.04406	Aborigines
-5.198962	About
-5.74303	Above
-6.04406	Aboveground
-6.04406	Abrupt
-5.566938	Absence
-6.04406	Absent
-5.265909	Absolute
-6.04406	Absorbed
-5.442	Absorption
-6.04406	Abstention
-5.265909	Abstract
-5.74303	Abstracts
-6.04406	Abstracttrasonic
-5.74303	Abuse
-6.04406	AcAlaP3P2Argcoumarin
-5.442	Acad
-5.74303	Academic
-5.74303	Academy
-6.04406	Acarbose
-5.74303	Accelerated
-5.74303	Acceleration
-6.04406	Accelerations
-6.04406	Accelerator
-5.566938	Acceptable
-6.04406	Acceptance
-5.265909	Access
-6.04406	Accesses
-6.04406	Accident
-4.400607	According
-4.788787	Accordingly
-6.04406	Accounting
-6.04406	Accreditation
-6.04406	Accumulating
-6.04406	Accumulation
-4.74303	Accuracy
-4.487757	Accurate
-5.566938	Accurately
-6.04406	Achieva
-5.442	Achieving
-5.566938	Achilles
-5.74303	Acid
-6.04406	Acidification
-6.04406	Acidithiobacillus
-5.74303	Acinetobacter
-6.04406	Ackermann
-6.04406	Acomplex
-6.04406	Aconstant
-5.74303	Acoust
-6.04406	Acoustic
-6.04406	AcquaAlta
-6.04406	Acquired
-6.04406	Acquisition
-5.74303	Across
-5.566938	Act
-5.74303	Acta
-5.566938	Actical
-6.04406	Actinobacteria
-6.04406	Action
-6.04406	Activated
-5.34509	Activation
-6.04406	Activations
-5.442	Active
-5.74303	Activities
-5.265909	Activity
-6.04406	Actomyosin
-5.198962	Actual
-5.74303	Actually
-6.04406	Acupuncture
-5.74303	Acurrent
-4.682332	Acute
-6.04406	Acyclic
-5.74303	Ad
-6.04406	AdHoc
-5.566938	AdaBoost
-6.04406	Adam
-5.74303	AdaptP
-5.566938	Adaptation
-6.04406	Adapted
-4.83994	Adaptive
-6.04406	Addiction
-5.34509	Adding
-5.14097	Addition
-4.612696	Additional
-4.224516	Additionally
-6.04406	Address
-6.04406	Addressing
-6.04406	Adenocarcinomas
-6.04406	Adenoma
-5.566938	Adequate
-6.04406	Adh
-5.74303	Adherence
-6.04406	Adiabatic
-5.198962	AdjIBW
-6.04406	AdjIBW  IBW  0
-5.74303	Adjusted
-6.04406	Adjustment
-5.14097	Adjuvant
-5.442	Administration
-6.04406	Administrationaccepted
-5.566938	Administrationapproved
-5.74303	Administrative
-6.04406	Admission
-5.566938	Adolescent
-6.04406	Adopting
-6.04406	Adoption
-6.04406	Adoptive
-6.04406	Adsorbent
-6.04406	Adsorbents
-5.265909	Adsorption
-5.198962	Adult
-5.566938	Adults
-5.002667	Advanced
-5.566938	Advancement
-5.566938	Advancements
-5.34509	Advances
-5.74303	Advantages
-5.265909	Adverse
-5.74303	Advisory
-6.04406	Aedes
-5.74303	AeroTech
-6.04406	Aerobiology
-6.04406	Aeromedical
-6.04406	Aeronautics
-5.566938	Aerosol
-6.04406	Affiliates
-6.04406	Affinity
-6.04406	Affix
-6.04406	Affmetrixy
-4.788787	Affymetrix
-5.566938	Afib
-4.897932	Africa
-5.089817	African
-6.04406	AfricanAmerican
-6.04406	Africans
-6.04406	Afrotropical
-3.943689	After
-5.74303	AfterHours
-6.04406	Aftertreatment
-6.04406	Afterward
-5.34509	Afterwards
-5.265909	Ag
-6.04406	AgAb
-5.74303	AgEIA
-5.442	AgEIAs
-6.04406	AgEIAspositive
-6.04406	AgSiAg
-6.04406	Again
-5.34509	Against
-5.089817	Age
-6.04406	AgeWa
-6.04406	Ageadjustment
-6.04406	Ageing
-5.442	Agency
-6.04406	Agencys
-6.04406	Agenesis
-5.566938	Agent
-6.04406	Agentbased
-6.04406	Agents
-5.74303	Agerelated
-5.442	AggR
-5.74303	Aggregata
-6.04406	Aggregates
-6.04406	Aggregatidae
-5.74303	Aggregation
-5.74303	Aggressive
-6.04406	Agile
-5.442	Aging
-6.04406	Agpresenting
-5.089817	Agreement
-6.04406	Agreements
-6.04406	Agrícola
-5.74303	Agspecific
-6.04406	Aguadé
-6.04406	AhR
-5.74303	Aided
-5.74303	Aim
-6.04406	Aiming
-6.04406	Ainfinity
-5.566938	Air
-6.04406	AirConditioning
-6.04406	AirMan
-5.566938	Airway
-6.04406	Airways
-6.04406	Akaike
-5.442	Akaikes
-6.04406	Akt
-6.04406	Akv
-6.04406	Al3
-6.04406	AlF
-5.442	AlF3
-6.04406	AlFAlunits
-6.04406	AlGorithm
-5.74303	Ala
-6.04406	Alagona
-5.74303	Alamar
-6.04406	Alarmingly
-6.04406	Alava
-6.04406	Albano
-6.04406	Albeit
-6.04406	Alberta
-6.04406	Albireo
-6.04406	Albumin
-6.04406	Alcohol
-5.74303	Alderson
-6.04406	Aldosterone
-5.74303	Aleph
-6.04406	Alere
-5.265909	Alert
-6.04406	Alertness
-6.04406	Alerttrade
-6.04406	Alexa
-6.04406	AlexaFluor
-6.04406	Algebra
-6.04406	Algebraic
-4.629086	Algorithm
-6.04406	Algorithmhas
-4.612696	Algorithms
-6.04406	Aliasing
-6.04406	AligNment
-5.74303	AlignRT
-5.74303	Aligned
-6.04406	Aligner
-5.002667	Alignment
-6.04406	Alignmentfree
-6.04406	Alignments
-6.04406	Aliivibrio
-6.04406	Alines
-6.04406	Alive
-3.751804	All
-6.04406	Allcause
-6.04406	Allee
-5.74303	Alleelike
-5.74303	Allele
-6.04406	Allens
-6.04406	Allinger
-6.04406	Allometric
-6.04406	Alloplant
-6.04406	Allowing
-6.04406	Allpole
-6.04406	Almeria
-5.566938	Almost
-6.04406	Almudevar
-6.04406	Alogliptin
-5.198962	Along
-5.566938	Alouatta
-5.442	Alpha
-6.04406	Alpine
-5.566938	Alpins
-5.74303	Alps
-4.400607	Also
-6.04406	Alteration
-6.04406	Alternate
-6.04406	Alternately
-6.04406	Alternating
-5.34509	Alternative
-5.34509	Alternatively
-5.74303	Alternatives
-3.649608	Although
-5.442	Altman
-5.566938	Alto
-5.566938	Altogether
-5.74303	Alu
-6.04406	Alumni
-5.566938	Alvarado
-6.04406	AlvarezMacovski
-6.04406	Alveolar
-5.34509	Alzheimer
-4.452995	Alzheimers
-5.089817	Am
-6.04406	Am241
-6.04406	Amblyopia
-5.442	Ambulatory
-6.04406	Amendments
-5.74303	Amenorrhea
-4.897932	America
-4.475858	American
-5.34509	Americans
-6.04406	Amerindians
-5.74303	Amino
-6.04406	Amiodarone
-6.04406	Amir
-6.04406	Amniotic
-4.114641	Among
-5.566938	Amongst
-6.04406	Ampere
-6.04406	Amphibian
-5.74303	Amplitude
-5.74303	Amputation
-6.04406	Amsterdam
-6.04406	Amyloid
-6.04406	AmyloidFormula
-3.3957	An
-6.04406	Anabaena
-6.04406	Anaemia
-6.04406	Anaerobic
-6.04406	Analog
-6.04406	Analogous
-5.74303	Analogously
-6.04406	Analyser
-5.198962	Analyses
-6.04406	Analysing
-4.002667	Analysis
-5.566938	Analytic
-5.74303	Analytical
-6.04406	Analyzed
-5.34509	Analyzer
-4.930116	Analyzing
-6.04406	Anatomic
-5.442	Anatomical
-6.04406	Anatomically
-6.04406	Ancestor
-6.04406	Ancestral
-6.04406	Anchorchiptimeofflight
-5.198962	And
-6.04406	Andalusia
-6.04406	Anderson
-6.04406	AndersonChandlerWeeks
-6.04406	AndersonGill
-5.74303	Android
-6.04406	Anecdotal
-6.04406	Anejaculation
-6.04406	Anemia
-6.04406	Anemias
-5.74303	Anesthesia
-6.04406	Anesthesiologists
-6.04406	Anesthetics
-6.04406	Aneurysm
-6.04406	Anexhaustive
-5.14097	Angeles
-6.04406	Angioembolization
-6.04406	Angiogram
-6.04406	Angiography
-5.74303	Angle
-6.04406	Angstrom
-6.04406	Angstroms
-5.74303	Angular
-6.04406	Anhui
-5.442	Animal
-5.442	Animals
-5.74303	Anisotropy
-6.04406	Ankara
-6.04406	Ankle
-5.566938	Ann
-5.74303	Annealing
-5.265909	Annotation
-6.04406	Annotations
-6.04406	Annual
-6.04406	AnoXcel
-6.04406	Anode
-6.04406	Anodizedaluminum
-6.04406	Anolis
-5.74303	Anopheles
-6.04406	Anorectal
-4.53891	Another
-5.566938	Ant
-6.04406	Antagonism
-6.04406	Antedependence
-6.04406	Anterior
-6.04406	Anterolateral
-6.04406	Anthonisen
-6.04406	Anthraxsurrogate
-6.04406	Anthropometry
-6.04406	AntiDoping
-6.04406	AntiEGFR
-6.04406	AntiXa
-6.04406	Antiarrhythmics
-5.74303	Antibiotic
-6.04406	Antibiotics
-5.74303	Antibodies
-5.74303	Antibody
-6.04406	Antidepressants
-5.74303	AntidsDNA
-6.04406	Antigenic
-6.04406	Antimicrobials
-6.04406	Antitumor
-6.04406	Antivirogram
-6.04406	Antonio
-6.04406	Ants
-6.04406	Anxiety
-5.14097	Any
-5.442	Ao
-5.74303	Aortic
-6.04406	Ap2alpha
-6.04406	Ap2gamma
-6.04406	ApA
-5.002667	ApEn
-6.04406	Apa
-6.04406	Apache
-5.34509	Apart
-5.566938	Aperture
-6.04406	Apex
-6.04406	Apical
-5.74303	Apis
-5.34509	Apligraf
-6.04406	Apnea
-6.04406	Apo
-5.74303	ApoE4
-5.265909	Apoatã
-6.04406	Apoferritin
-6.04406	Apomixis
-5.74303	Apoptosis
-5.442	App
-6.04406	Apparent
-6.04406	Appearancebased
-5.74303	Appl
-6.04406	Apple
-5.442	Applicability
-4.596902	Application
-4.964879	Applications
-6.04406	Applicator
-5.089817	Applied
-4.663848	Applying
-6.04406	Appraisal
-5.74303	Approach
-5.566938	Approaches
-5.442	Appropriate
-6.04406	Appropriately
-6.04406	Appropriateness
-5.74303	Approved
-5.34509	Approximate
-5.002667	Approximately
-5.74303	Approximation
-5.74303	Approximations
-4.867969	April
-5.442	Apriori
-6.04406	Aqua
-6.04406	Aqueous
-6.04406	AraC
-6.04406	Arab
-5.566938	Arabic
-4.788787	Arabidopsis
-6.04406	Arabs
-6.04406	Aransas
-6.04406	Arbitrary
-6.04406	Arc
-6.04406	ArchDB40
-6.04406	Archaea
-6.04406	Archimedean
-6.04406	Archimedes
-6.04406	Architectural
-5.74303	Architecture
-6.04406	Architectures
-6.04406	Archive
-5.74303	Are
-4.788787	Area
-5.34509	Areas
-6.04406	Aresolution
-6.04406	Arg176
-6.04406	Arg177
-6.04406	Arg192
-6.04406	Arg2
-6.04406	Arg6
-6.04406	ArgGlyAsp
-6.04406	ArgGlyAspcontaining
-5.74303	Argentina
-5.74303	Argentine
-5.442	Argentinean
-5.74303	Argo
-6.04406	Argonautebound
-6.04406	Argos
-6.04406	Arises
-6.04406	Arkansas
-6.04406	Arm
-6.04406	Armband
-5.74303	Armed
-6.04406	Armitage
-6.04406	Armspach
-5.74303	Army
-6.04406	Arnow
-5.442	Array
-5.14097	ArrayQuest
-6.04406	ArrayWiki
-5.74303	Arraybased
-5.442	Arrays
-5.566938	Arrhenius
-5.265909	Arrhythmia
-6.04406	Arrhythmic
-6.04406	ArrowPratt
-6.04406	Arsenic
-5.089817	Arterial
-6.04406	Arthritic
-6.04406	Arthroscopic
-5.74303	Arthroscopy
-6.04406	Articular
-6.04406	Articulated
-6.04406	Articulatory
-6.04406	Artida
-4.83994	Artificial
-6.04406	Artists
-3.622456	As
-5.198962	AsIII
-6.04406	AsO2
-6.04406	AsO43
-6.04406	AsO43≫AsO2F
-5.198962	AsV
-6.04406	Asante
-5.442	Ascans
-6.04406	Ascaris
-5.566938	Ash
-6.04406	Ashburner
-5.442	Asia
-4.813611	Asian
-6.04406	Asianand
-5.74303	Asians
-6.04406	Aside
-6.04406	Asistencial
-5.74303	Asite
-6.04406	Asn12
-6.04406	Asn143
-6.04406	AsnGlu
-6.04406	Asp
-5.74303	Asp318
-6.04406	Asp322
-6.04406	Aspartate
-6.04406	Aspect
-6.04406	Aspergers
-6.04406	Aspergillus
-5.566938	Assay
-5.74303	Assemblase
-5.74303	Assembly
-6.04406	Assess
-5.566938	Assessing
-4.499992	Assessment
-6.04406	AssessmentAchilles
-5.566938	Assessments
-6.04406	Assignment
-6.04406	Assignments
-5.74303	Assistance
-5.74303	Assistant
-6.04406	Assisted
-6.04406	Assoc
-5.74303	Associated
-6.04406	Associates
-4.581662	Association
-6.04406	AssociationAmerican
-5.566938	Associations
-6.04406	Associationtype
-6.04406	Assumed
-4.964879	Assuming
-6.04406	Assumptions
-6.04406	Assured
-5.74303	Asthma
-6.04406	Astonish
-6.04406	Astoria
-6.04406	AsymBoost
-6.04406	Asymmetric
-3.891771	At
-6.04406	AtREP21
-6.04406	Ataxia
-6.04406	Ateles
-5.74303	Ateniese
-6.04406	Atenolol
-6.04406	Aterm
-5.74303	Atheroma
-5.74303	Atherosclerosis
-6.04406	Athlete
-6.04406	Athymic
-6.04406	Atlanta
-5.34509	Atlantic
-5.74303	Atlas
-5.74303	Atomic
-6.04406	Atraumatic
-5.089817	Atrial
-6.04406	Atrialbased
-6.04406	Atsumi
-6.04406	Attachment
-5.265909	Attempts
-6.04406	Attending
-6.04406	Attention
-6.04406	Attenuated
-5.566938	Attenuation
-6.04406	Attribute
-6.04406	Atx
-6.04406	Au
-6.04406	Aucuba
-6.04406	Audiovisual
-5.566938	Auditory
-5.74303	Audits
-5.74303	Augmented
-5.002667	August
-6.04406	Augustine
-5.34509	AuroraA
-5.04406	Australia
-5.198962	Australian
-5.74303	Austria
-6.04406	Austrian
-5.74303	AutA
-5.34509	Authors
-6.04406	Autism
-6.04406	Auto
-5.34509	AutoDecon
-5.34509	AutoDock
-6.04406	AutoDock4
-5.74303	AutoThreshold
-5.566938	AutoWorkup
-6.04406	Autoantibodies
-6.04406	Autofluorescence
-5.442	Autoimmune
-4.765306	Automated
-4.83994	Automatic
-6.04406	Automatically
-6.04406	Automotive
-6.04406	Autonomic
-6.04406	Autonomous
-6.04406	Autophaser
-6.04406	Autoquant
-6.04406	Autoregressive
-6.04406	Autoregulation
-6.04406	Autosetting
-6.04406	Autumn
-6.04406	Aux
-5.74303	Availabilty
-5.442	Available
-5.34509	AveRNA
-5.74303	Avea
-4.64612	Average
-5.442	Averaged
-6.04406	Averaging
-6.04406	Aviation
-6.04406	Aware
-6.04406	Aweighted
-6.04406	Ax
-5.34509	AxF
-6.04406	AxML
-6.04406	Axb
-6.04406	Axes
-5.566938	Axial
-5.74303	Axis
-6.04406	Ayache
-6.04406	Ayu
-5.04406	Az
-5.442	Az0
-6.04406	Azidothymidine
-5.74303	AzmacortR
-5.74303	A···OH
-5.04406	Aβ
-3.879707	B
-5.14097	B0
-6.04406	B0B6
-5.198962	B1
-6.04406	B16F1
-5.74303	B1B8
-6.04406	B2
-6.04406	B3
-6.04406	B39
-6.04406	B3LYP6311Gdp
-5.74303	B3LYPD631G
-5.566938	B4
-5.74303	B5
-5.74303	B6
-6.04406	B6C3F1
-6.04406	B8B9
-6.04406	B9B19
-4.765306	BA
-5.442	BA1
-5.442	BA3b
-6.04406	BAC
-5.74303	BACE
-6.04406	BACON
-6.04406	BAGEL
-5.198962	BAL
-6.04406	BALBneuT
-5.34509	BAM
-5.265909	BAPS
-5.34509	BAS
-6.04406	BASIC
-6.04406	BASStree
-6.04406	BAT
-4.867969	BAY
-5.566938	BAliBASE
-6.04406	BAliPhy
-6.04406	BAyesian
-6.04406	BB
-5.265909	BBB
-5.34509	BBHLS
-5.442	BBI
-5.442	BBP
-5.442	BBW
-6.04406	BBisozyme
-6.04406	BBs
-5.265909	BC
-6.04406	BCCG
-5.198962	BCFM
-5.566938	BCFs
-5.14097	BCG
-6.04406	BCGA
-5.002667	BCI
-5.74303	BCM
-6.04406	BCO
-6.04406	BCOs
-6.04406	BCRABL
-6.04406	BCRABL1
-5.74303	BCSVM
-5.442	BCT
-5.442	BCV
-5.566938	BCdk1
-5.34509	BD
-5.566938	BD3D
-6.04406	BD413
-6.04406	BDACCS
-6.04406	BDM
-6.04406	BDNA
-6.04406	BDNAVIDEO
-5.442	BDNF
-6.04406	BDP
-5.14097	BDPCA
-5.74303	BDR
-6.04406	BDSMap
-5.74303	BDSS
-6.04406	BDST
-5.74303	BDeu
-5.34509	BE
-6.04406	BEADS
-5.566938	BEAM
-5.74303	BEAST
-5.04406	BED
-6.04406	BEDROC
-6.04406	BEDeq
-5.566938	BEDs
-6.04406	BEE
-5.34509	BEL
-5.442	BEM
-5.566938	BEMD
-5.14097	BER
-5.34509	BET
-5.198962	BEV
-6.04406	BF
-5.74303	BFA
-6.04406	BFAST
-6.04406	BFD
-6.04406	BFGANN
-5.74303	BFGS
-6.04406	BFHAADFSTEM
-4.663848	BG
-6.04406	BGA
-6.04406	BGN
-5.442	BGS
-5.566938	BH
-6.04406	BHCR
-5.34509	BHS
-5.566938	BIA
-5.442	BIAS
-5.566938	BIC
-6.04406	BIIB513
-4.897932	BIM
-5.74303	BIMAS
-5.442	BIMLR
-6.04406	BINding
-6.04406	BIOSIS
-5.14097	BIRADS
-4.867969	BIS
-6.04406	BISN2O
-5.566938	BISdependent
-6.04406	BJR
-5.566938	BK
-5.265909	BKCa
-5.74303	BKVN
-4.788787	BLAST
-6.04406	BLAST2
-5.74303	BLASTP
-6.04406	BLASTn
-6.04406	BLAT
-5.74303	BLI
-5.74303	BLOSUM
-6.04406	BLOSUM45
-6.04406	BLOSUM4555
-6.04406	BLOSUM50
-6.04406	BLOSUM55
-5.566938	BLOSUM62
-5.566938	BLS
-5.265909	BLT
-5.265909	BM
-5.74303	BMAC
-6.04406	BMA™
-5.34509	BMC
-6.04406	BMCtotal
-4.663848	BMD
-5.74303	BMDP
-4.930116	BMI
-5.34509	BMP5
-5.74303	BMPM
-5.34509	BMS
-5.04406	BMT
-5.74303	BMode
-5.34509	BN
-5.442	BNs
-5.74303	BO
-6.04406	BOA
-6.04406	BOAderived
-6.04406	BOD
-4.765306	BOLD
-5.566938	BOO
-6.04406	BOOST
-5.74303	BOTDA
-4.362819	BP
-5.74303	BP50
-6.04406	BPANN
-5.34509	BPD
-5.74303	BPF
-6.04406	BPFIND
-4.765306	BPH
-6.04406	BPHrelated
-5.566938	BPN
-5.566938	BPS
-6.04406	BPSK
-5.74303	BPTI
-6.04406	BPs
-5.74303	BR
-6.04406	BR1
-6.04406	BRAF
-5.74303	BRAINS
-6.04406	BRAINSTAT
-6.04406	BRAM
-6.04406	BRANN
-5.442	BRB
-5.74303	BRCA1
-6.04406	BRCA2
-5.566938	BRONX
-6.04406	BRS
-5.74303	BRSHF
-5.74303	BRSLF
-5.442	BRVD
-5.265909	BS
-5.089817	BSA
-6.04406	BSD
-5.34509	BSE
-5.34509	BSFA
-4.930116	BSI
-6.04406	BSIs
-6.04406	BSM1
-5.566938	BSNs
-5.442	BSP
-6.04406	BSPs
-6.04406	BSS
-5.74303	BSSCCA
-5.74303	BSpline
-5.265909	BT
-6.04406	BT426
-6.04406	BT547
-6.04406	BT823
-5.566938	BTA
-6.04406	BTB
-6.04406	BTE
-5.265909	BUA
-5.566938	BUN
-5.566938	BV
-5.74303	BVTV
-6.04406	BWA
-5.442	BWT
-6.04406	BYCC
-6.04406	BZ
-5.14097	BZDs
-5.442	Ba2
-6.04406	BaF2
-6.04406	BaTiO3
-6.04406	Babbitt
-6.04406	Babel
-6.04406	Babellike
-6.04406	Babelomics
-5.442	Bacillus
-5.566938	Back
-6.04406	Background
-6.04406	Backprojectionbased
-5.74303	Bacteria
-5.265909	Bacterial
-6.04406	Bacteriol
-6.04406	Bad
-6.04406	Baggerly
-6.04406	Bailey
-5.74303	Bain
-6.04406	Bair
-5.74303	Baker
-6.04406	BakerRobettaGinzu
-6.04406	BakerRossettadom
-6.04406	Bakers
-6.04406	Balance
-6.04406	Balbc
-6.04406	Baldwin
-6.04406	Baleares
-6.04406	Balibase
-6.04406	Ball
-6.04406	Ballistocardiogram
-6.04406	Balloon
-6.04406	Baltic
-5.74303	Baltimore
-6.04406	Banavar
-5.442	Band
-5.442	Bangkok
-6.04406	Bangladesh
-4.930116	Bank
-6.04406	Bankbased
-6.04406	Bansal
-6.04406	Bar
-5.74303	Barabási
-6.04406	Barcelona
-6.04406	Bardenpho
-6.04406	Barillot
-6.04406	Barium
-6.04406	Barkai
-6.04406	Barley
-6.04406	Barnaul
-5.265909	Barr
-5.74303	Barretts
-6.04406	Barrier
-6.04406	Barriers
-6.04406	Barro
-6.04406	Barth
-6.04406	Barthel
-6.04406	Barão
-6.04406	Basal
-6.04406	Bascom
-6.04406	Base
-3.826576	Based
-5.198962	Baseline
-5.34509	Basic
-5.74303	Basin
-5.74303	Basing
-5.34509	Basis
-6.04406	BasnaseBarstar
-5.34509	Basque
-6.04406	Basques
-5.74303	Bastard
-6.04406	Batch
-6.04406	Batches
-6.04406	Batten
-6.04406	Baumgarte
-6.04406	Bausch
-5.442	Bay
-4.566938	Bayes
-5.74303	BayesB
-6.04406	BayesCall
-3.816173	Bayesian
-6.04406	BayesianJeffreysbootstrap
-6.04406	Baylor
-5.198962	Bcell
-5.74303	Bcelllike
-6.04406	Bcomplex
-5.34509	Bcrp
-6.04406	Beadchip
-6.04406	Beagle
-5.74303	Beam
-6.04406	Beamformer
-6.04406	BearingOnly
-6.04406	Beat
-4.061789	Because
-6.04406	Becker
-5.442	Bedside
-5.74303	Beers
-5.002667	Before
-6.04406	Behav
-5.74303	Behavior
-5.74303	Behavioral
-6.04406	Behaviors
-6.04406	Behavioural
-6.04406	Behind
-6.04406	BehrensFisher
-6.04406	Behçets
-6.04406	BeierNeely
-6.04406	Beijaflor
-5.442	Being
-6.04406	BelousovZhabotinskii
-6.04406	Below
-6.04406	Beltrami
-6.04406	Bemisia
-5.265909	Benchmark
-5.74303	Bender
-6.04406	Bending
-6.04406	Benefits
-6.04406	Benefitting
-6.04406	Benet
-6.04406	Beneyto
-6.04406	Benign
-5.442	Benin
-6.04406	BenjaminFeirNewell
-5.74303	Benjamini
-6.04406	Beowulf
-6.04406	BergPurcell
-6.04406	Bergmans
-6.04406	Berikov
-6.04406	Berkson
-6.04406	Berlynes
-5.74303	Bernoulli
-6.04406	Bernstein
-6.04406	Berridge
-6.04406	Berry
-6.04406	Bertail
-6.04406	BesagYorkMollie
-6.04406	Beside
-4.596902	Besides
-6.04406	Bessel
-5.265909	Best
-5.74303	BestKeeper
-5.74303	BestRes
-5.566938	Beta
-5.74303	Betablockers
-5.74303	Betaturns
-5.442	Bethesda
-5.265909	Better
-4.72184	Between
-6.04406	Betweensession
-5.74303	Betweentest
-6.04406	BevertonHolt
-5.74303	Bexarotene
-5.34509	Beyond
-6.04406	Bezier
-5.74303	Bg
-6.04406	Bhattacharyya
-6.04406	BiDimensional
-5.14097	BiV
-6.04406	BiVspecific
-5.442	Bias
-5.74303	Biclustering
-6.04406	Bicuspid
-5.566938	Bidirectional
-6.04406	Bienkowskabiogenidec
-6.04406	BigQuartet
-6.04406	Bilateral
-5.74303	Bilek
-5.34509	Biliary
-6.04406	Bilirubin
-6.04406	Bill
-6.04406	Billera
-6.04406	Billerica
-6.04406	Bimanual
-5.74303	Bimax
-6.04406	Binary
-5.34509	Binding
-6.04406	Binkhorst
-6.04406	Binkhorsts
-6.04406	Binning
-6.04406	Binocular
-5.566938	Binomial
-5.566938	BioCarta
-6.04406	BioFET
-5.74303	BioFETSIM
-5.74303	BioHMM
-6.04406	BioMart
-6.04406	BioPerl
-6.04406	BioProspector
-6.04406	BioRad
-6.04406	BioSimz
-5.442	BioVU
-6.04406	BioZ
-6.04406	Bioarray
-5.566938	Bioarrays
-6.04406	Biocatalysis
-6.04406	Biochem
-6.04406	Biochemical
-6.04406	Biochemistry
-6.04406	Biochemists
-5.74303	Bioclipse
-5.566938	Bioconductor
-6.04406	Biodenipho
-6.04406	Biodex
-6.04406	Biodosimetry
-6.04406	Bioelectron
-6.04406	Bioeng
-6.04406	Biofiltration
-6.04406	Biogas
-5.74303	Biograph
-6.04406	Bioinformatic
-4.74303	Bioinformatics
-5.002667	Biol
-6.04406	Biologic
-5.14097	Biological
-6.04406	Biologists
-5.566938	Biology
-6.04406	Bioluminescence
-5.74303	Biomarker
-6.04406	Biomarkerassisted
-6.04406	Biomarkers
-6.04406	Biomech
-6.04406	Biomechanically
-6.04406	Biomed
-5.34509	Biomedical
-6.04406	Biometric
-5.566938	Biometrics
-6.04406	Biometrika
-6.04406	Biopanning
-5.74303	Biophys
-6.04406	Biophysics
-6.04406	Biorthogonal
-6.04406	Biosci
-5.566938	Bioscience
-6.04406	Biosens
-6.04406	Biosensorrelevant
-6.04406	Biosensors
-5.74303	Biosystems
-6.04406	Biot
-6.04406	Biotech
-6.04406	Biotechnology
-6.04406	Bird
-6.04406	Bismark
-6.04406	Bispectral
-6.04406	Bispot
-6.04406	Bivariate
-5.566938	Black
-6.04406	BlacknotofHispanicorigin
-5.566938	Blacks
-5.74303	Blackwell
-6.04406	Bladder
-6.04406	Blake
-6.04406	Blalock
-5.74303	Blanachard
-5.442	Bland
-5.198962	BlandAltman
-6.04406	Blanket
-5.74303	Blast
-5.442	BlastN
-6.04406	Blauth
-5.442	Bleeding
-6.04406	Bleomycin
-6.04406	Blethyn
-6.04406	Bleuler
-6.04406	Blike
-6.04406	Blind
-6.04406	Blinded
-6.04406	Blister
-5.198962	Bloch
-6.04406	BlochTorrey
-5.74303	Blockade
-5.442	Blocks
-6.04406	Blocksbased
-5.002667	Blood
-5.566938	Blue
-6.04406	Bluelightendoscopy
-6.04406	Bluetooth
-6.04406	Blurring
-5.74303	Blymphoblastoid
-4.72184	Bmode
-5.566938	Board
-5.566938	Boards
-5.74303	Boars
-6.04406	Bobovnikova
-6.04406	Bock
-5.265909	Body
-6.04406	Bodyworn
-6.04406	Bogomazovs
-6.04406	Bogotá
-6.04406	Bohlein
-6.04406	Bolhuis
-5.74303	Bolivia
-5.002667	Boltzmann
-6.04406	Boltzmannenhanced
-5.74303	Bolus
-4.867969	Bone
-6.04406	BoneXpert
-6.04406	Bonetti
-5.442	Bonferroni
-6.04406	Bonferronis
-6.04406	Bonhoeffervan
-6.04406	Bony
-4.813611	Boolean
-6.04406	Boone
-6.04406	Boosting
-5.74303	Bootstrap
-6.04406	Bootstrappers
-6.04406	Bootstrapping
-5.74303	Bordeaux
-6.04406	Bordetella
-6.04406	Borg
-5.34509	Born
-6.04406	BornMayertype
-6.04406	Bosch
-5.14097	Boston
-3.894841	Both
-6.04406	Botstein
-6.04406	Bottema
-5.74303	Bottom
-6.04406	Bottomup
-5.74303	Botulinum
-6.04406	BouchaudMézard
-5.566938	Bound
-6.04406	Boundaries
-5.442	Boundary
-5.566938	Bourke
-6.04406	Boutros
-6.04406	Bovine
-6.04406	BovineSNP50
-6.04406	Bowel
-6.04406	Bowie
-5.74303	Bowtie
-6.04406	BoyerMoore
-6.04406	Bqml
-5.74303	BrAC
-6.04406	Bracco
-6.04406	Brachial
-6.04406	Brachyspira
-5.74303	Brachytherapy
-5.74303	Bradford
-5.002667	Bragg
-6.04406	BraggGray
-4.813611	Brain
-5.74303	BrainComputer
-5.265909	BrainLAB
-6.04406	BrainVoyager
-5.74303	BrainWeb
-6.04406	Braincomputer
-6.04406	Brainderived
-5.198962	Brakes
-6.04406	Bramstedt
-5.74303	Branch
-6.04406	Branta
-6.04406	Brantmark
-5.74303	BraunFalco
-6.04406	Brauner
-5.265909	Brazil
-5.14097	Brazilian
-6.04406	Breadthfirst
-6.04406	Breakage
-6.04406	Breaks
-6.04406	Breakthrough
-4.930116	Breast
-5.566938	Breathhold
-6.04406	Breed
-6.04406	Breeding
-6.04406	Bresenham
-6.04406	Brewin
-6.04406	Brief
-6.04406	Briefly
-6.04406	Brilliant
-6.04406	Brillouin
-6.04406	Brisbane
-5.74303	Britain
-5.198962	British
-6.04406	Brittany
-6.04406	Broad
-5.74303	Broadband
-6.04406	BroadcastTerrestrial
-6.04406	Broadly
-6.04406	Brocas
-6.04406	Brodatz
-6.04406	Broder
-5.74303	Brodmann
-6.04406	Brodmanns
-6.04406	Bromfenac
-6.04406	Bronchoalveolar
-6.04406	Bronchoscopy
-6.04406	Bronze
-5.74303	Brookhaven
-6.04406	Browman
-6.04406	Brown
-6.04406	BrownForsythe
-6.04406	BrownRobertsWells
-5.198962	Brownian
-6.04406	Browser
-6.04406	Broyden
-5.74303	BroydenFletcherGoldfarbShanno
-6.04406	BruceGatarekMusielaJamshidian
-4.701637	Brucella
-6.04406	Brucks
-6.04406	Brutons
-6.04406	BröchnerMortensens
-6.04406	Brünger
-5.442	Bscan
-5.442	Bscans
-5.566938	Bscore
-5.442	Bspline
-5.442	Bsplinebased
-5.442	Bsplines
-6.04406	BtuCD
-6.04406	Bubble
-5.74303	Bubbles
-6.04406	Bucher
-6.04406	Buchers
-6.04406	Buchnera
-6.04406	BuckleyJames
-6.04406	Budget
-6.04406	Buffalo
-6.04406	Buffer
-6.04406	Build02
-5.566938	Building
-6.04406	Buildup
-6.04406	Built
-6.04406	Bull
-6.04406	Bundesanstalt
-6.04406	Bureau
-5.566938	Burg
-6.04406	Burgers
-6.04406	Burgess
-6.04406	Burkholderia
-5.566938	Burkina
-6.04406	Burleigh
-5.74303	Burlins
-6.04406	Burmans
-6.04406	Burn
-5.74303	BurridgeKnopoff
-5.74303	BurrowsWheeler
-6.04406	BurtonMiller
-4.64612	But
-6.04406	Butcher
-6.04406	Butler
-3.730192	By
-6.04406	Bérengers
-5.74303	Bézier
-6.04406	B₀
-6.04406	B₁
-5.34509	B₁⁻
-3.713646	C
-6.04406	C0
-6.04406	C03011
-5.34509	C1
-5.74303	C1060
-6.04406	C11ethanol
-5.74303	C11triamcinolone
-5.14097	C12
-6.04406	C13E9
-6.04406	C14
-6.04406	C16
-6.04406	C16E9
-6.04406	C18
-5.566938	C1C2
-5.74303	C2
-6.04406	C2050
-6.04406	C2CD4B
-6.04406	C2v
-5.265909	C3
-6.04406	C3C4
-6.04406	C3HHeJ
-5.265909	C3NET
-6.04406	C3f
-5.04406	C4
-6.04406	C42P
-6.04406	C4880
-5.442	C5
-6.04406	C50
-5.442	C57BL6
-5.566938	C57Bl6
-6.04406	C57Bl6J
-5.566938	C60
-5.74303	C7
-6.04406	C78
-5.566938	C8
-6.04406	C99C106
-6.04406	C9C10
-4.83994	CA
-5.265909	CA1
-5.34509	CA125
-5.198962	CA199
-5.74303	CA3
-4.964879	CABG
-5.74303	CABS
-4.192801	CAD
-6.04406	CADPLAN
-5.74303	CADpolyp
-6.04406	CAE
-5.566938	CAF
-5.442	CAFADIS
-5.265909	CAFU
-6.04406	CAFUas
-5.566938	CAG
-6.04406	CAGE
-5.566938	CAI
-5.14097	CAIs
-5.265909	CAM
-5.442	CAN
-6.04406	CANcer
-5.089817	CAP
-5.74303	CAPD
-4.663848	CAPRI
-5.566938	CAPture
-5.442	CARNAC
-6.04406	CARP
-5.566938	CARS
-5.442	CART
-6.04406	CARTAR
-5.566938	CAS
-6.04406	CAS8000V
-6.04406	CASA
-6.04406	CASE
-6.04406	CASEMULTICASE
-5.74303	CASM
-5.04406	CASP
-6.04406	CASP1
-5.74303	CASP3
-5.089817	CASP5
-6.04406	CASP5CAFASP3
-4.512581	CASP6
-5.74303	CASP8
-6.04406	CASP9
-5.74303	CASPs
-5.566938	CASS
-5.442	CAST
-5.566938	CAT
-5.74303	CATCH
-5.74303	CATH
-5.74303	CAUDASP
-5.566938	CAVER
-6.04406	CArdiac
-5.04406	CB
-6.04406	CB2
-6.04406	CB513
-5.74303	CBA
-6.04406	CBAs
-5.74303	CBCACONH
-6.04406	CBCANH
-6.04406	CBCDDep
-4.273208	CBCT
-6.04406	CBCTFF
-6.04406	CBCTHF
-6.04406	CBCTpCT
-5.74303	CBCTs
-5.74303	CBDS
-6.04406	CBDSs
-4.72184	CBF
-6.04406	CBFDC
-6.04406	CBFMS
-6.04406	CBFWNN
-5.74303	CBMA
-5.566938	CBP
-6.04406	CBRCDR
-5.089817	CBS
-4.629086	CBV
-6.04406	CBVDC
-6.04406	CBVMS
-6.04406	CBVS
-5.14097	CBVa
-4.964879	CC
-4.867969	CCA
-6.04406	CCAAT
-6.04406	CCAATenhancer
-5.566938	CCAEMD
-5.566938	CCC
-6.04406	CCCDS
-5.442	CCCN
-4.64612	CCD
-6.04406	CCHL
-6.04406	CCHM
-5.566938	CCHR
-5.74303	CCI
-6.04406	CCIPCA
-6.04406	CCMLO
-6.04406	CCMV
-6.04406	CCMVto
-5.34509	CCNA
-6.04406	CCNNs
-6.04406	CCNNsto
-5.74303	CCO
-5.198962	CCQ
-5.566938	CCR
-6.04406	CCR2
-6.04406	CCR5R5
-6.04406	CCTV
-5.74303	CCTVs
-5.089817	CCU
-4.566938	CD
-6.04406	CD103
-6.04406	CD117
-6.04406	CD20
-6.04406	CD3
-5.002667	CD34⁺
-6.04406	CD3e
-4.596902	CD4
-6.04406	CD4induced
-5.74303	CD52
-5.442	CD62L
-5.14097	CD8
-6.04406	CD8β
-5.265909	CD8βlow
-6.04406	CD95Ligand
-5.566938	CDC
-5.34509	CDCA
-6.04406	CDCNHSN
-6.04406	CDCled
-6.04406	CDCtype
-6.04406	CDG
-5.265909	CDI
-6.04406	CDK
-6.04406	CDK2
-5.74303	CDK8
-5.198962	CDOM
-5.442	CDR
-5.442	CDR1
-5.442	CDR3
-5.74303	CDROM
-5.198962	CDRs
-5.34509	CDS
-5.74303	CDSS
-5.265909	CDSs
-5.442	CDT
-5.566938	CDU
-5.14097	CE
-6.04406	CEA
-5.34509	CEBPA
-5.74303	CEC
-5.566938	CED
-6.04406	CEMC
-5.566938	CEMRA
-5.566938	CENet
-5.74303	CEP
-6.04406	CEP290
-5.566938	CEST
-5.74303	CETP
-5.002667	CF
-5.089817	CFA
-5.198962	CFAE
-6.04406	CFAEs
-6.04406	CFB
-5.198962	CFC
-5.265909	CFD
-6.04406	CFLAR
-5.566938	CFN
-5.74303	CFNbased
-5.265909	CFP
-4.964879	CFS
-4.964879	CFTR
-4.813611	CG
-5.34509	CGA
-5.74303	CGC
-6.04406	CGE
-5.566938	CGEGA
-6.04406	CGG
-6.04406	CGG1
-6.04406	CGG2
-6.04406	CGG3
-4.72184	CGH
-6.04406	CGI
-4.682332	CGM
-5.74303	CGMS
-5.74303	CGMreference
-6.04406	CGMs
-6.04406	CGPANN
-5.74303	CGSs
-6.04406	CGtype
-5.002667	CH
-5.74303	CH2
-5.74303	CH3
-6.04406	CH4
-6.04406	CHA
-5.74303	CHALICE
-5.442	CHAOS
-5.74303	CHARMM
-5.74303	CHARMM19
-6.04406	CHARMMwhich
-5.74303	CHB
-5.74303	CHC
-5.14097	CHD
-6.04406	CHEK2
-5.74303	CHF
-6.04406	CHIMERA
-5.566938	CHIMERAgroup
-6.04406	CHM
-5.74303	CHO
-6.04406	CHRNA5
-5.566938	CHUV
-3.83994	CI
-6.04406	CI1
-5.74303	CID
-6.04406	CIDIM
-5.566938	CIEDE2000
-6.04406	CIELAB
-6.04406	CIGARROAS
-5.74303	CII
-6.04406	CIMCA
-5.265909	CIN
-5.34509	CIN1
-5.34509	CIN2
-5.442	CIN23
-6.04406	CIND2
-5.566938	CIOMS
-6.04406	CIPQ
-5.198962	CIS
-5.74303	CITD
-5.265909	CITF
-5.265909	CIV
-6.04406	CImmSim
-5.74303	CIs
-6.04406	CK
-5.442	CK56
-5.74303	CK7
-5.265909	CKD
-5.14097	CKDEPI
-5.566938	CKMB
-5.74303	CKPEPI
-5.04406	CL
-6.04406	CL20
-5.198962	CLADA
-6.04406	CLADAs
-5.34509	CLAHE
-5.04406	CLC
-5.002667	CLE
-6.04406	CLEs
-6.04406	CLICK
-5.442	CLIP
-5.566938	CLL
-6.04406	CLR
-6.04406	CLS
-5.74303	CLSM
-5.442	CLUHSIC
-5.74303	CLUHSICAL
-6.04406	CLUP
-6.04406	CLUSEAN
-5.74303	CLabs
-6.04406	CLys12Lys13
-4.765306	CM
-5.74303	CMAES
-5.34509	CMAP
-6.04406	CMAPs
-5.34509	CMBHC
-5.14097	CMC
-5.566938	CME
-5.74303	CMF
-5.442	CMI
-5.442	CML
-6.04406	CMMC
-5.566938	CMMM
-5.089817	CMOS
-6.04406	CMOSCCD
-5.34509	CMPA
-4.788787	CMR
-6.04406	CMRR
-6.04406	CMS
-5.566938	CMSA
-6.04406	CMTM4
-6.04406	CMU
-6.04406	CMV
-5.74303	CMWT
-5.74303	CMeans
-5.566938	CModel
-6.04406	CN
-5.442	CN100
-5.442	CN200
-6.04406	CNA
-6.04406	CNACNA
-6.04406	CNAGE
-5.442	CNAs
-4.788787	CNR
-5.566938	CNRs
-4.581662	CNS
-5.14097	CNT
-6.04406	CNTN4
-5.34509	CNTs
-5.002667	CNV
-6.04406	CNVCALL
-5.198962	CNVs
-4.72184	CO
-4.765306	CO2
-5.74303	COBOM
-6.04406	COCs
-4.701637	COD
-5.442	COG
-6.04406	COI
-5.566938	COII
-6.04406	COIN
-5.74303	COL
-5.74303	COM
-5.74303	COMBINE
-6.04406	COMSOL
-5.566938	COMUSA
-6.04406	COMparative
-5.442	CON
-6.04406	CONCLUSION
-5.74303	CONCLUSIONS
-5.74303	CONSORT
-5.74303	CONTACT
-5.442	COOP
-5.34509	COP
-6.04406	COP1
-4.867969	COPD
-5.566938	COPSMPF
-5.34509	COR
-6.04406	CORdelta
-6.04406	COS7
-6.04406	COSB
-6.04406	COSMO
-5.74303	COSMORS
-6.04406	COSMOS
-6.04406	COV
-5.34509	COXEN
-5.74303	CO₂
-5.002667	CP
-6.04406	CP1
-6.04406	CP2
-6.04406	CP3
-5.74303	CPA
-4.83994	CPAP
-4.74303	CPB
-5.265909	CPC
-5.34509	CPCPPS
-6.04406	CPCPPSthe
-5.74303	CPCRA
-6.04406	CPCgenerated
-5.566938	CPD
-5.442	CPDL
-6.04406	CPDdedicated
-5.002667	CPF
-6.04406	CPFs
-5.74303	CPG
-5.74303	CPGV
-5.34509	CPGs
-6.04406	CPI
-6.04406	CPIS
-6.04406	CPK
-5.74303	CPLAdS
-5.198962	CPM
-6.04406	CPMC
-5.265909	CPMG
-4.897932	CPP
-6.04406	CPPoxygenreactivity
-5.265909	CPR
-5.566938	CPS
-5.74303	CPT
-6.04406	CPTs
-4.72184	CPU
-5.74303	CPUbased
-6.04406	CPUintensive
-6.04406	CPdecomposition
-5.74303	CPlanar
-4.83994	CR
-6.04406	CRAC
-5.265909	CRAMPS
-6.04406	CRANThe
-5.34509	CRAO
-5.265909	CRASH3
-5.089817	CRC
-6.04406	CREGs
-4.765306	CRF
-6.04406	CRF02
-6.04406	CRFstimulated
-6.04406	CRISTAL
-5.265909	CRL
-5.442	CRLB
-5.566938	CRM
-5.566938	CROM
-6.04406	CROP
-5.14097	CRP
-6.04406	CRP25
-5.265909	CRPS
-6.04406	CRPSSHS
-5.74303	CRPcAMP
-6.04406	CRS
-5.34509	CRSG
-5.34509	CRT
-5.34509	CRTD
-5.442	CRTDs
-5.74303	CRp
-6.04406	CRps
-4.663848	CS
-5.04406	CSA
-5.566938	CSB
-5.566938	CSC
-5.442	CSCPL
-6.04406	CSD
-5.566938	CSE
-6.04406	CSEM
-4.552698	CSF
-6.04406	CSFWM
-6.04406	CSHA
-5.198962	CSI
-5.566938	CSII
-6.04406	CSIM
-6.04406	CSM
-5.34509	CSOM
-5.089817	CSP
-5.74303	CSPG
-5.74303	CSR
-4.897932	CST
-5.74303	CSTP
-5.74303	CSVR
-5.566938	CSbased
-5.74303	CS₂
-3.365541	CT
-5.74303	CT1
-6.04406	CT2
-4.512581	CTA
-5.442	CTAs
-5.265909	CTC
-6.04406	CTCL
-5.74303	CTCLs
-5.566938	CTDI
-5.14097	CTDIvol
-5.14097	CTF
-6.04406	CTK
-5.442	CTL
-5.74303	CTMMs
-6.04406	CTMR
-6.04406	CTMRI
-5.74303	CTMS
-5.265909	CTNs
-5.34509	CTP
-5.089817	CTPA
-5.74303	CTPRESS
-6.04406	CTPs
-5.74303	CTRU
-5.04406	CTV
-6.04406	CTV1
-6.04406	CTV2
-6.04406	CTV3
-6.04406	CTVs
-5.04406	CTbased
-6.04406	CTcorrelated
-6.04406	CTderived
-5.74303	CTdetected
-5.14097	CTguided
-5.04406	CTs
-5.74303	CTvideo
-5.442	CUBLAS
-5.34509	CUDA
-5.442	CULA
-5.198962	CUP
-6.04406	CUTs
-4.74303	CV
-5.265909	CVA
-6.04406	CVA  4
-5.34509	CVD
-5.566938	CVP
-5.566938	CVS
-6.04406	CVi
-5.74303	CVs
-5.14097	CW
-6.04406	CWD
-5.74303	CWDAML
-5.74303	CWM
-5.089817	CWT
-5.74303	CWTbased
-6.04406	CXC
-6.04406	CXCR4
-5.74303	CXCR4using
-6.04406	CXCchemokine
-5.265909	CXR
-6.04406	CYBERNETICSPART
-6.04406	CYFRA
-5.74303	CYP
-6.04406	CYP19
-6.04406	CYP1A
-5.74303	CYP2
-5.34509	CYP2A6
-6.04406	CYP2A6coumarin
-6.04406	CYP2C19
-6.04406	CYP2R1
-6.04406	CYP2U1
-6.04406	CYP2X4
-6.04406	CYP39
-6.04406	CYP3A4
-6.04406	CYP3A50P
-5.002667	CZT
-4.74303	Ca
-6.04406	Ca10PO45CaCO3FClOH2
-4.231146	Ca2
-5.14097	Ca2activated
-5.74303	Ca2binding
-5.34509	Ca2c
-6.04406	Ca2current
-6.04406	Ca2dependent
-5.198962	Ca2i
-6.04406	Ca2modulated
-5.566938	Ca2o
-6.04406	Ca2release
-6.04406	Ca2sensing
-6.04406	CaATPase
-6.04406	CaATPtoMgATP
-5.74303	CaCl2
-6.04406	CaHbNcOd
-6.04406	CaMKII
-5.265909	CaP
-6.04406	CaPfree
-5.74303	Cabella
-6.04406	Cabled
-5.566938	Caco2
-6.04406	Caco2  MDCK
-6.04406	Cad
-5.74303	CadPlanHelios
-6.04406	Cadence
-6.04406	Cadiz
-6.04406	CadplanHelios
-6.04406	Caduff
-6.04406	Caemmerer
-5.442	Caenorhabditis
-6.04406	Caenorrhabditis
-6.04406	Caffeic
-6.04406	Caffeine
-5.74303	CahnHilliard
-6.04406	Cairo
-5.566938	Cake
-6.04406	Calandrino
-6.04406	Calcific
-6.04406	Calcifications
-5.566938	Calcium
-5.566938	Calculated
-6.04406	Calculating
-5.14097	Calculation
-5.04406	Calculations
-6.04406	Calgary
-6.04406	Calibrating
-5.34509	Calibration
-5.089817	California
-6.04406	CaliforniaVan
-5.74303	Call
-6.04406	Calling
-6.04406	Calluna
-5.74303	CalmetteGuérin
-5.198962	Calpha
-5.74303	CalphaCbeta
-6.04406	Calpine10
-5.442	Cambridge
-5.74303	Camera
-6.04406	Campania
-6.04406	Campbell
-5.566938	Campylobacter
-4.964879	Canada
-6.04406	Canadas
-5.04406	Canadian
-6.04406	Canary
-4.629086	Cancer
-5.566938	Candida
-5.34509	Candidate
-5.74303	Candidates
-5.74303	Cannulation
-5.566938	Canny
-5.74303	Canonical
-5.566938	Capacity
-6.04406	Capillary
-6.04406	Capon
-6.04406	Capsaicin
-5.74303	Capsazepine
-5.74303	Capsular
-6.04406	Capture
-6.04406	Carbomedics
-6.04406	Carbon
-6.04406	Carbonaceous
-6.04406	Carbonic
-6.04406	Carbopol
-6.04406	Card
-5.04406	Cardiac
-6.04406	CardioInspect
-6.04406	CardioResource
-6.04406	Cardiodynamics
-6.04406	Cardiofocal
-5.442	Cardiology
-6.04406	Cardiopulmonary
-5.265909	Cardiovascular
-6.04406	Cardoso
-4.83994	Care
-6.04406	CareFusion
-5.34509	Careful
-6.04406	Caregiver
-5.74303	Caregivers
-6.04406	Cargo
-6.04406	Caries
-3.806014	Carlo
-6.04406	CarloSimulated
-5.74303	Carlosimulated
-5.566938	Carlsons
-6.04406	CarlstedtDuke
-4.867969	Carm
-6.04406	Carmbased
-5.566938	Carolina
-6.04406	Carotid
-6.04406	Carpeggiani
-6.04406	Carpenter
-6.04406	CarrPurcellMeiboomGill
-6.04406	Carrier
-6.04406	Carrying
-4.867969	Cartesian
-6.04406	Cartilage
-6.04406	CasBrE
-5.74303	Cascade
-5.74303	CascadeCorrelation
-5.265909	Case
-6.04406	Casecontrol
-5.34509	Cases
-6.04406	CassieBaxter
-6.04406	Cast
-6.04406	CatPhan
-6.04406	Catalasebound
-6.04406	Catalonia
-6.04406	Catalytic
-6.04406	Cataract
-6.04406	Catastrophic
-6.04406	CatchAll
-6.04406	CatchIng
-6.04406	Categorization
-5.566938	Category
-5.74303	Catheter
-5.74303	CatmullClark
-6.04406	Cats
-6.04406	Cattaneo
-5.442	Catuaí
-5.442	Caucasian
-6.04406	Caucasians
-6.04406	Caucasus
-6.04406	Cauchy
-6.04406	Cauliflower
-5.34509	Causal
-5.442	Causality
-6.04406	Caused
-6.04406	Causeeffect
-6.04406	Caution
-6.04406	Cav
-5.198962	Cav1
-6.04406	Cav1deficient
-5.74303	Cav1mediated
-5.265909	Cav2
-6.04406	Caveolin1
-6.04406	Cavitation
-5.265909	Ca²
-6.04406	Cband
-5.74303	Cbased
-5.74303	Cbeta
-6.04406	Ccode
-6.04406	Ccomplex
-6.04406	Cconcentration
-5.34509	Cd
-5.198962	Cd2
-6.04406	CdS
-5.442	Ce
-6.04406	CeCILL
-6.04406	CeTReS
-6.04406	Cedars
-6.04406	CedarsSinais
-6.04406	Cederholm
-5.002667	Cell
-5.566938	Cellerator
-6.04406	Cells
-6.04406	Celltocell
-6.04406	Cellular
-6.04406	Cement
-4.663848	Center
-5.265909	Centers
-6.04406	Centertocenter
-5.198962	Central
-6.04406	Centralchest
-5.442	Centre
-6.04406	Centres
-6.04406	Centrifugal
-6.04406	Century
-6.04406	Cephalometric
-6.04406	Cepheid
-6.04406	Cercopithecidae
-5.74303	Cercopithecinae
-5.74303	Cerebellar
-5.14097	Cerebral
-6.04406	Cerebrovascular
-6.04406	Cerevisiae
-5.198962	Certain
-6.04406	Cerulean
-5.566938	Cervical
-6.04406	Ch
-5.74303	ChEMBL
-5.002667	ChIP
-6.04406	ChIPbased
-5.566938	ChIPchip
-6.04406	ChIPed
-5.566938	ChIPonchip
-5.14097	ChIPseq
-6.04406	Chabrier
-5.74303	Chagas
-5.566938	Chain
-6.04406	ChainMail
-6.04406	ChainRNA
-5.198962	Challenge
-5.74303	Challenges
-6.04406	Chamaecytisus
-6.04406	Championships
-6.04406	Chance
-5.74303	Chang
-6.04406	ChangLe
-5.74303	Change
-4.663848	Changes
-6.04406	Changeux
-5.442	Changing
-6.04406	Channel
-6.04406	Channelised
-6.04406	Chantlers
-6.04406	Chapel
-6.04406	Chapman
-6.04406	Characteristic
-5.74303	Characteristics
-5.566938	Characterization
-6.04406	Characterized
-6.04406	Characterizing
-6.04406	Charcot
-6.04406	Charge
-6.04406	Charging
-5.34509	Charlson
-6.04406	Charter
-6.04406	Cheek
-4.964879	Chem
-6.04406	ChemScore
-5.198962	ChemT
-5.74303	Chemgauss3
-5.04406	Chemical
-6.04406	Chemicals
-6.04406	Chemistry
-6.04406	Chemotherapy
-5.74303	Chemscore
-5.74303	Chen
-5.566938	Cheng
-6.04406	ChengPrusoff
-6.04406	Cherry
-6.04406	Chesapeake
-5.34509	Chest
-6.04406	Chicagos
-6.04406	Chief
-6.04406	ChildPugh
-5.74303	Childhood
-5.74303	Childhoodonset
-5.14097	Children
-5.089817	Childrens
-5.198962	Chile
-5.566938	Chilean
-6.04406	Chiles
-6.04406	Chilling
-6.04406	Chimeric
-6.04406	Chimerism
-5.04406	China
-4.566938	Chinese
-6.04406	Chiral
-5.265909	Chisquare
-6.04406	Chk1mediated
-5.002667	Chl
-5.265909	Chla
-5.34509	Chlamydia
-5.74303	Chlamydomonas
-6.04406	Chloroquine
-5.74303	Cho
-6.04406	ChoCho
-6.04406	ChoCr
-6.04406	ChoNAA
-6.04406	Choe
-6.04406	Choi
-6.04406	ChoiWilliams
-5.74303	Choice
-6.04406	Cholera
-5.74303	Cholesky
-5.14097	Cholesterol
-5.566938	Choosing
-6.04406	Chorotypesstatistically
-6.04406	Chou
-5.74303	Chous
-6.04406	Christensen
-5.566938	ChroMoS
-6.04406	ChromaTOF
-5.34509	Chromatin
-6.04406	Chromatographic
-6.04406	Chromatography
-5.74303	Chrominace1
-5.74303	Chrominance2
-6.04406	Chromium
-6.04406	Chromosomal
-5.74303	Chromosome
-4.930116	Chronic
-5.74303	Chumlea
-6.04406	ChungKennedy
-5.265909	Church
-6.04406	Cigarroas
-5.74303	Cimmino
-6.04406	CinC
-6.04406	Cinahal
-5.74303	Cincinnati
-6.04406	CineCT
-6.04406	Cira
-6.04406	Circadian
-5.74303	Circuit
-6.04406	Circuits
-5.74303	Circular
-6.04406	Circulating
-6.04406	Circumferential
-6.04406	Cirrhosis
-5.74303	Cirrus
-6.04406	CisRNASVM
-6.04406	Cisacting
-5.566938	City
-4.897932	Cl
-5.74303	ClHp
-6.04406	ClIBMECA
-5.566938	ClPl
-6.04406	ClUr
-6.04406	Claimsbased
-6.04406	Clarksonbased
-4.897932	Class
-6.04406	Classdependent
-5.566938	Classical
-5.74303	Classically
-6.04406	Classics
-4.663848	Classification
-6.04406	Classifications
-6.04406	Classified
-5.34509	Classifier
-5.74303	Classifiers
-6.04406	Classifying
-6.04406	Clatterbridge
-5.566938	Claytons
-5.74303	Clearly
-6.04406	Clearview
-5.566938	Cleaver
-6.04406	Cleveland
-6.04406	Clevidipine
-6.04406	Click
-6.04406	Clicking
-5.74303	Climate
-6.04406	Climbing
-6.04406	Clin
-5.442	ClinProTools
-5.566938	ClinProt
-5.74303	Clinac
-6.04406	Clindamycin
-5.198962	Clinic
-4.25873	Clinical
-5.442	ClinicalTrials
-5.34509	Clinically
-6.04406	Clinicalpathological
-6.04406	Clinicaltrials
-5.74303	Clinician
-5.74303	Clinicians
-6.04406	Clinico
-6.04406	ClogD
-5.74303	ClogP
-6.04406	Clonal
-6.04406	Clonazepam
-6.04406	Cloning
-6.04406	Clonus
-5.74303	Close
-5.566938	Closed
-6.04406	Closedloop
-6.04406	Closer
-6.04406	Closest
-5.34509	Clostridium
-5.566938	Clot
-6.04406	Clothing
-5.089817	Cloud
-6.04406	Cloudbased
-6.04406	Clumped
-5.34509	ClusPro
-6.04406	ClustScan
-5.74303	Clustal
-6.04406	ClustalV
-5.442	ClustalW
-5.442	ClustalX
-5.089817	Cluster
-4.701637	Clustering
-5.566938	Clusters
-6.04406	Clémençon
-6.04406	Cmax
-5.74303	Cmeans
-5.14097	Cmin
-6.04406	Cn
-5.74303	Co
-5.566938	Co2
-6.04406	Co60
-6.04406	CoC
-5.089817	CoFe
-5.442	CoMFA
-6.04406	CoMFApredicted
-5.566938	CoNPs
-5.265909	CoNS
-6.04406	CoNSpositive
-5.566938	CoNSs
-5.34509	CoRAL
-6.04406	CoV
-5.442	CoVs
-5.74303	Coach
-6.04406	Coagulasenegative
-6.04406	Coagulation
-6.04406	Coalescent
-6.04406	Coalition
-6.04406	Cobaltferrite
-5.265909	Cobb
-6.04406	Cochlear
-5.566938	Cochrane
-5.74303	CockcroftGault
-6.04406	Cocrane
-6.04406	Cod
-5.198962	Code
-5.442	CodeLink
-6.04406	Codebookbased
-6.04406	Coded
-6.04406	Coding
-6.04406	Codman
-6.04406	Coefficient
-6.04406	Coefficients
-6.04406	Coens
-6.04406	Coextinction
-6.04406	Coextinctions
-5.566938	Coffea
-5.74303	Cognetta
-5.74303	Cognitive
-6.04406	Cognitiveconcept
-6.04406	Cohen
-5.442	Cohens
-6.04406	Coherence
-6.04406	Coherent
-5.566938	Cohort
-5.74303	Cohorte
-6.04406	Coil
-6.04406	Coimaging
-6.04406	Coimmunoprecipitation
-6.04406	Coincidentally
-6.04406	Coinfusion
-5.74303	Coions
-5.74303	ColE1
-5.74303	Cole
-6.04406	Coleman
-6.04406	Colias
-6.04406	Coliform
-6.04406	Colin
-6.04406	Collaboration
-5.566938	Collaborative
-5.74303	Collecting
-6.04406	Collection
-6.04406	Collections
-5.442	Collectively
-5.002667	College
-6.04406	Colliculus
-5.566938	Collins
-6.04406	Collisions
-5.74303	Colo
-6.04406	ColoPrint®
-5.566938	Colobinae
-5.74303	Cologne
-5.566938	Colombia
-6.04406	Colombian
-5.74303	Colonic
-6.04406	Colonies
-5.442	Colony
-5.14097	Color
-6.04406	Colorado
-5.74303	Colorectal
-6.04406	Colors
-5.442	Colposcopy
-5.265909	Columbia
-6.04406	ColumbiaPresbyterian
-6.04406	Column
-6.04406	Columns
-6.04406	Colégio
-5.566938	Coma
-6.04406	Comanagement
-5.265909	Combination
-5.566938	Combinations
-5.74303	Combinatorial
-5.002667	Combined
-4.964879	Combining
-6.04406	Comedication
-6.04406	Command
-6.04406	Comment
-6.04406	Comments
-6.04406	Commercial
-5.74303	Commercially
-5.566938	Commission
-5.04406	Committee
-6.04406	Committees
-4.964879	Common
-5.566938	Commonly
-6.04406	Commonlydescribed
-6.04406	Commons
-5.74303	Communication
-6.04406	Communities
-5.442	Community
-6.04406	CommunityWide
-6.04406	Comp
-5.566938	Compact
-6.04406	Compaction
-6.04406	Compactly
-5.198962	Compadre
-6.04406	Company
-5.566938	Comparable
-4.867969	Comparative
-6.04406	Comparatively
-4.224516	Compared
-4.83994	Comparing
-4.581662	Comparison
-4.72184	Comparisons
-6.04406	Compartmentalization
-6.04406	CompatiblePC
-6.04406	Compendium
-6.04406	Competition
-6.04406	Competitive
-6.04406	Compiled
-6.04406	Complementary
-5.265909	Complete
-6.04406	Completeness
-6.04406	CompletionMultidimensional
-5.002667	Complex
-6.04406	Complexity
-6.04406	Compliance
-6.04406	Complicated
-6.04406	Complication
-5.265909	Complications
-5.002667	Component
-5.74303	Components
-5.74303	Composer
-5.566938	Composite
-5.74303	Compositional
-5.74303	Compound
-6.04406	Compounding
-5.34509	Comprehensive
-6.04406	Compressed
-5.198962	Compression
-5.566938	Compton
-5.442	Comput
-5.34509	Computation
-4.682332	Computational
-5.442	Computationally
-5.566938	Computations
-5.442	Computed
-4.566938	Computer
-5.198962	Computeraided
-5.566938	Computerassisted
-5.74303	Computerbased
-5.74303	Computergenerated
-6.04406	Computerization
-5.566938	Computerized
-6.04406	Computersimulated
-5.34509	Computing
-6.04406	ConTrex
-6.04406	Conceivably
-6.04406	Concentrating
-5.566938	Concentration
-5.74303	Concept
-5.74303	Concepts
-5.566938	Concerning
-5.34509	Concerto
-6.04406	Conclusions
-6.04406	Concomitantly
-5.566938	Concordance
-6.04406	Concordances
-5.74303	Concrete
-5.74303	Concurrent
-6.04406	Condensed
-5.34509	Conditional
-6.04406	Conditions
-5.74303	Conduct
-5.74303	Condylar
-5.74303	Cone
-5.74303	Conebeam
-6.04406	Conemaugh
-5.442	Conference
-5.442	Confidence
-6.04406	Confidential
-5.74303	Confirmed
-5.74303	Conflicting
-6.04406	Confocal
-6.04406	Confocalrainbow
-6.04406	Conformal
-5.74303	Conformational
-6.04406	Confounders
-6.04406	Confusion
-5.566938	Congenital
-6.04406	Conjugate
-6.04406	Conjugation
-6.04406	Connectedness
-6.04406	Connecticut
-6.04406	Connection
-5.74303	Connections
-5.198962	Connectivity
-5.74303	Connor
-6.04406	ConsFrec
-5.566938	Consecutive
-6.04406	Consecutively
-6.04406	Consensual
-5.198962	Consensus
-6.04406	Consented
-6.04406	Consenting
-4.475858	Consequently
-5.566938	Conservation
-5.74303	Conservatism
-5.74303	Conservative
-6.04406	Conserved
-5.566938	Considerable
-5.566938	Consideration
-5.74303	Considerations
-6.04406	Considered
-4.83994	Considering
-6.04406	Consistency
-6.04406	Consistencybased
-5.265909	Consistent
-6.04406	Consistently
-6.04406	Consisting
-5.442	Consortium
-5.566938	Consortiums
-5.74303	Constipation
-6.04406	Constitutive
-6.04406	Constrained
-6.04406	Constraintbased
-5.442	Constraints
-6.04406	Constructing
-5.265909	Consulta
-5.442	Contact
-6.04406	Contacts
-6.04406	Contaminating
-6.04406	Contemporary
-5.74303	Content
-6.04406	Contents
-5.442	Contest
-6.04406	ContextFree
-6.04406	Contigs
-6.04406	Continual
-6.04406	Continued
-5.74303	Continuing
-5.04406	Continuous
-6.04406	Continuoustime
-5.74303	Continuum
-5.566938	Contour
-6.04406	Contourlet
-6.04406	Contraction
-6.04406	Contralateral
-5.265909	Contrary
-5.34509	Contrast
-6.04406	Contrasted
-6.04406	Contrastfilters
-5.74303	Contrasttonoise
-6.04406	Contributing
-6.04406	Contributions
-4.788787	Control
-5.74303	Controlled
-5.566938	Controlling
-5.442	Controls
-5.74303	Controversies
-6.04406	Controversy
-6.04406	Convectionenhanced
-6.04406	Convention
-4.867969	Conventional
-5.74303	Convergence
-6.04406	Convergent
-5.002667	Conversely
-6.04406	Conway
-6.04406	Cooccurrence
-6.04406	Cooks
-6.04406	Cool
-6.04406	Cooling
-6.04406	Cooper
-5.566938	Cooperative
-6.04406	Cooperativity
-6.04406	Cooperators
-5.74303	Coordinate
-6.04406	Coordinates
-5.74303	Coordinating
-6.04406	Coordination
-5.566938	Copenhagen
-6.04406	CopperII
-6.04406	Coprothermobacter
-6.04406	Copy
-5.74303	Cord
-5.74303	Cordelia
-6.04406	Cordoba
-5.34509	Core
-6.04406	Coregistration
-6.04406	Corneal
-6.04406	Cornell
-5.566938	Coronary
-6.04406	Corouge
