
\data\
ngram 1=60007

\1-grams:
-4.22756	0
-5.438414	00
-6.040473	000
-6.040473	00289
-5.195375	01
-6.040473	011972505339686
-6.040473	0157
-5.739443	0157H7
-6.040473	017
-5.195375	02
-5.739443	025
-6.040473	02543
-5.563352	03
-5.341503	04
-5.739443	04103
-5.438414	05
-6.040473	05549
-5.262322	06
-6.040473	06032
-6.040473	06340
-6.040473	06520
-6.040473	066407
-6.040473	06830
-6.040473	06831
-5.563352	07
-6.040473	077
-6.040473	07701
-6.040473	07760
-6.040473	07981
-6.040473	08
-5.563352	08540
-6.040473	088
-6.040473	0liter
-3.209244	1
-3.232938	10
-3.847349	100
-4.262322	1000
-4.496405	10000
-4.521959	100000
-6.040473	100000plus
-6.040473	100000squarefoot
-5.739443	10000squarefoot
-6.040473	1000ahead
-6.040473	1000mile
-6.040473	1000perperson
-6.040473	1000th
-5.438414	1001
-4.718254	10010
-6.040473	10012
-5.739443	10016
-6.040473	10017
-5.195375	10022
-6.040473	10029
-5.739443	10032
-5.438414	10036
-5.563352	100363959
-6.040473	1008
-6.040473	100by100ft
-6.040473	100by200ft
-6.040473	100episode
-6.040473	100footdeep
-5.262322	100hour
-5.739443	100meter
-6.040473	100minute
-5.739443	100plus
-5.739443	100pm
-6.040473	100squarefoot
-5.137383	100th
-6.040473	100wordsorless
-5.739443	100yearold
-4.810024	101
-5.739443	1010
-6.040473	101000
-5.137383	1011
-6.040473	1014
-5.739443	1015
-5.563352	101st
-4.810024	102
-6.040473	102000
-6.040473	1021
-5.195375	102614100
-6.040473	1028sq
-6.040473	1029
-6.040473	102nd
-4.864382	103
-4.609109	1030
-6.040473	1030AM
-5.563352	1030am
-5.739443	1036
-6.040473	1037
-6.040473	1039
-6.040473	103foottall
-5.739443	103rd
-5.137383	104
-6.040473	104000
-6.040473	104101
-6.040473	1044
-5.739443	1045
-5.438414	10471
-6.040473	1048
-6.040473	104kiloton
-5.739443	104th
-4.678746	105
-6.040473	1050
-6.040473	10500
-5.739443	105000
-6.040473	1050700
-6.040473	10573
-4.642533	106
-6.040473	1060
-6.040473	1061
-6.040473	106393
-6.040473	10655
-6.040473	1069
-6.040473	106th
-5.341503	106yearold
-5.040473	107
-5.262322	10707
-5.739443	10709
-6.040473	1071
-4.999081	1076
-6.040473	107th
-6.040473	107yearold
-5.137383	108
-6.040473	10804
-6.040473	108105
-6.040473	10813
-6.040473	10823
-5.739443	1085148
-5.438414	109
-6.040473	1095
-6.040473	10956
-5.739443	10AM
-4.999081	10am
-5.262322	10day
-6.040473	10foot
-6.040473	10footwide
-5.563352	10game
-6.040473	10hour
-6.040473	10millionton
-5.195375	10minute
-5.739443	10part
-6.040473	10play
-6.040473	10team
-4.6255	10th
-5.739443	10thcentury
-6.040473	10thranked
-6.040473	10to15story
-6.040473	10way
-5.563352	10yard
-4.836353	10year
-5.438414	10yearold
-3.617228	11
-4.864382	110
-5.563352	1100
-5.563352	11000
-5.262322	1100am
-5.739443	1100sq
-6.040473	11040
-5.739443	110401433
-6.040473	11055
-6.040473	110794
-5.137383	110TH
-6.040473	110by100ft
-6.040473	110mile
-6.040473	110squaremile
-4.999081	110th
-6.040473	110volt
-4.836353	111
-6.040473	1110
-6.040473	11127
-6.040473	1114
-5.739443	1115
-5.563352	1115am
-5.739443	11193
-4.894345	112
-6.040473	1120
-6.040473	112000
-6.040473	112000squarefoot
-5.195375	11201
-6.040473	112100
-5.195375	11217
-5.137383	11245
-6.040473	1125
-6.040473	1129
-5.341503	113
-4.678746	1130
-6.040473	11300
-6.040473	113000
-5.739443	1130AM
-4.864382	1130am
-6.040473	1133
-6.040473	1136squarefoot
-5.262322	114
-6.040473	11426
-5.739443	1145
-6.040473	11477
-6.040473	114th
-5.040473	115
-6.040473	1150
-6.040473	115000
-6.040473	11532726
-5.739443	1155
-6.040473	11555120
-6.040473	1157
-6.040473	115pound
-5.040473	116
-5.563352	117
-6.040473	1173
-6.040473	1177
-6.040473	117acre
-5.563352	118
-6.040473	118000
-6.040473	1187
-6.040473	1188
-5.739443	118th
-5.563352	119
-6.040473	119000
-5.739443	11925
-6.040473	1195
-5.739443	1199
-6.040473	1199s
-5.563352	11am
-6.040473	11b
-6.040473	11character
-6.040473	11foot
-6.040473	11for15
-6.040473	11g
-6.040473	11n
-6.040473	11ranked
-4.660262	11th
-6.040473	11thfloor
-5.739443	11thhour
-6.040473	11thseason
-6.040473	11win
-6.040473	11yard
-5.563352	11year
-5.137383	11yearold
-3.540786	12
-4.69805	120
-4.785201	1200
-5.086231	12000
-6.040473	120000
-6.040473	1200seat
-6.040473	1200squarefoot
-6.040473	12042
-6.040473	1205
-6.040473	120kilowatt
-6.040473	120room
-5.739443	120th
-4.92653	121
-5.739443	1210
-6.040473	121300
-6.040473	121470
-5.739443	1215
-6.040473	1217
-5.563352	122
-6.040473	1220
-6.040473	1221
-6.040473	1222
-6.040473	12220
-6.040473	122904
-5.137383	123
-5.040473	1230
-6.040473	1239
-6.040473	12398
-4.810024	124
-5.563352	1245
-6.040473	12474
-4.894345	125
-6.040473	1250
-6.040473	12500
-5.563352	125000
-5.739443	1251
-6.040473	12516
-6.040473	1256
-6.040473	125acre
-5.195375	126
-6.040473	12606
-6.040473	12650squarefoot
-6.040473	1269
-6.040473	127
-6.040473	127000
-6.040473	127000squarefoot
-6.040473	127page
-6.040473	128
-6.040473	1283
-5.341503	129
-6.040473	1299
-6.040473	129pm
-6.040473	12anhour
-5.137383	12bath
-6.040473	12car
-6.040473	12cup
-5.739443	12foot
-6.040473	12foothigh
-6.040473	12game
-6.040473	12hour
-6.040473	12inch
-6.040473	12liter
-6.040473	12mile
-6.040473	12month
-5.739443	12pack
-6.040473	12page
-6.040473	12plex
-6.040473	12pm
-6.040473	12point
-6.040473	12story
-6.040473	12term
-4.894345	12th
-5.563352	12year
-5.563352	12yearold
-6.040473	12yearolds
-3.757172	13
-4.508995	130
-5.341503	1300
-5.563352	13000
-6.040473	1306
-6.040473	130foot
-6.040473	130pm
-6.040473	130yearold
-5.040473	131
-5.563352	1310
-6.040473	131sq
-5.341503	132
-6.040473	1320
-6.040473	13200
-6.040473	132000
-5.563352	1321
-5.262322	133
-6.040473	133000
-5.341503	134
-6.040473	134000
-6.040473	134028
-5.195375	135
-6.040473	1350
-6.040473	13500
-5.739443	135000
-6.040473	1355
-6.040473	1358
-6.040473	1359
-6.040473	135th
-5.563352	136
-6.040473	136foottall
-6.040473	136th
-5.195375	137
-6.040473	1370
-6.040473	137000
-6.040473	1374
-6.040473	137700
-5.341503	137th
-5.438414	138
-5.262322	139
-6.040473	1394
-5.563352	1395
-6.040473	1395000
-6.040473	13episode
-5.563352	13member
-6.040473	13mile
-6.040473	13minute
-6.040473	13term
-4.810024	13th
-6.040473	13thcentury
-6.040473	13thranked
-5.137383	13yearold
-3.690225	14
-4.836353	140
-4.999081	1400
-5.739443	14000
-5.739443	140000
-6.040473	14000member
-6.040473	14000squarefoot
-6.040473	1400s
-6.040473	14076
-6.040473	1408
-6.040473	1409
-6.040473	14092
-5.739443	140page
-5.195375	141
-6.040473	1412
-5.739443	1414
-6.040473	1415
-5.739443	1416
-5.563352	1418
-6.040473	1419
-5.262322	142
-6.040473	1421
-5.739443	143
-5.739443	1433squarefoot
-5.438414	144
-5.563352	1440
-6.040473	1441
-5.040473	145
-5.341503	1450
-6.040473	145155squarefoot
-6.040473	145833
-5.739443	146
-6.040473	1465
-5.739443	147
-6.040473	147141
-5.137383	148
-6.040473	1480
-6.040473	1486
-6.040473	1487
-5.563352	149
-6.040473	1492
-6.040473	149901
-6.040473	149th
-6.040473	14foot
-6.040473	14game
-6.040473	14hour
-6.040473	14inch
-6.040473	14member
-6.040473	14monthold
-4.999081	14th
-6.040473	14yard
-5.739443	14yearold
-3.578075	15
-4.30808	150
-4.76172	1500
-5.040473	15000
-4.836353	150000
-6.040473	1500sq
-6.040473	1503
-6.040473	150mileaday
-6.040473	150odd
-5.438414	151
-5.739443	1517
-6.040473	1518
-5.438414	152
-5.739443	1521
-6.040473	1527
-6.040473	1528
-5.137383	153
-6.040473	1533
-6.040473	1535
-6.040473	15374
-5.438414	154
-4.92653	155
-6.040473	1550
-6.040473	15500
-6.040473	1552
-6.040473	1558
-5.563352	156
-6.040473	1568
-5.739443	157
-5.563352	1570
-6.040473	1572
-5.341503	158
-6.040473	1586
-6.040473	1587
-6.040473	15876
-6.040473	158th
-5.739443	159
-6.040473	15907
-6.040473	1599
-6.040473	159900
-6.040473	159line
-6.040473	15amp
-6.040473	15carat
-6.040473	15day
-5.563352	15foot
-6.040473	15inch
-6.040473	15minute
-6.040473	15of35
-5.086231	15th
-5.739443	15thcentury
-6.040473	15thfloor
-5.739443	15yard
-6.040473	15year
-5.341503	15yearold
-3.855782	16
-4.894345	160
-5.563352	1600
-5.739443	16000
-5.739443	160000
-6.040473	1600sq
-6.040473	160mileanhour
-5.739443	160th
-5.438414	161
-6.040473	1610
-5.739443	1616
-6.040473	161991
-6.040473	162
-5.739443	16205
-6.040473	16294
-6.040473	162nd
-6.040473	1633
-6.040473	1634
-6.040473	16371712
-6.040473	1649
-5.195375	165
-6.040473	1650
-6.040473	16500
-6.040473	165000
-6.040473	1650000
-5.739443	165200
-6.040473	16598
-5.438414	166
-6.040473	1660
-6.040473	1662
-6.040473	1664
-6.040473	1667
-6.040473	167
-6.040473	1670
-5.739443	167000
-6.040473	1672
-6.040473	1675
-6.040473	1678
-5.739443	168
-5.739443	1681
-6.040473	168th
-5.195375	169
-6.040473	1695
-6.040473	169900
-6.040473	16by100ft
-5.739443	16game
-5.563352	16gauge
-6.040473	16minute
-6.040473	16story
-6.040473	16sur20
-5.262322	16th
-5.739443	16thcentury
-6.040473	16thlargest
-5.739443	16year
-5.341503	16yearold
-3.906934	17
-5.195375	170
-5.438414	1700
-5.563352	17000
-5.563352	170000
-6.040473	1700pound
-5.739443	1700s
-6.040473	1701
-6.040473	1710
-6.040473	1712
-6.040473	1713
-5.438414	1714
-6.040473	1719
-6.040473	17271804
-6.040473	1729
-5.563352	173
-6.040473	17357
-6.040473	1736
-6.040473	1739
-5.563352	174
-6.040473	1740
-6.040473	17461828
-6.040473	1749
-6.040473	17491803
-6.040473	174mountainroad
-6.040473	174th
-4.961292	175
-6.040473	1750
-6.040473	175000
-6.040473	1750sq
-6.040473	1751
-6.040473	175100
-6.040473	175ton
-5.739443	176
-6.040473	17601830
-6.040473	1763
-6.040473	1765
-6.040473	17661854
-6.040473	1767
-5.563352	177
-6.040473	1771
-6.040473	1775
-5.739443	1776
-6.040473	17779
-5.438414	178
-6.040473	1783
-6.040473	1785
-6.040473	1787
-5.739443	1789
-5.563352	179
-6.040473	179000
-6.040473	1791
-6.040473	1799
-6.040473	17plus
-6.040473	17point
-6.040473	17room
-4.76172	17th
-5.563352	17thcentury
-6.040473	17thranked
-6.040473	17to18
-5.739443	17year
-5.040473	17yearold
-3.78762	18
-5.086231	180
-5.137383	1800
-5.341503	18000
-5.739443	180000
-6.040473	18000circulation
-6.040473	18000squarefoot
-6.040473	18005220588
-6.040473	1800acre
-5.341503	1800s
-6.040473	1800seat
-6.040473	1801
-6.040473	1803
-6.040473	180500
-5.739443	1808
-5.739443	180degree
-6.040473	180foot
-6.040473	180mileanhour
-6.040473	180mileperhour
-6.040473	180th
-6.040473	181
-6.040473	1810
-6.040473	1812
-6.040473	1813
-6.040473	1815
-6.040473	1816
-6.040473	1819
-6.040473	181st
-5.739443	182
-6.040473	1820
-6.040473	18231906
-6.040473	1825
-6.040473	1829
-5.438414	183
-6.040473	183000
-6.040473	1830s
-6.040473	1831
-6.040473	1832560
-6.040473	1835
-6.040473	1836
-6.040473	1838
-6.040473	184
-6.040473	18400
-6.040473	1840s
-6.040473	1841
-5.195375	1846
-6.040473	1848
-5.563352	1849
-5.438414	185
-6.040473	18500
-5.739443	1855
-6.040473	1857
-6.040473	1858
-5.739443	186
-6.040473	1860
-5.438414	1860s
-6.040473	1863
-6.040473	18641933
-5.341503	1865
-6.040473	1866
-5.739443	1867
-5.438414	1868
-6.040473	18690
-6.040473	187
-5.739443	1870
-6.040473	18735
-5.739443	1875
-6.040473	18761948
-5.739443	1877
-5.195375	1878
-6.040473	1879
-5.739443	188
-6.040473	1880
-5.438414	1880s
-6.040473	1881
-6.040473	18811965
-5.563352	1883
-5.739443	1884
-6.040473	188485
-5.563352	1885
-6.040473	1886
-6.040473	1887
-6.040473	1888
-6.040473	1889
-5.739443	189
-5.563352	1890
-6.040473	189000
-5.739443	1893
-6.040473	1895
-5.563352	1898
-5.739443	1899
-6.040473	18acrelot
-6.040473	18anhour
-5.739443	18hole
-6.040473	18hour
-5.739443	18monthold
-5.739443	18point
-6.040473	18room
-4.92653	18th
-5.086231	18thcentury
-6.040473	18wheelers
-6.040473	18yard
-6.040473	18year
-5.262322	18yearold
-3.864382	19
-5.195375	190
-5.563352	1900
-6.040473	19000
-6.040473	190000
-6.040473	190091
-5.438414	1900s
-6.040473	1901
-5.739443	1902
-5.563352	1903
-5.739443	1904
-5.438414	1905
-5.739443	1906
-6.040473	190667
-5.739443	1907
-6.040473	1908
-5.739443	1909
-5.137383	191
-5.438414	1910
-6.040473	1910s
-5.563352	1911
-5.262322	1912
-5.438414	1913
-6.040473	19132006
-5.739443	1914
-5.438414	1915
-5.563352	1916
-6.040473	19163
-5.262322	1917
-6.040473	19174
-6.040473	1917era
-5.438414	1918
-6.040473	191886
-6.040473	1919
-6.040473	191room
-6.040473	192
-5.563352	1920
-4.864382	1920s
-6.040473	1921
-5.341503	1922
-6.040473	1923
-5.438414	1924
-5.438414	1925
-5.739443	1926
-5.086231	1927
-5.195375	1928
-4.999081	1929
-5.563352	193
-5.563352	1930
-4.549112	1930s
-5.438414	1931
-5.262322	1932
-5.137383	1933
-6.040473	1934
-4.894345	1935
-5.438414	1936
-6.040473	193639
-5.137383	1937
-5.137383	1938
-4.864382	1939
-5.438414	1940
-6.040473	19401993
-5.040473	1940s
-6.040473	1940sstyle
-5.341503	1941
-6.040473	19411945
-5.195375	1942
-5.040473	1943
-5.438414	1944
-4.864382	1945
-4.999081	1946
-5.137383	1947
-4.836353	1948
-5.086231	1949
-5.262322	195
-4.864382	1950
-6.040473	195000
-4.521959	1950s
-6.040473	1950sera
-5.341503	1951
-5.086231	1952
-5.195375	1953
-5.739443	1954
-5.262322	1955
-4.864382	1956
-4.739443	1957
-6.040473	19572006
-5.086231	1958
-6.040473	195881
-5.086231	1959
-5.739443	196
-4.92653	1960
-4.438414	1960s
-6.040473	1960sstyle
-5.040473	1961
-5.040473	1962
-5.086231	1963
-6.040473	1963October
-5.137383	1964
-6.040473	19641995
-4.961292	1965
-6.040473	19651972
-4.999081	1966
-6.040473	19661976
-6.040473	196676
-4.642533	1967
-4.864382	1968
-6.040473	196869
-6.040473	196890
-4.593315	1969
-5.563352	197
-4.864382	1970
-4.248082	1970s
-4.92653	1971
-4.894345	1972
-6.040473	197274
-6.040473	197276
-4.864382	1973
-6.040473	197374
-4.894345	1974
-4.609109	1975
-6.040473	197500
-4.642533	1976
-4.785201	1977
-4.894345	1978
-4.6255	1979
-5.739443	198
-4.578075	1980
-6.040473	19802005
-4.269621	1980s
-6.040473	1980sinspired
-4.810024	1981
-4.810024	1982
-6.040473	198283
-4.642533	1983
-4.69805	1984
-4.864382	1985
-6.040473	19851986
-5.040473	1986
-4.642533	1987
-6.040473	19872005
-4.961292	1988
-4.69805	1989
-6.040473	199
-4.549112	1990
-6.040473	199000
-5.739443	19902005
-6.040473	199095
-4.207964	1990s
-4.484171	1991
-4.508995	1992
-6.040473	199296
-4.449409	1993
-6.040473	199394
-4.397021	1994
-4.642533	1995
-4.472271	1996
-6.040473	199697
-4.32447	1997
-6.040473	199798
-4.32447	1998
-5.739443	199899
-4.177151	1999
-6.040473	19June
-6.040473	19acre
-6.040473	19gun
-6.040473	19inch
-5.438414	19story
-4.660262	19th
-6.040473	19thCentury
-4.785201	19thcentury
-5.739443	19yard
-6.040473	19yarder
-5.262322	19yearold
-6.040473	1PM
-4.961292	1STROUND
-5.563352	1acre
-5.563352	1bath
-5.563352	1bedroom
-5.438414	1car
-6.040473	1in20
-6.040473	1inchthick
-5.438414	1pm
-5.195375	1st
-6.040473	1to6
-5.262322	1yard
-3.33461	2
-3.414133	20
-4.031873	200
-3.861496	2000
-4.642533	20000
-4.92653	200000
-6.040473	2000s
-3.983568	2001
-3.979775	2002
-6.040473	200204
-6.040473	20023
-6.040473	200263473
-3.870212	2003
-5.739443	20034
-3.752672	2004
-5.739443	20045
-3.502654	2005
-6.040473	20056
-6.040473	2005s
-3.438413	2006
-6.040473	20067
-3.437329	2007
-5.739443	20078
-4.142846	2008
-6.040473	200809
-4.836353	2009
-6.040473	200megabyte
-6.040473	200mileanhour
-6.040473	200page
-6.040473	200plus
-6.040473	200pm
-5.739443	200th
-6.040473	200yearold
-4.810024	201
-4.810024	2010
-5.341503	2011
-5.341503	2012
-5.739443	2013
-5.739443	2015
-5.739443	2016
-6.040473	20174
-5.563352	202
-5.563352	2020
-6.040473	2021
-6.040473	2024
-6.040473	202500
-4.521959	203
-6.040473	203000
-6.040473	2033271313
-6.040473	2039727557
-5.739443	204
-6.040473	2040
-6.040473	20400
-6.040473	2044136
-4.836353	205
-6.040473	205000
-6.040473	206
-6.040473	206000
-6.040473	2071
-6.040473	2071313
-6.040473	207yearold
-5.563352	208
-6.040473	2080
-6.040473	20806
-6.040473	20814
-6.040473	208216
-6.040473	2088000
-6.040473	20885
-6.040473	2089
-5.195375	209
-6.040473	20by100ft
-6.040473	20city
-6.040473	20foot
-6.040473	20foottall
-6.040473	20game
-5.739443	20minute
-5.563352	20page
-5.739443	20point
-5.040473	20s
-6.040473	20something
-5.739443	20somethings
-4.46069	20th
-6.040473	20thCentury
-5.137383	20thcentury
-5.739443	20unit
-5.341503	20year
-5.341503	20yearold
-3.597994	21
-4.609109	210
-6.040473	21000
-6.040473	2101
-5.739443	2105
-6.040473	2108squarefoot
-5.563352	211
-5.739443	2110
-6.040473	21101
-6.040473	2112500
-6.040473	2114
-6.040473	21174
-3.623833	212
-5.563352	2120
-6.040473	212100
-6.040473	2122066700
-6.040473	2122552923
-6.040473	2122553900
-6.040473	2122794200
-6.040473	2122884100
-6.040473	2123626600
-6.040473	2124
-6.040473	2124264160
-6.040473	2125
-6.040473	2125053733
-6.040473	2126146464
-6.040473	2128734448
-5.563352	213
-5.195375	214
-6.040473	21415
-5.438414	215
-6.040473	2153
-6.040473	215pm
-6.040473	216
-6.040473	2160
-6.040473	2162
-6.040473	21695
-5.739443	217
-6.040473	21761
-5.341503	218
-6.040473	2182810
-6.040473	218th
-5.262322	219
-6.040473	2190736
-6.040473	2193132
-6.040473	2195
-5.739443	219900
-6.040473	2199265
-6.040473	21film
-6.040473	21gauge
-4.836353	21st
-5.086231	21stcentury
-6.040473	21yard
-5.563352	21yearold
-3.735122	22
-5.195375	220
-5.563352	2200
-5.739443	22000
-6.040473	220000
-6.040473	22042
-5.739443	22079
-6.040473	220pound
-6.040473	220room
-6.040473	221
-6.040473	22134
-6.040473	2215461
-6.040473	2216666
-6.040473	2218485
-5.438414	222
-6.040473	2222656
-6.040473	2225
-6.040473	2227070
-6.040473	223
-6.040473	2230
-6.040473	2230544
-5.739443	2234722
-6.040473	223500
-5.739443	224
-6.040473	2245402
-6.040473	2245420
-6.040473	2245800
-5.086231	225
-5.739443	225000
-6.040473	2252700
-6.040473	2257squarefoot
-5.739443	226
-6.040473	2262
-6.040473	2265759
-6.040473	2266100
-6.040473	2268080
-6.040473	22685
-5.739443	227
-6.040473	2274177
-6.040473	2277
-6.040473	228
-6.040473	228000
-6.040473	2287665
-6.040473	2288200
-4.864382	229
-6.040473	2292757
-6.040473	2293049
-6.040473	2295690
-6.040473	229900
-6.040473	22caliber
-4.6255	22nd
-6.040473	22to18
-6.040473	22yard
-6.040473	22year
-5.438414	22yearold
-3.807477	23
-4.496405	230
-5.563352	2300
-5.739443	23000
-6.040473	230000
-6.040473	2304
-6.040473	2305351
-6.040473	230pm
-6.040473	231
-6.040473	2310
-6.040473	231000
-6.040473	2312824
-6.040473	2315399
-6.040473	232
-5.739443	2320
-5.739443	2321006
-6.040473	2321252
-6.040473	2323966
-6.040473	2329555
-4.999081	233
-6.040473	2331006
-5.040473	234
-6.040473	23473
-6.040473	235
-6.040473	235000
-6.040473	2350188
-6.040473	2359
-6.040473	235K
-5.563352	236
-6.040473	2368333
-5.341503	237
-6.040473	2374
-5.341503	238
-6.040473	2387926
-6.040473	2388833
-5.739443	239
-5.739443	2393
-6.040473	2393262
-4.508995	2396200
-6.040473	23acre
-6.040473	23foothigh
-6.040473	23gauge
-6.040473	23percentagepoint
-5.262322	23rd
-6.040473	23yard
-5.341503	23yearold
-3.815164	24
-4.999081	240
-5.563352	24000
-6.040473	240000
-6.040473	24000squarefoot
-6.040473	2400sq
-6.040473	2400squarefoot
-6.040473	240acre
-6.040473	240question
-5.739443	2413
-5.195375	2417
-5.739443	242
-5.739443	2420800
-6.040473	2421063
-6.040473	24220
-6.040473	2423
-6.040473	24257
-6.040473	243
-6.040473	2434
-6.040473	2434940
-6.040473	243820
-6.040473	244
-6.040473	2441
-6.040473	2445
-4.961292	245
-6.040473	24500
-6.040473	24500000
-6.040473	2453959
-6.040473	2455672
-5.739443	246
-6.040473	2464422
-6.040473	2467469
-5.341503	247
-5.739443	2477800
-5.563352	248
-6.040473	2480
-6.040473	24858
-6.040473	249
-6.040473	249000
-6.040473	2494
-6.040473	2495200
-6.040473	2496100
-5.739443	249900
-6.040473	249kiloton
-6.040473	249th
-6.040473	24footwide
-5.137383	24hour
-6.040473	24houraday
-5.438414	24hr
-6.040473	24ounce
-5.739443	24point
-5.341503	24th
-6.040473	24year
-6.040473	24yearold
-3.543544	25
-4.593315	250
-4.718254	2500
-4.660262	25000
-4.961292	250000
-6.040473	25000squarefoot
-6.040473	250pound
-6.040473	250th
-5.563352	251
-6.040473	2511
-6.040473	2516100
-6.040473	2516830
-5.438414	252
-6.040473	252nd
-6.040473	2532595
-5.739443	2539983
-5.563352	254
-6.040473	2540
-5.341503	255
-6.040473	255000
-6.040473	2552
-6.040473	2553476
-5.739443	2553626
-5.739443	2554037
-5.739443	2555793
-6.040473	2558097
-6.040473	256
-6.040473	2566
-6.040473	257
-6.040473	2570
-6.040473	2576
-5.563352	258
-6.040473	2583788
-6.040473	2588
-6.040473	2589595
-5.563352	259
-5.739443	259000
-5.341503	25A
-6.040473	25TH
-5.739443	25acre
-5.739443	25by100ft
-6.040473	25by25foot
-6.040473	25footwide
-6.040473	25member
-5.438414	25pm
-4.92653	25th
-5.739443	25yard
-5.438414	25yearold
-3.870212	26
-5.438414	260
-5.739443	2600
-6.040473	26000
-5.563352	260000
-6.040473	26000acre
-6.040473	2604700
-6.040473	2607853
-5.739443	260pound
-5.739443	261
-6.040473	2616930
-6.040473	2619160
-5.563352	262
-6.040473	2622
-5.739443	263
-6.040473	263000
-6.040473	2632144
-5.563352	264
-5.438414	265
-6.040473	265000
-6.040473	2651040
-6.040473	2652663
-6.040473	2657
-6.040473	2663008
-6.040473	2666811
-6.040473	2668421
-5.341503	267
-6.040473	2675
-6.040473	268
-6.040473	2687224
-6.040473	26acre
-6.040473	26page
-5.262322	26th
-6.040473	26thranked
-5.563352	26yearold
-3.891254	27
-5.739443	270
-5.739443	2700
-5.438414	27000
-5.739443	270000
-6.040473	2700squarefoot
-6.040473	2704
-6.040473	2708076
-6.040473	27084
-5.739443	27111
-5.739443	2711442
-6.040473	2714
-6.040473	2718
-6.040473	272
-5.739443	2720
-6.040473	2721
-6.040473	2721squarefoot
-6.040473	2722
-5.739443	2724
-6.040473	272450
-6.040473	2725
-6.040473	273
-6.040473	2731452
-6.040473	2739121
-6.040473	274
-6.040473	2741160
-6.040473	2744squarefoot
-5.262322	275
-5.739443	2750
-6.040473	275000
-6.040473	2750squarefoot
-6.040473	2751
-6.040473	2757
-6.040473	275708
-6.040473	275th
-6.040473	276
-5.739443	277
-6.040473	278000
-6.040473	2784585
-6.040473	2787769
-5.563352	279
-5.341503	2794200
-6.040473	2797
-5.563352	27member
-6.040473	27of35
-6.040473	27player
-6.040473	27sq
-5.262322	27th
-5.195375	27yearold
-3.847349	28
-5.040473	280
-5.739443	2800
-5.341503	28000
-4.999081	281
-6.040473	2810
-5.739443	282
-6.040473	283
-6.040473	283065089
-6.040473	2835
-6.040473	284
-6.040473	284000
-6.040473	2844
-5.040473	285
-5.739443	28500
-5.739443	285000
-6.040473	28508
-5.563352	2856000
-6.040473	2856015
-6.040473	2863760
-6.040473	287
-6.040473	2879
-6.040473	288
-6.040473	2880700
-5.739443	2881500
-6.040473	2887
-6.040473	2888920
-6.040473	289900
-6.040473	28building
-6.040473	28film
-6.040473	28pm
-6.040473	28story
-5.262322	28th
-5.341503	28yearold
-3.950568	29
-5.563352	290
-5.563352	2900
-6.040473	2921305
-5.739443	2924840
-6.040473	292500
-5.739443	2930674
-6.040473	2942145
-5.438414	295
-5.739443	2950
-6.040473	295000
-6.040473	2951160
-5.563352	296
-6.040473	297
-6.040473	2973
-6.040473	2976squarefoot
-6.040473	2979243
-6.040473	298000
-6.040473	2984
-6.040473	2986
-5.563352	299
-5.739443	299000
-6.040473	2991
-6.040473	2992
-6.040473	2993
-6.040473	29acre
-6.040473	29by100ft
-6.040473	29month
-4.999081	29th
-6.040473	29thfloor
-6.040473	29year
-6.040473	29yearolds
-5.739443	2A
-6.040473	2Nite
-5.739443	2bath
-5.438414	2bedroom
-5.040473	2car
-5.563352	2family
-6.040473	2inch
-5.563352	2monthold
-4.894345	2nd
-6.040473	2of4
-5.739443	2pm
-5.195375	2point
-6.040473	2quart
-6.040473	2rupee
-5.438414	2story
-6.040473	2yard
-6.040473	2yardline
-5.262322	2yearold
-3.386297	3
-3.536683	30
-4.207964	300
-4.46069	3000
-5.195375	30000
-4.678746	300000
-6.040473	3000seat
-6.040473	3000th
-6.040473	3001831
-6.040473	3006
-6.040473	300C
-5.341503	300page
-6.040473	300question
-6.040473	300student
-5.341503	301
-6.040473	302
-5.341503	3024
-6.040473	3033257347
-6.040473	303361
-6.040473	303rd
-5.438414	304
-6.040473	305
-6.040473	306yard
-5.563352	307
-5.086231	3074100
-5.563352	3074747
-6.040473	3077171
-5.739443	308
-6.040473	3080830
-6.040473	308seat
-6.040473	309
-6.040473	30acre
-6.040473	30caliber
-5.438414	30day
-6.040473	30foot
-6.040473	30m
-6.040473	30minute
-5.086231	30s
-5.195375	30second
-5.739443	30something
-6.040473	30stock
-4.836353	30th
-6.040473	30thanniversary
-5.739443	30yard
-5.438414	30year
-5.341503	30yearold
-3.961292	31
-5.563352	310
-5.739443	31000
-6.040473	3102785444
-5.262322	311
-6.040473	3113
-6.040473	3117
-6.040473	3118squarefoot
-5.739443	312
-5.739443	3121
-6.040473	3127
-6.040473	3129squarefoot
-5.341503	313
-6.040473	314
-5.739443	314000
-5.438414	315
-6.040473	3152
-6.040473	316
-6.040473	316000
-5.739443	317
-6.040473	3177737
-6.040473	318
-5.739443	319
-5.563352	3195300
-6.040473	3196044
-6.040473	3198
-6.040473	31percent
-6.040473	31seat
-4.894345	31st
-6.040473	31yard
-6.040473	31yearold
-4.148379	32
-5.262322	320
-5.438414	3200
-6.040473	32000ayear
-6.040473	32054700
-6.040473	32071
-5.739443	321
-6.040473	3218
-5.438414	323
-6.040473	3231426
-6.040473	3239
-6.040473	324
-6.040473	3244
-6.040473	3244050
-6.040473	324acre
-5.563352	325
-6.040473	32500
-5.341503	325000
-6.040473	325093
-6.040473	3267270
-6.040473	3272
-6.040473	3281600
-6.040473	329
-6.040473	329000
-6.040473	329900
-5.739443	32BJ
-6.040473	32BJs
-5.739443	32acre
-6.040473	32foot
-5.438414	32nd
-6.040473	32ounce
-5.739443	32yard
-6.040473	32year
-5.563352	32yearold
-4.214398	33
-4.76172	330
-5.438414	3300
-5.563352	33000
-5.563352	330000
-6.040473	3301
-6.040473	3306
-5.739443	331
-6.040473	33101
-5.739443	332
-6.040473	3320
-6.040473	332626
-6.040473	3338511
-5.739443	334
-6.040473	3347479
-5.563352	335
-6.040473	3352
-5.438414	336
-6.040473	337
-6.040473	337000
-5.438414	3371500
-6.040473	3379563
-6.040473	338
-5.739443	339
-6.040473	3398
-5.438414	33rd
-5.438414	33yearold
-4.195375	34
-5.563352	340
-6.040473	34000
-6.040473	340000
-6.040473	3400769
-5.739443	3416
-6.040473	3417
-6.040473	3419
-6.040473	3426715
-5.086231	3428
-6.040473	343
-6.040473	3430007
-6.040473	3433
-5.739443	344
-6.040473	3443846
-5.341503	345
-6.040473	345200
-6.040473	347
-6.040473	348
-6.040473	3482
-6.040473	349
-6.040473	3492824
-6.040473	3493
-6.040473	34acre
-5.195375	34th
-6.040473	34ton
-6.040473	34year
-5.195375	34yearold
-4.019284	35
-4.785201	350
-5.040473	3500
-5.195375	35000
-5.438414	350000
-6.040473	3500bottle
-6.040473	3513250
-5.739443	3515
-6.040473	352
-5.341503	3523101
-6.040473	3528
-5.739443	353
-6.040473	3530
-6.040473	354
-6.040473	354500
-6.040473	355
-6.040473	355000
-6.040473	3550300
-6.040473	3550squarefoot
-6.040473	3551191
-6.040473	3555
-6.040473	357500
-6.040473	358
-5.341503	3587501
-5.438414	35th
-5.739443	35yard
-6.040473	35yardline
-5.739443	35yearold
-4.255144	36
-5.438414	360
-5.739443	3600
-6.040473	36000
-5.563352	360000
-6.040473	361
-5.739443	362
-6.040473	3620329
-5.341503	3622
-6.040473	3625
-5.438414	3626000
-6.040473	3634
-5.739443	364
-6.040473	3647
-5.739443	365
-6.040473	365000
-6.040473	3662
-6.040473	3673418
-6.040473	3674
-6.040473	368
-6.040473	369
-6.040473	369000
-5.739443	3693101
-6.040473	36hole
-5.438414	36th
-6.040473	36yard
-5.341503	36yearold
-4.368375	37
-5.438414	370
-5.739443	3700
-5.739443	37000
-6.040473	371
-6.040473	3717
-6.040473	3721
-6.040473	374
-5.739443	375
-6.040473	375000
-6.040473	376
-6.040473	3761
-6.040473	3762
-5.739443	3764343
-6.040473	377
-5.739443	3772982
-6.040473	3774455
-6.040473	3785acre
-6.040473	3793359
-6.040473	3796
-6.040473	3798285
-6.040473	37inch
-6.040473	37kiloton
-5.195375	37th
-6.040473	37yard
-5.739443	37yearold
-4.292285	38
-5.563352	380
-6.040473	38000
-6.040473	380000
-6.040473	3800seat
-5.563352	3803895
-5.137383	3810075
-6.040473	3817511
-5.739443	382
-6.040473	3827197
-6.040473	383
-5.563352	385
-5.739443	385000
-6.040473	3851919
-6.040473	3878300
-6.040473	3879
-5.739443	388
-6.040473	3882218
-6.040473	388700
-6.040473	3889525
-6.040473	389
-5.341503	38TH
-5.086231	38th
-6.040473	38yard
-6.040473	38yearold
-4.438414	39
-6.040473	390
-6.040473	3900
-6.040473	39000
-6.040473	3900squarefoot
-5.739443	391
-5.563352	3931
-6.040473	3949squarefoot
-5.341503	395
-6.040473	3952412
-6.040473	3952470
-6.040473	3969
-6.040473	3975
-6.040473	398
-6.040473	3981766
-6.040473	3982616
-6.040473	3985
-5.563352	399
-6.040473	39th
-6.040473	39tube
-5.563352	39yearold
-6.040473	3A
-6.040473	3B
-5.739443	3D
-5.739443	3G
-5.563352	3M
-6.040473	3Ms
-5.739443	3PM
-6.040473	3abarrel
-5.262322	3bedroom
-6.040473	3by5foot
-6.040473	3by5inch
-5.086231	3car
-5.739443	3liter
-5.341503	3point
-5.195375	3pointer
-5.137383	3pointers
-4.864382	3rd
-6.040473	3s
-6.040473	3story
-6.040473	3wood
-6.040473	3yard
-6.040473	3yardline
-6.040473	3yardsandacloudofdust
-5.137383	3yearold
-3.412084	4
-3.841816	40
-4.417224	400
-4.642533	4000
-4.92653	40000
-4.894345	400000
-6.040473	400000squarefoot
-6.040473	40000squarefoot
-6.040473	4000member
-5.739443	4000squarefoot
-6.040473	4000yearold
-6.040473	400horsepower
-5.341503	400meter
-6.040473	400pound
-6.040473	400sq
-6.040473	400th
-6.040473	401
-5.086231	401k
-5.438414	401ks
-6.040473	402
-5.739443	4023
-6.040473	4024
-5.563352	404
-6.040473	4042887773
-6.040473	4043550321
-6.040473	4043701863
-6.040473	4043710101
-6.040473	4043784900
-6.040473	4045
-6.040473	4045213737
-6.040473	4045897506
-6.040473	4046241071
-6.040473	4046275786
-6.040473	4046882107
-6.040473	4048151605
-6.040473	4048745642
-6.040473	4049611212
-5.739443	405
-6.040473	406
-6.040473	406366
-6.040473	406page
-6.040473	407
-6.040473	408
-6.040473	409
-5.739443	4094300
-6.040473	40acre
-6.040473	40by100ft
-6.040473	40degree
-6.040473	40foothigh
-6.040473	40hour
-6.040473	40minute
-6.040473	40plusyear
-4.864382	40s
-6.040473	40somethings
-5.341503	40th
-5.739443	40ton
-6.040473	40yard
-5.739443	40year
-5.739443	40yearold
-4.484171	41
-5.195375	410
-5.137383	4100
-6.040473	410000
-6.040473	4101
-5.739443	411
-5.438414	4114
-6.040473	4119671
-5.086231	412
-5.739443	4121
-6.040473	4129
-6.040473	413
-6.040473	4130303
-6.040473	4131
-6.040473	4144144
-6.040473	414th
-5.739443	415
-6.040473	4150
-6.040473	415000
-6.040473	4153
-5.563352	4155500
-6.040473	4157
-6.040473	415horsepower
-5.438414	416
-6.040473	4164
-6.040473	41750
-6.040473	4177
-6.040473	418
-6.040473	4182
-6.040473	419
-5.563352	41st
-6.040473	41story
-5.262322	41yearold
-4.472271	42
-5.739443	420
-5.739443	4200
-5.739443	42000
-5.341503	420000
-6.040473	42005
-6.040473	4203893
-6.040473	4208
-6.040473	420800
-6.040473	4208080
-6.040473	421
-5.739443	421a
-6.040473	422
-6.040473	422000
-5.563352	4221480
-6.040473	4222770
-5.563352	423
-6.040473	4231558
-6.040473	4231770
-6.040473	4233500
-6.040473	4234
-6.040473	4237611
-5.563352	4239
-6.040473	424
-6.040473	4243027
-4.836353	425
-5.739443	425000
-6.040473	4266470
-6.040473	427
-6.040473	4278
-6.040473	428000
-6.040473	4284220
-6.040473	42ND
-6.040473	42d
-5.739443	42inch
-4.549112	42nd
-5.739443	42yard
-5.563352	42yearold
-4.508995	43
-4.609109	430
-5.739443	4300
-6.040473	430000
-5.739443	4302646
-5.739443	431
-6.040473	4310606
-5.739443	4312700
-6.040473	4316501
-5.739443	432
-6.040473	4321234
-6.040473	4324080
-6.040473	4327250
-6.040473	4329525
-6.040473	433
-6.040473	434
-6.040473	4340222
-5.438414	4342
-6.040473	435
-6.040473	437
-6.040473	4384519
-6.040473	4388000
-6.040473	4391090
-6.040473	4393foot
-6.040473	4394570
-6.040473	43d
-5.040473	43rd
-6.040473	43yearold
-4.508995	44
-5.739443	440
-5.739443	440000
-6.040473	4407584
-6.040473	440yard
-6.040473	441
-6.040473	4417
-5.739443	44207
-5.739443	4432545
-6.040473	444
-5.739443	4440
-6.040473	444183
-6.040473	4446225
-6.040473	445
-6.040473	445000
-6.040473	4455
-6.040473	446
-6.040473	447
-6.040473	4472716
-6.040473	447719
-5.739443	449
-6.040473	449932
-4.999081	44th
-6.040473	44yard
-5.739443	44yearold
-4.195375	45
-4.894345	450
-5.438414	4500
-5.739443	45000
-5.341503	450000
-6.040473	450calorie
-6.040473	450squaremeter
-6.040473	450unit
-5.739443	4513938
-6.040473	4525417
-6.040473	453
-6.040473	4530
-6.040473	4540088
-6.040473	45443888
-5.563352	455
-6.040473	455000
-6.040473	456
-5.739443	459
-6.040473	4594
-6.040473	45by100ft
-6.040473	45foot
-6.040473	45mile
-6.040473	45s
-5.040473	45th
-5.739443	45yearold
-4.549112	46
-6.040473	460
-6.040473	4600
-6.040473	46000
-6.040473	460000
-6.040473	4609100
-6.040473	461
-6.040473	4622572
-5.438414	4629
-6.040473	463
-6.040473	4637890
-6.040473	4638500
-6.040473	464000
-6.040473	4641858
-5.739443	4642700
-5.739443	4647966
-6.040473	465
-6.040473	4656
-6.040473	4670600
-5.739443	468000
-6.040473	468056
-6.040473	469
-6.040473	469000
-5.563352	4697117
-6.040473	469900
-6.040473	46acre
-6.040473	46inch
-5.262322	46th
-6.040473	46yard
-6.040473	46yearold
-4.593315	47
-5.563352	470
-6.040473	4700
-6.040473	4705758
-6.040473	471500
-6.040473	4716608
-6.040473	4717
-6.040473	4723300
-6.040473	4729
-6.040473	4731452
-6.040473	4731576
-6.040473	4735
-6.040473	4736263
-5.739443	475
-6.040473	475000
-6.040473	4752845
-5.739443	4757710
-6.040473	4758592
-5.739443	477
-6.040473	4771021
-6.040473	4776625
-6.040473	4776688
-6.040473	4784630
-6.040473	4790885
-6.040473	47pm
-5.137383	47th
-5.739443	47yearold
-4.341503	48
-5.739443	48000
-6.040473	4809
-6.040473	4809481700
-6.040473	4813
-6.040473	4816
-6.040473	4818
-6.040473	4821899
-6.040473	4837
-5.739443	484
-6.040473	4844squarefoot
-6.040473	4849337
-6.040473	4864448
-6.040473	4868
-6.040473	4874401
-6.040473	4883900
-6.040473	4884800
-6.040473	48865
-6.040473	4887
-5.739443	489
-6.040473	489000
-6.040473	4897180
-6.040473	48minute
-5.739443	48pm
-5.563352	48th
-5.438414	48yearold
-4.472271	49
-6.040473	490
-6.040473	49000
-6.040473	4905
-6.040473	4907500
-6.040473	490sq
-6.040473	491111
-6.040473	49151
-6.040473	493
-6.040473	4930
-6.040473	495
-6.040473	4959400
-6.040473	4963809
-6.040473	4967070
-6.040473	497
-6.040473	497000
-5.739443	497111730000
-6.040473	4971120260
-6.040473	4971120480
-6.040473	497112377770
-6.040473	4971191125685
-6.040473	4977990
-6.040473	498
-6.040473	4989000
-6.040473	4995
-6.040473	49ERSAllocated
-6.040473	49ERSFired
-4.894345	49ers
-5.739443	49th
-6.040473	49yard
-6.040473	4A
-6.040473	4H
-6.040473	4Runner
-5.739443	4acre
-6.040473	4bath
-5.086231	4bedroom
-6.040473	4by7foot
-6.040473	4dayold
-6.040473	4foot
-6.040473	4foothigh
-6.040473	4frnt
-6.040473	4of13
-6.040473	4ounce
-6.040473	4point
-6.040473	4quart
-6.040473	4ranked
-6.040473	4s
-6.040473	4story
-4.92653	4th
-5.086231	4yearold
-5.739443	4yearolds
-3.330356	5
-3.739443	50
-4.183141	500
-4.785201	5000
-4.678746	50000
-4.609109	500000
-6.040473	50000squarefoot
-5.739443	500horsepower
-6.040473	500index
-6.040473	500megabyte
-6.040473	500member
-6.040473	500pound
-4.836353	500stock
-5.739443	500word
-5.563352	5013330
-5.739443	502
-6.040473	503
-6.040473	5036212233
-5.563352	504
-6.040473	505
-6.040473	5050
-6.040473	5076539
-6.040473	508
-6.040473	5083
-6.040473	5084876444
-6.040473	5084876767
-6.040473	5084877487
-6.040473	509000
-6.040473	5094955
-6.040473	50by100ft
-6.040473	50footlong
-6.040473	50gigabyte
-5.739443	50minute
-4.92653	50s
-6.040473	50sdiner
-6.040473	50something
-4.961292	50th
-6.040473	50thbirthday
-5.739443	50ton
-6.040473	50yard
-6.040473	50yarder
-6.040473	50yardfield
-6.040473	50yardline
-6.040473	50year
-5.137383	50yearold
-4.496405	51
-5.438414	510
-6.040473	51000
-6.040473	5107651
-5.341503	511
-5.739443	512
-6.040473	5142
-6.040473	5149
-5.563352	515
-6.040473	515000
-6.040473	5152
-4.864382	516
-6.040473	5163540634
-6.040473	5164879600
-6.040473	5167649400
-5.739443	517
-6.040473	5172873
-6.040473	517horsepower
-6.040473	518
-6.040473	51805
-5.739443	5186728
-5.137383	5193
-5.341503	51st
-6.040473	51yearold
-4.578075	52
-5.739443	520
-5.739443	52000
-5.563352	521
-6.040473	522
-6.040473	523
-6.040473	52400
-5.563352	525
-6.040473	526
-6.040473	5275151
-6.040473	529
-6.040473	5291545
-6.040473	5295757
-6.040473	5298463
-5.195375	52nd
-6.040473	52week
-6.040473	52yard
-5.739443	52yearold
-4.718254	53
-4.785201	530
-5.438414	5301
-6.040473	531
-5.739443	5332111
-6.040473	5337235
-6.040473	5341672
-5.739443	5357710
-6.040473	536
-6.040473	5365557
-6.040473	5367663
-6.040473	538
-6.040473	5382132
-6.040473	5382404
-6.040473	539
-5.739443	5398778
-6.040473	53kilowatt
-6.040473	53man
-5.195375	53rd
-6.040473	53yard
-4.593315	54
-5.563352	540
-6.040473	5400
-6.040473	5400389
-6.040473	541
-6.040473	543
-6.040473	544
-5.563352	545
-6.040473	545000
-6.040473	5453
-6.040473	5456482
-6.040473	546
-5.739443	5467648
-6.040473	54926
-6.040473	5492787
-5.739443	5493200
-6.040473	5494411
-6.040473	54inch
-4.92653	54th
-6.040473	54year
-6.040473	54yearold
-4.262322	55
-5.563352	550
-5.739443	5500
-5.739443	55000
-6.040473	5500permonth
-6.040473	550lawyer
-6.040473	553
-6.040473	5540887
-6.040473	5544818
-6.040473	5546147
-6.040473	555
-5.739443	555000
-6.040473	556
-5.195375	5561137
-6.040473	5563715
-5.195375	5564450
-6.040473	559
-6.040473	5595
-6.040473	55N
-6.040473	55bar
-5.563352	55th
-6.040473	55yard
-5.563352	55yearold
-4.69805	56
-6.040473	560
-6.040473	5608912
-6.040473	5617204
-6.040473	5618327428
-6.040473	562498
-6.040473	5640
-6.040473	56720
-6.040473	56840
-6.040473	5685
-6.040473	569000
-6.040473	5697710
-5.739443	56th
-5.739443	56yearold
-4.864382	57
-5.739443	57000
-5.563352	5703676
-6.040473	5710500
-6.040473	5722750
-6.040473	5727153
-6.040473	57496
-5.563352	575
-5.563352	575000
-6.040473	5753
-6.040473	575sq
-6.040473	5761636
-5.739443	5762232
-6.040473	577
-6.040473	5772377
-6.040473	578041
-5.739443	5782266
-5.563352	579
-5.739443	57th
-4.609109	58
-5.739443	580
-6.040473	5800
-6.040473	58000
-6.040473	580000
-5.739443	5811212
-6.040473	5812700
-5.739443	5813080
-6.040473	5818810
-6.040473	582
-6.040473	5822121
-6.040473	584000
-6.040473	5848000
-6.040473	585000
-6.040473	5854001
-6.040473	5858
-6.040473	5860616
-5.739443	587
-6.040473	5871011
-6.040473	588
-6.040473	5885024
-6.040473	5897588
-5.563352	58th
-6.040473	58yard
-4.739443	59
-5.739443	5901
-6.040473	591
-6.040473	5913
-6.040473	5923614
-6.040473	5934
-6.040473	594
-6.040473	5952
-6.040473	5961
-6.040473	5966550
-6.040473	598
-6.040473	5982
-5.086231	59842
-6.040473	59899
-6.040473	598999
-6.040473	599
-6.040473	5990960
-6.040473	5995103
-5.195375	599999
-5.739443	59pm
-5.563352	59th
-6.040473	59yard
-6.040473	5A
-6.040473	5B
-5.438414	5acre
-5.739443	5bedroom
-6.040473	5by4inch
-6.040473	5foot10
-6.040473	5foot5
-6.040473	5foot6inch
-6.040473	5foot7
-5.563352	5liter
-6.040473	5mile
-6.040473	5rupee
-6.040473	5s
-6.040473	5seconds
-4.739443	5th
-6.040473	5weekold
-6.040473	5wood
-5.563352	5yard
-6.040473	5yardline
-5.137383	5yearold
-3.560467	6
-4.116194	60
-4.69805	600
-4.92653	6000
-5.195375	60000
-4.92653	600000
-6.040473	60000squarefoot
-5.739443	600squarefoot
-6.040473	600th
-6.040473	6018555
-5.563352	603
-6.040473	605000
-5.739443	606
-6.040473	607
-6.040473	608
-6.040473	6087
-4.718254	609
-6.040473	60acre
-5.739443	60foot
-6.040473	60foottall
-5.563352	60inch
-5.739443	60mile
-6.040473	60person
-6.040473	60point
-4.578075	60s
-5.739443	60story
-5.262322	60th
-6.040473	60year
-5.438414	60yearold
-4.718254	61
-4.961292	610
-5.739443	611
-6.040473	612
-6.040473	6146
-6.040473	6147
-5.563352	615
-6.040473	6150
-6.040473	617
-6.040473	618
-5.739443	619
-6.040473	6195318740
-6.040473	61st
-4.563352	62
-5.739443	6200
-6.040473	62000
-5.739443	6205000
-6.040473	6206815
-6.040473	620sq
-6.040473	6219
-6.040473	6221188
-6.040473	6221600
-6.040473	624
-6.040473	6242083
-5.341503	625
-6.040473	626
-6.040473	628
-6.040473	6280420
-6.040473	6286133
-6.040473	629
-6.040473	62by112ft
-5.739443	62mile
-5.739443	62nd
-5.739443	62yard
-6.040473	62yearold
-4.609109	63
-4.999081	630
-6.040473	630000
-4.508995	631
-6.040473	6315882
-6.040473	6317734
-6.040473	6326027
-6.040473	63465
-6.040473	6349
-6.040473	635000
-6.040473	6357
-6.040473	636
-6.040473	6364100
-5.739443	6384400
-5.739443	6385000
-6.040473	6389
-6.040473	63degree
-5.438414	63rd
-4.549112	64
-5.739443	640
-6.040473	64000
-6.040473	6427319
-6.040473	6436
-5.438414	645
-6.040473	6471515
-6.040473	648
-6.040473	64minute
-5.563352	64th
-4.241133	65
-5.438414	650
-6.040473	6500
-5.739443	650000
-6.040473	650480
-6.040473	65089
-6.040473	6509
-6.040473	650900
-5.739443	651
-6.040473	6531703
-6.040473	6538955
-6.040473	6544
-6.040473	6545423
-6.040473	6547785
-6.040473	655
-6.040473	6551883
-6.040473	6555414
-6.040473	6557
-6.040473	656
-6.040473	65601
-6.040473	657
-6.040473	6583200
-6.040473	65foot
-5.137383	65th
-6.040473	65thStreet
-6.040473	65yard
-5.438414	65yearold
-4.609109	66
-6.040473	660
-6.040473	6606
-6.040473	6632167
-6.040473	6648
-6.040473	665
-6.040473	665000
-5.739443	666
-6.040473	6673047
-6.040473	6674116
-6.040473	66777
-6.040473	6688squarefoot
-6.040473	669000
-6.040473	66by177ft
-6.040473	66th
-5.563352	66yearold
-4.92653	67
-6.040473	670
-5.438414	67000
-6.040473	6700squarefoot
-6.040473	672
-6.040473	6722709
-6.040473	6726874
-6.040473	6748194
-5.739443	675
-6.040473	6757369
-6.040473	6785000
-6.040473	6790027
-6.040473	6797254
-5.341503	67th
-6.040473	67ton
-4.739443	68
-6.040473	680
-6.040473	68000
-6.040473	6803
-6.040473	6808
-6.040473	6809
-6.040473	682000
-5.739443	6821574
-6.040473	683
-6.040473	684
-6.040473	685
-5.739443	6850008
-6.040473	6859007
-6.040473	6861
-5.563352	6866
-6.040473	687
-6.040473	6882029
-6.040473	6896151
-5.438414	68acre
-5.739443	68th
-4.785201	69
-6.040473	6900
-6.040473	6911555
-6.040473	6916500
-6.040473	6918888
-6.040473	6924664
-6.040473	6925469
-6.040473	6926768
-6.040473	693
-6.040473	6931
-6.040473	69341
-6.040473	695
-6.040473	6952747
-6.040473	696
-6.040473	6967
-6.040473	6972261
-6.040473	698
-5.739443	6980098
-6.040473	69804
-6.040473	699
-5.739443	69900
-6.040473	699000
-5.563352	69th
-6.040473	6A
-5.341503	6BLUMENTHALMartin
-6.040473	6COHENDorothy
-6.040473	6FISCHDr
-6.040473	6FRIEDMANRodney
-6.040473	6GRECOGabriel
-6.040473	6HIDARYMariel
-5.739443	6KATZIra
-6.040473	6KOHNProf
-5.563352	6KOLLEKTeddy
-6.040473	6KOLLEKTheodor
-5.739443	6KRESTONMartin
-6.040473	6MANHEIMER
-5.563352	6OLTARSHValerie
-5.739443	6ONEILLTrevor
-5.341503	6PARKERJack
-6.040473	6ROSENBERGEarl
-5.341503	6SCHMERTZHerman
-6.040473	6STRAUSSRobert
-6.040473	6SUNSHINE
-5.563352	6SUNSHINEAbraham
-6.040473	6SZARKOWSKIJill
-5.739443	6WALLACHIra
-6.040473	6foot10
-5.739443	6foot3
-6.040473	6foot4
-5.563352	6foot6
-6.040473	6foot8inch
-6.040473	6liter
-6.040473	6pm
-6.040473	6point
-5.739443	6s
-4.864382	6th
-5.739443	6van
-5.739443	6weekold
-5.563352	6yard
-5.438414	6yearold
-3.500144	7
-4.30808	70
-4.678746	700
-5.137383	7000
-5.262322	70000
-5.341503	700000
-6.040473	700plus
-6.040473	700seat
-5.563352	700squarefoot
-6.040473	700unit
-5.739443	702
-6.040473	703
-6.040473	7058
-6.040473	706
-6.040473	7064
-6.040473	7089400
-6.040473	70inch
-6.040473	70person
-6.040473	70plus
-4.836353	70s
-5.438414	70th
-5.438414	70yearold
-4.642533	71
-6.040473	710042
-6.040473	711
-6.040473	7111
-6.040473	713
-6.040473	715
-6.040473	716125
-4.521959	718
-6.040473	7186395511
-6.040473	7187770132
-5.739443	7191300
-6.040473	7199
-6.040473	71by154ft
-4.718254	72
-6.040473	7200
-6.040473	72000
-6.040473	7201593
-6.040473	7214
-5.262322	7216500
-6.040473	7224508
-6.040473	72262
-6.040473	7231169
-6.040473	7231744
-6.040473	7233470
-6.040473	724000
-6.040473	725
-5.739443	725000
-6.040473	7259500
-6.040473	726
-6.040473	7270212
-6.040473	7270764
-6.040473	7272737
-6.040473	7272881
-6.040473	7278110
-6.040473	7284057
-6.040473	7287000
-6.040473	7294196
-6.040473	72degree
-5.438414	72hour
-4.999081	72nd
-4.894345	73
-4.262322	730
-5.739443	73000
-5.040473	732
-6.040473	7328725970
-6.040473	7337837
-5.739443	735
-6.040473	735000
-6.040473	7354400
-6.040473	7358415
-5.262322	737
-6.040473	737400
-6.040473	7377592
-6.040473	737s
-6.040473	7395654
-6.040473	73rd
-5.040473	74
-5.739443	740000
-6.040473	7418849
-6.040473	743
-6.040473	7440111
-6.040473	74470
-6.040473	7448181
-6.040473	745
-6.040473	7464270
-6.040473	7472266
-6.040473	749000
-5.739443	74A
-5.739443	74th
-6.040473	74yearold
-4.234293	75
-5.563352	750
-5.739443	7500
-5.563352	75000
-5.086231	750000
-6.040473	75000squarefoot
-5.739443	7500squarefoot
-6.040473	750sq
-6.040473	7510066
-6.040473	753
-6.040473	7530190
-6.040473	7531
-6.040473	7532787
-6.040473	7554700
-5.739443	7555509
-6.040473	7557
-6.040473	7561707
-6.040473	7567
-6.040473	757
-6.040473	757200
-6.040473	7574676
-6.040473	7585521
-6.040473	7590333
-6.040473	75footlong
-5.739443	75minute
-5.438414	75th
-6.040473	75yard
-6.040473	75yearold
-4.864382	76
-5.739443	760
-6.040473	7600
-5.739443	760000
-6.040473	7607705000
-6.040473	7623
-6.040473	7623000
-6.040473	766
-6.040473	7661066
-6.040473	767
-5.739443	7674340
-6.040473	768
-6.040473	7690548
-5.739443	7695100
-6.040473	7695200
-6.040473	76ERSNamed
-6.040473	76ERSWaived
-5.563352	76ers
-4.961292	76th
-6.040473	76yearold
-4.76172	77
-6.040473	770
-6.040473	770000
-6.040473	770021
-6.040473	7704279292
-6.040473	770436
-6.040473	7707
-6.040473	7709398646
-6.040473	771
-6.040473	771817
-6.040473	772347
-6.040473	7737663
-6.040473	774
-6.040473	774900
-5.739443	7757300
-6.040473	7767746
-5.739443	777
-6.040473	7771089
-6.040473	7772
-6.040473	77781
-5.563352	77th
-5.739443	77yearold
-4.678746	78
-6.040473	780
-6.040473	7802300
-6.040473	781
-6.040473	7840077
-6.040473	7842084
-5.563352	787
-6.040473	7872755
-6.040473	7874282
-6.040473	788
-6.040473	7887166
-6.040473	7890430
-6.040473	7894070
-6.040473	789900
-5.341503	78th
-4.609109	79
-6.040473	790
-5.739443	791
-6.040473	792
-6.040473	793
-5.739443	7930pm
-6.040473	7948501
-6.040473	795000
-6.040473	7974500
-6.040473	799
-6.040473	799000
-6.040473	7991259
-5.438414	79pm
-5.563352	79th
-5.739443	79yearold
-6.040473	7Eleven
-5.739443	7acre
-6.040473	7foot2
-6.040473	7foothigh
-4.718254	7th
-6.040473	7yard
-5.563352	7yearold
-3.489023	8
-4.350277	80
-4.449409	800
-4.894345	8000
-6.040473	80000
-5.438414	800000
-6.040473	8000squarefoot
-6.040473	8003334604
-6.040473	8004534858
-6.040473	8007568077
-6.040473	8009722404
-5.739443	800s
-6.040473	801
-5.438414	802
-6.040473	8036487522
-5.739443	805
-6.040473	8060
-6.040473	8077400
-6.040473	80foothigh
-6.040473	80footlong
-6.040473	80inch
-6.040473	80pound
-4.961292	80s
-5.341503	80th
-6.040473	80year
-5.739443	80yearold
-4.894345	81
-5.739443	810
-6.040473	8100
-6.040473	811
-6.040473	812
-6.040473	813
-6.040473	817
-6.040473	8175
-6.040473	8178700
-6.040473	8188809007
-6.040473	819
-4.92653	81st
-6.040473	81yard
-6.040473	81yearold
-4.864382	82
-5.341503	820
-5.739443	8211
-6.040473	8218
-6.040473	8240707
-6.040473	8247777
-6.040473	825
-5.739443	825000
-6.040473	826
-6.040473	8272935
-6.040473	828
-5.438414	82nd
-5.563352	82yearold
-4.785201	83
-4.6255	830
-6.040473	831
-6.040473	8310359
-5.739443	8316672315
-6.040473	8316672345
-6.040473	8316672377
-6.040473	8316672403
-6.040473	8316672574
-6.040473	8316672800
-6.040473	8316673005
-6.040473	8317272
-6.040473	832
-6.040473	8341117
-5.739443	8342281
-6.040473	8350324
-6.040473	8356
-6.040473	8368923
-6.040473	8383
-6.040473	8384058
-6.040473	83acre
-6.040473	83rd
-4.836353	84
-6.040473	840
-6.040473	840290
-5.739443	844
-6.040473	844squarefoot
-4.961292	845
-6.040473	8456346110
-6.040473	8465777
-6.040473	8474
-6.040473	8483030
-6.040473	849000
-6.040473	8498355
-6.040473	8498400
-6.040473	84degree
-4.472271	85
-5.262322	850
-6.040473	8500
-6.040473	8502341111
-6.040473	8502366000
-6.040473	852
-6.040473	8523130
-6.040473	8526392
-6.040473	853
-6.040473	8534829
-6.040473	8549933
-6.040473	855
-6.040473	8551965
-6.040473	856
-6.040473	8570000
-6.040473	858
-6.040473	8584
-6.040473	8596651
-6.040473	85yearold
-4.999081	86
-4.472271	860
-6.040473	86000
-6.040473	8604455
-6.040473	8605275151
-6.040473	864
-6.040473	8646662
-6.040473	8647282
-6.040473	8663976520
-6.040473	8664045366
-6.040473	8664177365
-6.040473	8682315
-5.563352	8684444
-6.040473	8690376
-5.438414	86th
-6.040473	86yearold
-4.999081	87
-6.040473	87000
-6.040473	870000
-5.739443	8703100
-5.739443	8705570
-6.040473	8713600
-6.040473	872
-6.040473	8727727
-5.563352	873
-5.739443	8733400
-5.739443	875
-6.040473	875000
-6.040473	8751980
-5.739443	8755600
-6.040473	8755788
-5.739443	876
-6.040473	8762870
-5.563352	877
-6.040473	8784
-5.739443	879000
-6.040473	87th
-4.368375	88
-6.040473	880
-6.040473	881
-6.040473	8828585
-5.739443	8845404
-5.739443	8857119
-6.040473	8861
-5.563352	888
-5.739443	88th
-6.040473	88yard
-4.810024	89
-6.040473	890
-6.040473	897
-6.040473	8984
-6.040473	8986422
-5.137383	899999
-5.739443	89th
-6.040473	89yard
-6.040473	8bedroom
-6.040473	8foot
-6.040473	8of12
-6.040473	8pound
-5.739443	8s
-5.341503	8th
-5.086231	8yearold
-6.040473	8yearolds
-3.563352	9
-4.284598	90
-4.836353	900
-5.438414	9000
-5.341503	90000
-4.999081	900000
-6.040473	90000seat
-6.040473	900am
-6.040473	900s
-6.040473	900sq
-6.040473	901
-5.739443	90210
-6.040473	903
-6.040473	9033
-6.040473	9038
-6.040473	906
-6.040473	9075
-4.961292	908
-5.563352	9080
-6.040473	90degree
-5.563352	90minute
-6.040473	90point
-4.894345	90s
-5.563352	90th
-4.810024	91
-6.040473	910
-6.040473	910000
-6.040473	910sq
-4.46069	911
-5.739443	911s
-6.040473	912
-6.040473	9122200
-4.316197	914
-6.040473	9143811809
-6.040473	9146985968
-6.040473	9147933800
-6.040473	9153409
-6.040473	916
-5.739443	917
-6.040473	9186
-5.739443	919
-5.739443	9191904
-6.040473	91acre
-5.563352	91st
-4.894345	92
-5.563352	920
-6.040473	9200
-6.040473	92000
-6.040473	920930946
-6.040473	921
-6.040473	9211359
-6.040473	9213272
-5.739443	9215757
-6.040473	9216748
-6.040473	9217631
-5.739443	922
-6.040473	9227586
-6.040473	9229200
-6.040473	9238008
-6.040473	9239900
-5.739443	9240077
-6.040473	9244
-6.040473	9247206
-5.739443	9247771
-5.739443	9248144
-6.040473	9249529
-6.040473	925
-6.040473	925000
-6.040473	925sq
-5.739443	9284948
-6.040473	9289100
-6.040473	9299883
-5.262322	92nd
-6.040473	92y
-4.739443	93
-4.6255	930
-6.040473	9307588
-6.040473	930am
-5.739443	931
-6.040473	9327237
-6.040473	933
-6.040473	9333
-6.040473	934
-5.739443	9353900
-6.040473	9353960
-6.040473	937
-5.739443	9372047
-6.040473	9378000
-6.040473	9382002
-6.040473	9382782
-6.040473	9392900
-6.040473	93acre
-5.563352	93rd
-4.678746	94
-5.739443	940000
-6.040473	9415
-6.040473	94404
-6.040473	9440595
-6.040473	9442233
-5.262322	945
-6.040473	945am
-6.040473	9464868
-6.040473	949
-6.040473	9490384
-6.040473	9492478
-6.040473	9494717
-6.040473	94I
-6.040473	94th
-3.99515	95
-5.739443	950
-6.040473	9500
-6.040473	9514500
-5.739443	956
-6.040473	9563535
-6.040473	9586
-6.040473	959
-6.040473	959squarefoot
-6.040473	95th
-5.086231	96
-5.739443	960
-5.739443	960000
-6.040473	9608833
-6.040473	961
-6.040473	964
-6.040473	965
-6.040473	965000
-6.040473	9658999
-6.040473	9659177
-6.040473	9660002
-6.040473	9669700
-6.040473	967
-6.040473	9670480
-6.040473	9670700
-6.040473	9674
-6.040473	9675150
-6.040473	9691
-6.040473	9691101
-6.040473	9698262
-6.040473	96th
-4.718254	97
-6.040473	970
-6.040473	9707311160
-6.040473	9709256760
-6.040473	9710
-6.040473	9713700
-6.040473	9721
-6.040473	9722323
-4.593315	973
-6.040473	9733rd
-6.040473	975000
-6.040473	9777823
-6.040473	979000
-6.040473	97by151ft
-4.718254	98
-6.040473	9847007
-6.040473	985000
-6.040473	987
-6.040473	989000
-6.040473	9893187
-6.040473	9893270
-6.040473	9897699
-5.739443	9899319
-6.040473	98th
-4.316197	99
-6.040473	990
-6.040473	990sq
-6.040473	9931649
-6.040473	9940
-5.563352	995
-5.563352	9974144
-5.563352	9981
-5.563352	999
-6.040473	999000
-6.040473	9millimeter
-6.040473	9monthold
-5.137383	9th
-5.563352	9yard
-5.563352	9yearold
-1.041391	</s>
-99	<s>
-5.438801	<unk>
-2.801675	A
-4.438414	A1
-5.262322	A10
-6.040473	A1015
-5.262322	A11
-6.040473	A1114
-5.195375	A12
-6.040473	A1218
-5.739443	A13
-5.040473	A14
-6.040473	A1415
-6.040473	A1421
-5.262322	A15
-5.341503	A16
-5.739443	A1617
-6.040473	A17
-5.438414	A18
-6.040473	A1819
-6.040473	A19
-5.563352	A20
-6.040473	A2021
-5.739443	A2223
-6.040473	A28
-5.137383	A3
-6.040473	A310
-6.040473	A311
-6.040473	A37
-6.040473	A38
-6.040473	A39
-6.040473	A3H
-5.262322	A4
-5.739443	A5
-6.040473	A535976
-4.961292	A6
-5.563352	A7
-5.563352	A8
-6.040473	A816
-5.195375	A9
-6.040473	A913
-5.563352	AA
-5.739443	AAA
-5.563352	AARP
-6.040473	AB
-4.417224	ABC
-4.999081	ABCs
-6.040473	ABEL
-5.739443	ABOUT
-6.040473	ABRAHAM
-6.040473	ABRAMS
-6.040473	ABRAMSON
-6.040473	ABRUZZESE
-6.040473	ABS
-5.739443	ACCESS
-6.040473	ACDC
-6.040473	ACLU
-6.040473	ACNielsen
-5.739443	ACROSS
-5.739443	ACT
-6.040473	ACTIVISTS
-5.739443	ACTOR
-6.040473	ACTORS
-5.739443	ACTRESS
-6.040473	ADAMS
-6.040473	ADAMSRose
-6.040473	ADAPTED
-6.040473	ADDENDA
-6.040473	ADELE
-6.040473	ADMINISTRATION
-6.040473	ADMIRALSReleased
-6.040473	ADVENTURER
-6.040473	ADVENTURES
-5.341503	ADVERTISING
-6.040473	ADVISER
-6.040473	ADVOCATES
-5.563352	AE
-5.341503	AES
-5.739443	AESs
-6.040473	AFB
-6.040473	AFC
-6.040473	AFFAIR
-5.739443	AFFAIRS
-5.563352	AFIM
-5.739443	AFRICA
-6.040473	AFRO
-6.040473	AFTER
-6.040473	AG
-5.086231	AGENCIES
-6.040473	AGUAYO
-5.438414	AHEAD
-4.660262	AHL
-5.195375	AID
-5.137383	AIDS
-6.040473	AIDSrelated
-6.040473	AIRLINE
-6.040473	AITKEN
-6.040473	AK
-6.040473	AKSARBEN
-6.040473	ALABAMA
-5.563352	ALAN
-5.195375	ALBANY
-6.040473	ALBUMS
-6.040473	ALBUQUERQUE
-6.040473	ALCHEMIST
-5.438414	ALEX
-6.040473	ALEXANDERNorman
-6.040473	ALICE
-5.739443	ALIS
-6.040473	ALIVE
-5.438414	ALL
-6.040473	ALLEN
-6.040473	ALLIGATOR
-6.040473	ALLISON
-6.040473	ALMANAC
-6.040473	ALPEN
-5.438414	ALS
-6.040473	ALTAR
-6.040473	ALTERNADAD
-5.563352	ALTHOUGH
-6.040473	ALTMAN
-6.040473	ALZ
-5.739443	AM
-6.040473	AMARILLO
-6.040473	AMB
-6.040473	AMBIVALENCE
-6.040473	AMCEA
-5.739443	AMENITIES
-5.739443	AMERICA
-5.040473	AMERICAN
-5.739443	AMG
-6.040473	AMGEN
-6.040473	AMONG
-5.195375	AN
-6.040473	ANAHAD
-5.563352	ANAHEIM
-5.195375	ANALYSIS
-6.040473	ANATOLE
-6.040473	ANATOMY
-4.22756	AND
-6.040473	ANDERS
-6.040473	ANDERSON
-6.040473	ANDREA
-6.040473	ANEMONA
-5.563352	ANGELES
-6.040473	ANGELOU
-6.040473	ANGELSDesignated
-5.739443	ANN
-5.739443	ANNIE
-5.739443	ANNUAL
-6.040473	ANSA
-5.739443	ANSWER
-6.040473	ANSWERS
-5.739443	ANTHONY
-6.040473	ANTIPIRACY
-6.040473	ANTIQUES
-6.040473	ANTOINETTE
-6.040473	AOL
-6.040473	AOLTime
-4.864382	AP
-5.739443	APARTHEID
-6.040473	APAs
-6.040473	APOCALYPTO
-6.040473	APPARENTLY
-6.040473	APPEAL
-6.040473	APPELLOJudith
-5.739443	APPLE
-6.040473	APPOINTMENTS
-6.040473	APPRECIATION
-6.040473	APPRENTICE
-6.040473	ARC
-5.195375	ARCHDIOCESE
-6.040473	ARCTIC
-6.040473	ARE
-6.040473	ARIC
-6.040473	ARIZ
-6.040473	ARIZONA
-5.739443	ARKANSAS
-5.563352	ARMs
-5.739443	ARONSONJoyce
-6.040473	ARRESTED
-4.894345	ART
-6.040473	ARTIST
-6.040473	ARTISTS
-5.341503	ARTS
-6.040473	ARon
-5.341503	AS
-6.040473	ASBURY
-6.040473	ASIA
-6.040473	ASK
-6.040473	ASPAN
-6.040473	ASPECTS
-6.040473	ASSISTANCE
-6.040473	ASSUMPTION
-6.040473	ASTROSAgreed
-4.718254	AT
-6.040473	ATAnnounced
-6.040473	ATELIER
-5.739443	ATI
-5.739443	ATL
-5.341503	ATLANTA
-5.739443	ATMOSPHERE
-5.739443	ATS
-5.341503	ATT
-6.040473	ATTBellSouth
-6.040473	ATTEMPT
-6.040473	ATTENDING
-6.040473	AUDACITY
-6.040473	AUGUST
-6.040473	AUS
-5.739443	AUSTIN
-6.040473	AUTHORITIES
-5.563352	AUTHORITY
-5.563352	AUTO
-6.040473	AUTOMATIC
-6.040473	AUTOMOBILES
-6.040473	AUTREY
-6.040473	AVALANCHERecalled
-5.739443	AVENUE
-6.040473	AVIV
-6.040473	AVN
-6.040473	AVO
-6.040473	AWAKENING
-5.563352	AWAY
-6.040473	AWRY
-5.341503	AXA
-6.040473	AYALA
-5.563352	AZ
-6.040473	Aalim
-6.040473	Aamco
-6.040473	Aardman
-6.040473	Aarn
-4.660262	Aaron
-6.040473	Ababa
-4.642533	Abbas
-6.040473	Abbasid
-5.563352	Abbass
-6.040473	Abbey
-6.040473	Abbot
-5.739443	Abbott
-5.262322	Abby
-5.563352	Abdel
-6.040473	AbdelHakim
-6.040473	AbdelRahman
-6.040473	Abdi
-6.040473	Abdirahman
-5.341503	Abdul
-5.739443	AbdulJabbar
-5.739443	Abdullah
-6.040473	Abdullahi
-6.040473	Abdullatif
-6.040473	Abdulrahim
-6.040473	Abe
-5.262322	Abel
-6.040473	Abend
-6.040473	Abercrombie
-5.438414	Aberdeen
-6.040473	Aberlin
-6.040473	Abernathy
-5.739443	Abhijit
-6.040473	Abhisit
-6.040473	Abi
-5.341503	Abigail
-6.040473	Abilene
-6.040473	Abington
-5.137383	Abizaid
-6.040473	Abizaids
-6.040473	Abject
-5.438414	Abol
-5.739443	Abortion
-6.040473	Abou
-5.563352	Aboul
-4.177151	About
-6.040473	AboutFace
-5.341503	Above
-4.810024	Abraham
-6.040473	Abrahams
-5.739443	Abrahamson
-5.739443	Abramoff
-5.341503	Abrams
-5.739443	Abramson
-5.563352	Abrehu
-6.040473	Abrilla
-6.040473	Abrons
-5.563352	Absent
-5.739443	Absinthe
-5.563352	Absolute
-5.563352	Absolutely
-6.040473	Absorbing
-6.040473	Abstract
-6.040473	Abstractions
-6.040473	Abts
-4.76172	Abu
-5.563352	Abuse
-6.040473	Abusers
-6.040473	Abusive
-6.040473	Abyssinian
-5.262322	Academic
-6.040473	Academies
-4.22756	Academy
-5.438414	Academys
-5.739443	Accelerator
-6.040473	Acceptance
-6.040473	Accepted
-5.262322	Access
-6.040473	Accidental
-6.040473	Accidentally
-6.040473	Accidents
-6.040473	Accius
-6.040473	Accompanying
-6.040473	Accomplish
-6.040473	Accomplished
-6.040473	Accord
-4.027636	According
-6.040473	Accords
-5.137383	Accorsi
-6.040473	Accorsis
-6.040473	Account
-5.563352	Accountability
-6.040473	Accounts
-6.040473	Accreditation
-6.040473	Accueil
-6.040473	Accused
-6.040473	Accutane
-6.040473	Ace
-6.040473	Acela
-5.739443	Acer
-6.040473	Acevedo
-6.040473	Achatz
-6.040473	Achatzs
-4.810024	Acheampong
-5.739443	Acheampongs
-5.739443	Achenbaum
-5.195375	Acheson
-6.040473	Achievement
-6.040473	Achieving
-5.563352	Achilles
-6.040473	Acid
-6.040473	Acocella
-6.040473	Acorn
-6.040473	Acquaintances
-6.040473	Acquisition
-5.739443	Acquisitions
-5.739443	Acres
-6.040473	Acrobat
-5.563352	Acropolis
-4.894345	Across
-4.484171	Act
-5.739443	Acting
-5.040473	Action
-5.563352	Active
-5.438414	Activist
-5.563352	Activists
-6.040473	Activities
-6.040473	Actor
-6.040473	ActorCasting
-5.137383	Actors
-6.040473	Actresss
-5.341503	Acts
-5.195375	Actually
-5.563352	Acura
-5.341503	Acuras
-6.040473	Acute
-6.040473	Ad
-5.563352	Ada
-6.040473	Adagio
-6.040473	Adair
-4.195375	Adam
-4.6255	Adams
-5.438414	Adamson
-6.040473	Adan
-6.040473	Adaptation
-5.341503	Adapted
-6.040473	Adas
-6.040473	Adath
-6.040473	Adbrite
-6.040473	Adcock
-4.810024	Add
-5.563352	Addai
-5.739443	Addict
-5.195375	Adding
-5.739443	Addington
-6.040473	Addis
-6.040473	Addison
-6.040473	Additional
-5.739443	Additionally
-6.040473	Addo
-5.739443	Address
-5.739443	Addressing
-5.739443	Adds
-5.563352	Addy
-6.040473	Ade
-5.341503	Adel
-6.040473	Adelle
-5.563352	Adelman
-6.040473	Adelphi
-6.040473	Adels
-6.040473	Adelson
-6.040473	Adena
-6.040473	Adetuyi
-6.040473	Adham
-6.040473	Adhamiya
-6.040473	Adhitya
-5.341503	Adidas
-5.739443	Adillon
-6.040473	Adirondack
-5.563352	Adjustment
-6.040473	Adkins
-6.040473	Adlade
-5.195375	Adler
-6.040473	Adlibbing
-5.195375	Adm
-4.496405	Administration
-5.739443	Administrations
-5.739443	Administrator
-6.040473	Administrators
-5.195375	Admiral
-6.040473	Admiration
-6.040473	Admired
-5.438414	Admission
-5.563352	Admissions
-6.040473	Admit
-6.040473	Admits
-6.040473	Admitted
-6.040473	Adnan
-6.040473	Adolescent
-6.040473	Adolf
-6.040473	Adolfo
-6.040473	Adolph
-6.040473	Adoptees
-5.040473	Adored
-5.739443	Adoring
-6.040473	Adri
-4.961292	Adrian
-5.563352	Adriana
-5.739443	Adriano
-6.040473	Adrianus
-6.040473	Adrien
-5.262322	Adu
-6.040473	Adulation
-6.040473	Adult
-6.040473	Adults
-6.040473	Adus
-5.438414	Advance
-4.6255	Advanced
-5.438414	Advancement
-6.040473	Advances
-5.341503	Advantage
-5.739443	Adventists
-5.438414	Adventure
-5.739443	Adventures
-6.040473	Advertisers
-5.341503	Advertising
-5.563352	Advice
-5.341503	Advisers
-4.894345	Advisors
-4.894345	Advisory
-6.040473	Advocacy
-5.438414	Advocate
-5.563352	Advocates
-5.438414	Aebersold
-6.040473	Aebersolds
-6.040473	Aedes
-6.040473	Aegean
-5.739443	Aeneas
-5.739443	Aeneid
-6.040473	Aerial
-5.563352	Aeronautics
-6.040473	Aerosmith
-5.739443	Aerospace
-6.040473	Afanasenkov
-6.040473	Afar
-5.040473	Affairs
-6.040473	Affection
-6.040473	Affiliations
-6.040473	Affirmations
-5.739443	Affirmative
-5.739443	Afflalo
-5.739443	Affleck
-6.040473	Affordable
-5.086231	Afghan
-6.040473	AfghanAmerican
-5.563352	Afghanborn
-4.377716	Afghanistan
-5.563352	Afghanistans
-5.739443	Afghans
-6.040473	Afraid
-4.32447	Africa
-4.387261	African
-6.040473	AfricanAfrican
-4.578075	AfricanAmerican
-4.92653	AfricanAmericans
-6.040473	Africanized
-5.438414	Africans
-5.563352	Africas
-6.040473	Africasaving
-4.92653	Afro
-6.040473	AfroCaribbean
-6.040473	AfroCuban
-5.739443	Afros
-6.040473	Aftab
-3.533968	After
-5.563352	Afternoon
-6.040473	Aftershocks
-5.195375	Afterward
-6.040473	AgResource
-6.040473	Aga
-4.894345	Again
-4.999081	Against
-6.040473	Agastyatheeram
-4.660262	Age
-5.438414	Aged
-6.040473	Agee
-4.894345	Agence
-5.341503	Agencies
-4.438414	Agency
-6.040473	Agencys
-5.739443	Agenda
-5.195375	Agent
-5.563352	Agents
-4.864382	Ages
-6.040473	Agey
-5.341503	Aging
-6.040473	Agings
-6.040473	Agnellis
-5.563352	Agnew
-6.040473	AgnicoEagle
-6.040473	Agnieszka
-6.040473	Agns
-6.040473	Agon
-6.040473	Agonies
-6.040473	Agonizing
-6.040473	Agossi
-6.040473	Agresto
-6.040473	Agricultural
-4.961292	Agriculture
-6.040473	Agua
-6.040473	Aguanga
-6.040473	Aguilar
-6.040473	Aguilera
-6.040473	Aguinaldo
-5.739443	Aguirre
-6.040473	Ah
-6.040473	Aharanot
-6.040473	Aharonot
-5.563352	Ahead
-5.438414	Ahmad
-4.961292	Ahmadinejad
-5.438414	Ahmed
-6.040473	Ahmida
-5.739443	Ahnighito
-5.739443	Ahren
-5.438414	Ahuna
-6.040473	Ahunas
-5.195375	Aid
-5.739443	Aidan
-6.040473	Aided
-5.739443	Aideed
-6.040473	Aiden
-5.739443	Aides
-5.563352	Aiello
-5.739443	Aiken
-5.739443	Aikman
-6.040473	Aileen
-5.438414	Ailey
-6.040473	Aimco
-5.341503	Aimee
-5.563352	Ainge
-5.739443	Aint
-4.593315	Air
-5.341503	Airborne
-5.438414	Airbus
-6.040473	Aircraft
-5.739443	Aires
-5.739443	Airline
-4.961292	Airlines
-5.739443	Airmont
-6.040473	Airpass
-4.76172	Airport
-6.040473	Airports
-5.341503	Airways
-6.040473	Airy
-5.739443	Aishwarya
-5.086231	Aitken
-5.739443	Aitkens
-6.040473	AixenProvence
-5.195375	Aizawa
-6.040473	Aizawas
-5.739443	Ajami
-6.040473	Ajello
-6.040473	Ajirawit
-5.739443	Ak
-6.040473	Akagera
-6.040473	Akashic
-6.040473	Akbar
-6.040473	Akeena
-6.040473	Aker
-5.195375	Akerberg
-4.836353	Akerlof
-6.040473	Akerlofs
-5.086231	Akers
-6.040473	Aki
-6.040473	Akira
-6.040473	Akons
-6.040473	Akram
-5.739443	Akron
-5.563352	Aksa
-6.040473	Akselrad
-6.040473	Akst
-4.183141	Al
-6.040473	AlSaath
-4.642533	Ala
-6.040473	Alaa
-4.508995	Alabama
-5.341503	Alabamas
-5.739443	Aladdin
-5.739443	Alamo
-5.563352	Alamos
-4.368375	Alan
-5.739443	Alander
-5.739443	Alanders
-6.040473	Alarcon
-5.563352	Alarm
-5.438414	Alas
-5.040473	Alaska
-6.040473	Alaskans
-6.040473	Alastair
-5.739443	Albania
-5.341503	Albanian
-4.284598	Albany
-4.92653	Albanys
-6.040473	Albees
-6.040473	Albers
-4.578075	Albert
-5.563352	Alberta
-6.040473	Albertine
-5.195375	Alberto
-5.438414	Albertsons
-5.739443	Albinder
-6.040473	Albion
-5.563352	Albitz
-5.563352	Albom
-5.739443	Albric
-5.739443	Albright
-6.040473	Albu
-6.040473	AlbuNasir
-5.563352	Album
-6.040473	Albumen
-5.341503	Albuquerque
-6.040473	Alburnus
-5.739443	Alcance
-5.739443	Alcoa
-5.438414	Alcohol
-6.040473	Alcott
-6.040473	Alcozer
-6.040473	Alday
-5.739443	Alden
-6.040473	Aldous
-5.739443	Aldrich
-6.040473	Ale
-6.040473	Alec
-6.040473	Alehouse
-6.040473	Alejandra
-5.137383	Alejandro
-5.563352	Aleksandr
-5.739443	Aleksei
-6.040473	Aleman
-6.040473	Alert
-6.040473	Alesha
-5.563352	Alessandra
-6.040473	Alessandro
-5.739443	Alessi
-6.040473	Aleut
-5.739443	Aleutian
-6.040473	Aleuzenev
-4.472271	Alex
-6.040473	Alexa
-4.368375	Alexander
-5.438414	Alexanders
-4.961292	Alexandra
-5.438414	Alexandre
-5.195375	Alexandria
-5.563352	Alexei
-6.040473	Alexie
-5.341503	Alexis
-5.563352	Alexs
-6.040473	Alf
-6.040473	Alfio
-5.262322	Alfonso
-4.961292	Alfred
-5.739443	Alfredo
-5.739443	Alger
-6.040473	Algeria
-6.040473	Algerian
-6.040473	Algia
-6.040473	Algorithm
-5.739443	Algorri
-6.040473	Algrim
-4.449409	Ali
-5.739443	Alibaba
-6.040473	Alicante
-4.739443	Alice
-5.739443	Alices
-5.262322	Alicia
-6.040473	Aliens
-6.040473	Aligarh
-6.040473	Aligot
-6.040473	Alimaras
-5.137383	Alimi
-5.563352	Alina
-6.040473	Alinea
-5.739443	Alis
-6.040473	Alisa
-5.262322	Alison
-5.739443	Alist
-5.262322	Alive
-6.040473	Aliza
-6.040473	Aljira
-6.040473	Alkaila
-6.040473	Alkestis
-3.785201	All
-5.438414	AllAmerican
-5.341503	AllStar
-6.040473	AllStars
-5.438414	Allah
-5.040473	Allan
-6.040473	Allanmark
-6.040473	Allcott
-4.407005	Allen
-6.040473	Allende
-5.739443	Allenhurst
-5.563352	Allens
-6.040473	Allentown
-6.040473	Allerton
-4.894345	Alliance
-5.563352	AllianceBernstein
-6.040473	Alliances
-5.262322	Allie
-5.739443	Allied
-5.438414	Allies
-6.040473	Alligators
-6.040473	Allinclusives
-5.438414	Allison
-5.739443	Allman
-5.739443	Allow
-5.739443	Allows
-6.040473	Allure
-5.438414	Ally
-5.563352	Allyn
-6.040473	Allysa
-6.040473	Allyson
-5.438414	Alma
-5.563352	AlmaTadema
-6.040473	AlmaTademas
-6.040473	Almanac
-6.040473	Almar
-6.040473	Almavivas
-6.040473	Almazan
-5.739443	Almighty
-6.040473	Almodovar
-5.563352	Almodvar
-6.040473	Almond
-4.739443	Almost
-6.040473	Alon
-5.739443	Alone
-4.785201	Along
-5.438414	Alonso
-5.563352	Alonzo
-6.040473	Aloysius
-6.040473	Alpen
-6.040473	Alpena
-6.040473	Alperin
-5.341503	Alpha
-5.563352	Alpine
-6.040473	Alps
-5.086231	Already
-6.040473	Als
-4.316197	Also
-6.040473	Alta
-6.040473	AltaVista
-6.040473	Altagracia
-6.040473	Altamont
-5.563352	Altar
-5.739443	Alter
-5.563352	Alternadad
-5.563352	Alternateside
-5.563352	Alternative
-5.262322	Alternatives
-6.040473	Alters
-4.148379	Although
-5.739443	Altima
-6.040473	Altitude
-5.739443	Altman
-6.040473	Altmans
-5.195375	Alto
-6.040473	Altocomulus
-5.739443	Altogether
-6.040473	Altos
-5.195375	Altria
-6.040473	Aluf
-5.563352	Alumni
-5.739443	Alumnus
-5.739443	Alva
-5.438414	Alvarez
-6.040473	Alvarezs
-5.262322	Alvin
-6.040473	Alwaleed
-5.262322	Alwash
-4.894345	Always
-6.040473	Alwyn
-6.040473	Alyce
-5.739443	Alzheimers
-4.894345	Am
-5.739443	Amadou
-6.040473	Amahl
-4.785201	Amanda
-6.040473	Amani
-5.739443	Amann
-4.92653	Amano
-6.040473	Amanos
-5.739443	Amar
-5.739443	Amaranth
-5.739443	Amarillo
-6.040473	Amassing
-5.739443	Amateur
-6.040473	Amato
-5.739443	Amazing
-6.040473	Amazingly
-4.785201	Amazon
-6.040473	Amazona
-6.040473	Amazonas
-5.341503	Ambassador
-6.040473	Ambassadors
-5.739443	Ambient
-5.739443	Ambika
-6.040473	Ambitious
-6.040473	Ambler
-5.195375	Ambroeus
-5.262322	Ambrose
-6.040473	Ambroses
-6.040473	Ambrosio
-6.040473	Ambulatory
-5.137383	Amelia
-5.438414	Amendment
-6.040473	Amendments
-6.040473	Ament
-3.708035	America
-3.100455	American
-6.040473	AmericanIranian
-6.040473	AmericanStatesman
-5.040473	Americana
-6.040473	Americanborn
-6.040473	Americaneducated
-5.739443	Americanized
-5.739443	Americanled
-3.737277	Americans
-6.040473	Americansounding
-6.040473	Americansponsored
-5.341503	Americanstyle
-6.040473	Americantrained
-4.201624	Americas
-6.040473	Amery
-5.739443	Ames
-5.739443	Amezcua
-6.040473	Amezkua
-5.137383	Amgen
-6.040473	Amgens
-5.438414	Amherst
-6.040473	Ami
-5.195375	Amid
-5.563352	AmigoLatino
-6.040473	AmigoLatinos
-5.563352	Amin
-5.341503	Amir
-6.040473	Amiri
-5.739443	Amish
-6.040473	Amiss
-5.739443	Amistad
-6.040473	AmistadHarperCollins
-5.563352	Amit
-5.438414	Amitav
-6.040473	Amity
-6.040473	Amman
-6.040473	Ammannet
-6.040473	Ammi
-4.148379	Among
-5.739443	Amor
-5.262322	Amos
-6.040473	Amour
-6.040473	Amrita
-4.578075	Amsterdam
-6.040473	Amtrak
-6.040473	Amtraks
-4.593315	Amy
-5.739443	AmyJill
-3.642533	An
-5.438414	Ana
-6.040473	Anabolic
-5.739443	Anagnos
-6.040473	Anagnostos
-5.563352	Anaheim
-5.195375	Analysis
-4.999081	Analysts
-6.040473	Analytic
-5.739443	Anand
-6.040473	Anastasia
-5.438414	Anastasio
-6.040473	Anatole
-5.438414	Anatomy
-5.341503	Anbar
-5.195375	Anchor
-6.040473	Anchorage
-6.040473	Ancienne
-6.040473	Ancon
-3.043524	And
-6.040473	Andante
-6.040473	Andean
-5.341503	Andela
-6.040473	Anders
-4.449409	Anderson
-6.040473	Andersons
-6.040473	Andersson
-6.040473	Andino
-5.040473	Andover
-6.040473	Andovers
-5.739443	Andr
-5.195375	Andre
-5.040473	Andrea
-5.563352	Andreas
-5.739443	Andree
-5.739443	Andrei
-5.438414	Andres
-4.241133	Andrew
-5.195375	Andrews
-6.040473	Andrewss
-5.563352	Andrs
-4.642533	Andy
-6.040473	Anello
-6.040473	Anesthesiologists
-5.739443	Anesthesiology
-5.739443	Anfal
-5.262322	Angel
-5.438414	Angela
-6.040473	Angelas
-3.897459	Angeles
-6.040473	AngelesLong
-6.040473	Angelesbased
-5.563352	Angeless
-6.040473	Angelica
-6.040473	Angelides
-5.341503	Angelina
-6.040473	Angelo
-4.864382	Angelou
-5.195375	Angelous
-5.739443	Angels
-5.739443	Anger
-6.040473	Anglicized
-6.040473	Anglin
-6.040473	Anglo
-5.438414	AngloAmerican
-5.739443	AngloSaxon
-6.040473	Anglophilic
-6.040473	Angola
-6.040473	Angolan
-5.563352	Angry
-6.040473	Anguish
-5.563352	Angus
-5.195375	AnheuserBusch
-6.040473	Ani
-6.040473	Anierim
-5.341503	Animal
-5.341503	Animals
-5.563352	Animation
-6.040473	Animations
-6.040473	Aniston
-5.739443	Anita
-5.563352	Anjanette
-6.040473	Anka
-6.040473	Ankara
-6.040473	Ankeny
-6.040473	Ankie
-4.46069	Ann
-4.999081	Anna
-6.040473	Annabel
-5.262322	Annan
-6.040473	Annans
-6.040473	Annanstyle
-5.739443	Annapolis
-6.040473	Annas
-4.642533	Anne
-6.040473	AnneLouise
-6.040473	Annenberg
-6.040473	Annes
-6.040473	Annette
-5.739443	Annex
-6.040473	Annexed
-4.864382	Annie
-5.739443	Annies
-6.040473	Annika
-6.040473	Anniston
-5.341503	Anniversary
-6.040473	Annmarie
-6.040473	Annotti
-6.040473	Announced
-6.040473	Announcing
-5.262322	Annual
-6.040473	Annunciation
-6.040473	Anona
-6.040473	Anosike
-4.01109	Another
-6.040473	Anquan
-6.040473	Ansa
-6.040473	Ansel
-5.438414	Ansell
-5.563352	Anselm
-5.438414	Anson
-6.040473	Ansonia
-5.563352	Answer
-5.739443	Answering
-6.040473	Answers
-6.040473	Ant
-6.040473	Antarctic
-6.040473	Antawn
-6.040473	Antero
-6.040473	Anthelios
-5.563352	Anthem
-5.563352	Anthology
-4.332903	Anthony
-6.040473	Anthonys
-5.739443	Anthropologie
-6.040473	AntiDefamation
-5.563352	AntiDoping
-6.040473	AntiFlag
-6.040473	AntiGay
-6.040473	AntiSpetters
-6.040473	Antibiotics
-6.040473	Anticipating
-6.040473	Antidoping
-6.040473	Antidote
-5.563352	Antigua
-6.040473	Antiguas
-6.040473	Antihomosexual
-6.040473	Antioch
-5.739443	Antique
-5.341503	Antiques
-6.040473	Antiquities
-6.040473	Antismoking
-6.040473	Antje
-6.040473	Antnio
-5.563352	Antoine
-5.438414	Antoinette
-6.040473	Antoinettetype
-5.262322	Anton
-5.739443	Antonacci
-4.678746	Antonio
-6.040473	Antonios
-6.040473	Antonucci
-6.040473	Antwaan
-5.563352	Anwar
-4.76172	Any
-6.040473	Anya
-5.438414	Anybody
-6.040473	Anymore
-4.894345	Anyone
-5.341503	Anything
-6.040473	Anytime
-5.341503	Anyway
-6.040473	Anza
-6.040473	Anzio
-5.739443	Aoki
-6.040473	Ap
-5.739443	Apache
-5.438414	Apart
-6.040473	Apartment
-6.040473	Ape
-5.739443	Apex
-5.195375	Apfulbaum
-5.739443	Apfulbaums
-6.040473	Apibus
-6.040473	Apirak
-6.040473	Apocalypse
-5.262322	Apocalypto
-6.040473	Apollo
-6.040473	Apologies
-6.040473	Apologists
-6.040473	Aponte
-6.040473	Aporrea
-6.040473	Apostle
-6.040473	Apotheosis
-6.040473	App
-5.438414	Appalachian
-6.040473	Apparel
-5.341503	Apparently
-6.040473	Appassionata
-5.739443	Appeal
-6.040473	Appealingly
-4.76172	Appeals
-5.563352	Appearing
-5.563352	Appelbaum
-5.739443	Appetizers
-6.040473	Appian
-5.262322	Applause
-4.535324	Apple
-6.040473	AppleInsider
-5.739443	Applebees
-5.341503	Apples
-6.040473	Appleton
-6.040473	Applicants
-5.563352	Application
-6.040473	Applications
-5.438414	Appling
-6.040473	Appreciate
-6.040473	Appreciating
-5.739443	Appreciation
-5.438414	Apprentice
-5.563352	Appropriations
-6.040473	Approval
-6.040473	Approved
-5.739443	Approving
-6.040473	Approximate
-6.040473	Approximation
-6.040473	Apps
-4.137383	April
-5.739443	Aprils
-6.040473	Aprons
-6.040473	Apropos
-6.040473	Apsara
-5.739443	Apt
-6.040473	Aptos
-6.040473	Aqu
-6.040473	Aquamarine
-6.040473	Aquarium
-6.040473	Aquarius
-6.040473	Aquatic
-4.92653	Aqueduct
-6.040473	Aquinas
-6.040473	Aquitaine
-4.262322	Arab
-5.739443	ArabAmerican
-6.040473	ArabBrazilian
-6.040473	ArabIsrael
-5.137383	ArabIsraeli
-6.040473	Arabellah
-4.92653	Arabia
-5.341503	Arabian
-4.76172	Arabic
-6.040473	Arabism
-6.040473	Arabist
-5.739443	Arablanguage
-4.961292	Arabs
-5.563352	Arafat
-5.739443	Arafats
-6.040473	Aragons
-6.040473	Aram
-5.739443	Aranesp
-5.739443	Arata
-5.739443	Arava
-6.040473	Arbitrage
-6.040473	Arbitration
-4.92653	Arbor
-5.438414	Arboretum
-6.040473	Arbour
-6.040473	Arc
-6.040473	Arcadia
-6.040473	Arcata
-5.739443	Arcelor
-6.040473	Archaic
-6.040473	Archambault
-5.739443	Archbishop
-5.438414	Archdiocese
-5.739443	Archer
-6.040473	Arches
-5.563352	Archie
-5.739443	Architect
-5.195375	Architects
-5.739443	Architectural
-6.040473	Architecturally
-5.739443	Architecture
-6.040473	Archiv
-5.137383	Archives
-6.040473	Archontan
-6.040473	ArchstoneSmith
-6.040473	Arco
-4.92653	Arctic
-5.563352	Arcuri
-6.040473	Arcuris
-5.137383	Ardalan
-5.563352	Ardalans
-4.32447	Are
-4.999081	Area
-6.040473	Areas
-6.040473	Arechaga
-5.341503	Arellano
-4.961292	Arena
-4.484171	Arenas
-6.040473	Arenass
-5.563352	Arent
-6.040473	Arenteanis
-5.086231	Argentina
-5.739443	Argentinas
-5.563352	Argentine
-5.739443	Argentinean
-6.040473	Argentinestyle
-6.040473	Argonne
-6.040473	Arguably
-6.040473	Arguing
-6.040473	Argument
-6.040473	Arguments
-6.040473	Arian
-6.040473	Arianna
-5.739443	Arias
-5.739443	Arieh
-5.341503	Ariel
-5.563352	Ariella
-6.040473	Arielle
-6.040473	Arish
-5.438414	Aristotle
-4.535324	Ariz
-4.387261	Arizona
-5.739443	Arizonas
-5.040473	Ark
-4.92653	Arkansas
-6.040473	Arker
-4.69805	Arkin
-5.438414	Arkins
-6.040473	ArkusDuntov
-6.040473	Arlen
-5.739443	Arlene
-6.040473	Arlethia
-6.040473	Arline
-4.999081	Arlington
-5.438414	Arlyn
-6.040473	Arma
-5.739443	Armageddon
-6.040473	Armand
-6.040473	Armando
-5.563352	Armani
-5.341503	Armas
-6.040473	Armashreddin
-5.195375	Armed
-6.040473	Armen
-5.086231	Armenian
-5.563352	Armenians
-6.040473	Armento
-6.040473	Armer
-6.040473	Armijo
-6.040473	Armilla
-5.739443	Armitage
-5.195375	Armonk
-5.341503	Armored
-5.563352	Armour
-5.195375	Arms
-4.76172	Armstrong
-5.438414	Armstrongs
-4.049247	Army
-6.040473	ArmyNavy
-5.262322	Armys
-6.040473	Arna
-5.739443	Arnaud
-5.563352	Arndt
-5.563352	Arne
-6.040473	Arnies
-5.040473	Arnold
-6.040473	Arnon
-6.040473	ArnulfKlettPlatz
-5.438414	Aronson
-5.137383	Around
-6.040473	Arousal
-6.040473	Arpad
-6.040473	Arpaia
-5.563352	Arps
-5.137383	Arquette
-5.739443	Arrange
-5.739443	Arrest
-6.040473	Arresting
-5.739443	Arrests
-6.040473	Arriaga
-5.438414	Arrington
-6.040473	Arrivederci
-5.563352	Arriving
-6.040473	Arrogance
-5.739443	Arron
-5.739443	Arrondissement
-6.040473	Arrows
-6.040473	Arrt
-6.040473	Arsenal
-6.040473	Arsenic
-6.040473	Arson
-3.897459	Art
-6.040473	Arte
-6.040473	Artes
-4.76172	Artest
-5.739443	Artests
-6.040473	Artforum
-6.040473	Arthritis
-4.609109	Arthur
-6.040473	Arthurianlike
-6.040473	Arthurs
-6.040473	Article
-5.438414	Articles
-6.040473	Artie
-5.739443	Artigas
-5.739443	Artis
-5.739443	Artist
-6.040473	ArtistShare
-6.040473	Artistic
-4.92653	Artists
-6.040473	Artnet
-3.950568	Arts
-6.040473	ArtsPower
-5.739443	Arturo
-6.040473	Arun
-6.040473	Arvanitis
-5.341503	Arverne
-6.040473	Aryeh
-5.195375	Arzt
-3.323636	As
-5.563352	Asbury
-6.040473	Ascencio
-5.739443	Asch
-6.040473	Asenath
-5.739443	Ash
-5.739443	AshaRose
-5.563352	Asham
-6.040473	Ashby
-5.262322	Ashcroft
-5.563352	Asher
-6.040473	Ashes
-6.040473	Asheville
-5.563352	Ashford
-6.040473	Ashgabat
-6.040473	Ashkenazic
-5.438414	Ashland
-4.999081	Ashley
-6.040473	Ashleylike
-6.040473	Ashleys
-6.040473	Ashraf
-5.563352	Ashtabula
-5.739443	Ashton
-4.508995	Asia
-4.195375	Asian
-5.438414	AsianAmerican
-5.438414	AsianAmericans
-6.040473	Asiana
-4.76172	Asians
-6.040473	Asianthemed
-6.040473	Asias
-6.040473	Asiatica
-5.563352	Aside
-6.040473	Asimov
-6.040473	Asin
-5.086231	Ask
-6.040473	AskJeeves
-5.739443	Askari
-5.739443	Askariya
-6.040473	Askatasuna
-4.472271	Asked
-6.040473	Asking
-6.040473	Aslam
-6.040473	Asos
-5.739443	Aspects
-5.438414	Aspen
-6.040473	Aspillaga
-6.040473	Aspirational
-6.040473	Aspirin
-6.040473	Asra
-5.137383	Assam
-6.040473	Assams
-6.040473	Assassination
-4.521959	Assembly
-5.438414	Assemblyman
-5.739443	Assemblys
-6.040473	Assemblywoman
-6.040473	Asserts
-5.739443	Assessing
-6.040473	Assessment
-5.438414	Asset
-5.341503	Assigned
-5.195375	Assistance
-5.739443	Assistant
-6.040473	Assisted
-5.262322	Associate
-4.660262	Associated
-4.76172	Associates
-3.983568	Association
-5.739443	Associations
-6.040473	Associazione
-6.040473	Assume
-5.739443	Assuming
-5.739443	Assurance
-6.040473	Astaire
-6.040473	Astedway
-6.040473	Asteroid
-6.040473	Astonishingly
-5.262322	Astor
-5.262322	Astoria
-6.040473	Astrophysical
-5.563352	Astros
-6.040473	Asylum
-3.378661	At
-6.040473	Ataiwee
-6.040473	Atanas
-6.040473	Ataris
-5.563352	Ataturk
-6.040473	Ataturks
-6.040473	Atelier
-6.040473	Athanasius
-5.739443	Athena
-5.739443	Atheneum
-6.040473	Athenian
-5.086231	Athens
-6.040473	AthensSparta
-6.040473	Athenss
-6.040473	Atherton
-5.563352	Athletes
-4.961292	Athletic
-5.341503	Athletics
-6.040473	Athyn
-6.040473	Ativan
-5.739443	Atkins
-5.438414	Atkinson
-4.387261	Atlanta
-6.040473	Atlantabased
-6.040473	Atlantan
-6.040473	Atlantans
-6.040473	Atlantas
-4.438414	Atlantic
-6.040473	Atlantis
-6.040473	Atlas
-6.040473	Atlntida
-5.563352	Atmospheric
-6.040473	Atom
-5.563352	Atomic
-5.563352	Atonement
-6.040473	Attacks
-5.739443	Attempts
-5.563352	Attenborough
-5.739443	Attendance
-5.438414	Attention
-6.040473	Attic
-6.040473	Atticus
-6.040473	Attn
-5.040473	Attorney
-6.040473	Attorneys
-5.739443	Attornies
-6.040473	Attournies
-6.040473	Attractions
-5.739443	Atwater
-5.739443	Atwood
-6.040473	Auberge
-5.739443	Aubrey
-4.894345	Auburn
-6.040473	Auburns
-5.739443	Auction
-6.040473	Auctions
-6.040473	Audacity
-5.739443	Aude
-6.040473	Auden
-6.040473	Audens
-5.195375	Audi
-5.739443	Audiard
-6.040473	Audiards
-5.086231	Audible
-6.040473	Audibles
-5.739443	Audience
-5.262322	Audiences
-5.195375	Audio
-6.040473	AudioFile
-6.040473	Audiostiles
-6.040473	Audiostiless
-5.438414	Audis
-5.563352	Auditorium
-6.040473	Audouze
-6.040473	Audra
-6.040473	Audrey
-5.563352	Audubon
-5.563352	Auerbach
-5.739443	Aufhauser
-5.341503	Aug
-6.040473	Augie
-4.269621	August
-5.563352	Augusta
-5.739443	Augustan
-6.040473	Augusten
-5.563352	Augustine
-6.040473	Augusto
-6.040473	Augusts
-5.341503	Aunt
-5.739443	Aura
-6.040473	Aurelia
-5.563352	Auriemma
-5.086231	Aurora
-6.040473	Auroras
-6.040473	Aurul
-6.040473	Auslander
-6.040473	Austan
-6.040473	Austen
-6.040473	Auster
-6.040473	Austers
-4.76172	Austin
-4.961292	Australia
-4.864382	Australian
-6.040473	Australians
-5.739443	Australias
-5.341503	Austria
-4.92653	Austrian
-6.040473	Autenrieth
-6.040473	Authentic
-4.214398	Authority
-5.341503	Authoritys
-5.341503	Authors
-5.739443	Auto
-5.563352	Autodata
-5.739443	Automakers
-6.040473	Automatic
-6.040473	Automator
-6.040473	Automobile
-5.341503	Autonet
-6.040473	Autostadt
-4.316197	Autrey
-5.086231	Autreys
-6.040473	Autumn
-6.040473	Auvergne
-5.739443	Ava
-5.739443	Available
-6.040473	AvalonBay
-5.739443	Avangard
-6.040473	Avatar
-6.040473	Avatars
-4.508995	Ave
-5.563352	Avedisian
-6.040473	Avellino
-6.040473	Avenida
-6.040473	Aventura
-6.040473	Aventure
-3.581081	Avenue
-4.961292	Avenues
-6.040473	Avenuestyle
-5.086231	Average
-5.739443	Aversive
-4.961292	Avery
-5.438414	Avi
-5.739443	Avian
-5.563352	Aviation
-5.563352	Aviator
-6.040473	Aviel
-6.040473	Avigdor
-5.739443	Avineri
-5.341503	Avis
-5.739443	Avista
-5.739443	Avital
-5.137383	Aviv
-6.040473	Avne
-6.040473	Avoid
-6.040473	Avoidance
-6.040473	Avoidant
-5.739443	Avoiding
-5.086231	Avon
-5.739443	Avondale
-6.040473	Avril
-5.563352	Awad
-6.040473	Awake
-4.718254	Award
-4.961292	Awards
-5.739443	Awardwinning
-5.739443	Awareness
-5.262322	Away
-5.262322	Awja
-6.040473	Awkward
-6.040473	Axcess
-5.195375	Axe
-6.040473	Axel
-6.040473	Axelrod
-6.040473	Axes
-5.739443	Axis
-6.040473	Axle
-6.040473	Axolotl
-6.040473	Ayala
-5.341503	Ayatollah
-6.040473	Ayckbourn
-6.040473	Ayisis
-5.563352	Ayman
-6.040473	Ayn
-6.040473	Ayres
-6.040473	Ayshe
-6.040473	Ayurvedic
-6.040473	Azadegan
-6.040473	Azadeh
-6.040473	Azahar
-6.040473	Azar
-6.040473	Azerbaijan
-5.438414	Aziz
-6.040473	Aztecs
-6.040473	Azubuike
-6.040473	Azzam
-6.040473	Azzurra
-3.676861	B
-4.999081	B1
-6.040473	B10
-5.563352	B12
-6.040473	B14
-6.040473	B15
-5.341503	B16
-6.040473	B18
-5.438414	B2
-6.040473	B20
-6.040473	B21
-6.040473	B22
-5.739443	B3
-5.739443	B4
-5.739443	B5
-5.739443	B6
-6.040473	B61
-6.040473	B612
-6.040473	B63
-4.999081	B7
-6.040473	B8
-5.739443	BA
-6.040473	BABA
-6.040473	BABEL
-6.040473	BABY
-6.040473	BACK
-6.040473	BACKFIRE
-6.040473	BACKGROUND
-5.739443	BAD
-6.040473	BAGGAGE
-6.040473	BAKERS
-6.040473	BAKERY
-6.040473	BALBOA
-6.040473	BALL
-5.739443	BALLET
-6.040473	BALLETS
-6.040473	BALMY
-6.040473	BALTIMORE
-6.040473	BAMCaf
-6.040473	BANDWAGON
-6.040473	BANKRUPTCY
-5.563352	BANKS
-5.438414	BAR
-6.040473	BARBER
-6.040473	BARBERHugh
-6.040473	BARGEMUSIC
-6.040473	BARISONDavid
-6.040473	BAROQUE
-6.040473	BARS
-4.92653	BASEBALL
-5.563352	BASICS
-4.69805	BASKETBALL
-5.563352	BAT
-6.040473	BATHROOMS
-5.438414	BATTLEGROUNDS
-5.739443	BAY
-6.040473	BB
-6.040473	BBB
-4.894345	BBC
-6.040473	BBCs
-6.040473	BBrated
-6.040473	BC
-5.739443	BD
-5.341503	BE
-6.040473	BEADLESTONIsabel
-6.040473	BEANS
-6.040473	BEARS
-6.040473	BEAST
-5.563352	BEAUTY
-6.040473	BECOMES
-6.040473	BECOMING
-6.040473	BEE
-5.739443	BEEN
-6.040473	BEETHOVEN
-6.040473	BEETHOVENS
-5.438414	BEFORE
-6.040473	BELIEFS
-6.040473	BELOW
-5.739443	BEN
-6.040473	BENDET
-6.040473	BENEDIKT
-6.040473	BENEFIT
-6.040473	BENGALSAdded
-5.341503	BENJAMIN
-6.040473	BENNINK
-6.040473	BERENSTAIN
-6.040473	BERKELEY
-6.040473	BERNARD
-6.040473	BERNIES
-5.563352	BERNSTEINStephen
-5.086231	BEST
-6.040473	BESTLAID
-6.040473	BET
-6.040473	BETTER
-6.040473	BETs
-5.739443	BEYOND
-6.040473	BIERMAN
-5.563352	BIERSDORFER
-5.195375	BIG
-5.739443	BIGGS
-6.040473	BILAL
-5.262322	BILL
-6.040473	BIRCH
-6.040473	BIRTH
-6.040473	BISHOP
-6.040473	BJs
-6.040473	BK
-6.040473	BKGamer
-5.438414	BKLYN
-5.739443	BLACK
-5.739443	BLACKBIRD
-5.438414	BLACKBOARD
-6.040473	BLACKHAWKSRecalled
-6.040473	BLANCHARD
-6.040473	BLAZERSWaive
-5.563352	BLEYER
-6.040473	BLITZ
-6.040473	BLOCHMarie
-6.040473	BLOCKS
-6.040473	BLOHM
-6.040473	BLOOD
-6.040473	BLOOM
-6.040473	BLOOMBERG
-5.563352	BLT
-5.739443	BLUE
-5.563352	BLUMENTHALMartin
-6.040473	BLUNT
-6.040473	BMG
-5.438414	BMW
-5.563352	BMWs
-5.739443	BOARD
-6.040473	BOAT
-6.040473	BOBBY
-6.040473	BOBCATSNamed
-6.040473	BOEHMRobert
-6.040473	BOEING
-6.040473	BOEINGS
-5.739443	BOISE
-6.040473	BOLEYN
-6.040473	BONAVENTUREDeclared
-6.040473	BOND
-6.040473	BONDING
-6.040473	BONDS
-5.739443	BOOK
-5.137383	BOOKS
-6.040473	BOOKSTORES
-6.040473	BOOM
-6.040473	BORAT
-6.040473	BOSS
-5.341503	BOSTON
-6.040473	BOTANICAL
-6.040473	BOTE
-5.739443	BOTH
-5.739443	BOTTOM
-6.040473	BOUNDING
-5.739443	BOUNTY
-6.040473	BOURDAIN
-6.040473	BOURGEOIS
-5.739443	BOWL
-6.040473	BOYNTON
-5.739443	BOYS
-6.040473	BOYZ
-6.040473	BRADLEYCarol
-6.040473	BRANCH
-5.739443	BRAND
-6.040473	BRANDUSA
-6.040473	BRASHARES
-6.040473	BRAVERMANArthur
-6.040473	BREAK
-6.040473	BREAKING
-6.040473	BRECKRachel
-6.040473	BREL
-6.040473	BRENTGeorge
-6.040473	BRETT
-6.040473	BRIAN
-5.563352	BRIDGE
-6.040473	BRIDGEWATER
-5.739443	BRIEFING
-5.563352	BROADWAY
-4.76172	BROOKLYN
-6.040473	BROOKS
-6.040473	BROTHER
-5.739443	BROWN
-6.040473	BROWNFrieda
-6.040473	BROWNSabina
-5.563352	BRUCE
-6.040473	BRUINSAssigned
-5.739443	BRUINSRecalled
-6.040473	BRYAN
-6.040473	BTselem
-6.040473	BUCKLEITNER
-5.739443	BUCKLEY
-6.040473	BUCKMELTER
-5.739443	BUDGET
-6.040473	BUICK
-6.040473	BULL
-6.040473	BULLET
-5.195375	BUREAU
-6.040473	BUSH
-4.836353	BUSINESS
-5.563352	BUT
-6.040473	BUTLEY
-6.040473	BUTTE
-5.739443	BUY
-6.040473	BUYING
-6.040473	BUYOUT
-6.040473	BUYS
-5.739443	BUZZ
-5.262322	BY
-6.040473	BYBOT
-5.438414	BYE
-6.040473	BYRNE
-5.739443	Ba
-6.040473	Baack
-5.137383	Baath
-6.040473	Baathist
-5.438414	Baba
-6.040473	Babb
-6.040473	Babbo
-6.040473	Babbus
-6.040473	Babcock
-5.563352	Babe
-5.739443	Babej
-4.836353	Babel
-5.563352	Babies
-6.040473	Babineau
-5.086231	Baby
-5.739443	Babylon
-6.040473	Babylonia
-6.040473	Babyshambles
-6.040473	Bac
-6.040473	Baccalaureate
-4.961292	Bach
-6.040473	Bachar
-5.739443	Bachelet
-5.739443	Bachelets
-6.040473	Bachelor
-6.040473	Bachelorhood
-6.040473	Bachelors
-5.438414	Bachiana
-5.563352	Bachrach
-5.341503	Bachs
-4.593315	Back
-6.040473	Backal
-5.438414	Backals
-6.040473	Backed
-6.040473	Backers
-5.563352	Backroads
-6.040473	Backroom
-6.040473	Backstage
-6.040473	Backtoschool
-5.739443	Backup
-6.040473	Baconian
-5.438414	Bad
-6.040473	Bada
-6.040473	Bader
-5.739443	Badgers
-6.040473	Badgett
-6.040473	Baer
-6.040473	Bag
-5.438414	Bagel
-5.563352	Bagels
-5.739443	Bagenhost
-3.903753	Baghdad
-5.262322	Baghdads
-5.739443	Bagpipes
-5.563352	Bahamas
-4.999081	Bahr
-5.739443	Bahrain
-5.438414	Bahrs
-6.040473	Bai
-5.739443	Baia
-5.137383	Baidu
-6.040473	Baiitsu
-5.086231	Bailey
-5.341503	Bain
-6.040473	Baines
-5.438414	Bains
-5.739443	Baird
-6.040473	Baja
-5.563352	Bake
-4.660262	Baker
-5.739443	Bakers
-5.341503	Bakersfield
-6.040473	Bakery
-6.040473	Bakhtiari
-5.438414	Bakish
-6.040473	Baksa
-6.040473	Bakshi
-6.040473	Bal
-5.341503	Balakhnecheva
-6.040473	Balanced
-5.341503	Balanchine
-6.040473	Balanchinederived
-5.341503	Balanchines
-6.040473	Balancing
-5.563352	Balboa
-5.563352	Balboni
-6.040473	Balbonis
-5.739443	Balco
-6.040473	Balcos
-6.040473	Balducci
-6.040473	Balduccis
-4.535324	Baldwin
-5.739443	BaldwinWallace
-6.040473	Baldwins
-6.040473	Balenciaga
-5.195375	Bales
-5.739443	Baless
-5.739443	Bali
-6.040473	Balint
-5.739443	Balkan
-6.040473	Balkans
-5.563352	Balkman
-5.040473	Ball
-5.563352	Ballad
-5.341503	Ballantine
-6.040473	Ballard
-6.040473	Ballena
-4.449409	Ballet
-5.563352	Ballets
-5.739443	Ballew
-6.040473	Ballinger
-6.040473	Balloons
-5.341503	Ballroom
-5.563352	Balls
-6.040473	Ballston
-6.040473	Balmoral
-5.195375	Balthazar
-6.040473	Baltic
-4.484171	Baltimore
-6.040473	Baltimores
-5.739443	Baluchis
-5.739443	Baluchistan
-5.438414	Balz
-6.040473	Bamber
-6.040473	Bamigboye
-6.040473	Bamiyan
-4.563352	Ban
-5.563352	Bana
-5.341503	Banana
-6.040473	Banananut
-6.040473	Banaszak
-6.040473	Banc
-6.040473	Banca
-5.137383	Band
-6.040473	BandAids
-5.341503	Banda
-6.040473	Bandhold
-6.040473	Bandonill
-6.040473	Bandwagon
-6.040473	Bandwidth
-6.040473	Bang
-6.040473	Banga
-4.836353	Bangkok
-6.040473	Bangkoks
-5.341503	Bangladesh
-5.563352	Bangor
-5.739443	Banhart
-6.040473	Banharts
-4.277045	Bank
-4.999081	Banker
-5.563352	Bankers
-5.341503	Banking
-6.040473	BankruptYourFamily
-5.262322	Banks
-6.040473	Banned
-5.195375	Banner
-5.563352	Bannister
-4.961292	Bans
-6.040473	Banta
-5.438414	Bantam
-5.341503	Bao
-6.040473	Bapchule
-4.92653	Baptist
-6.040473	Baptiste
-5.739443	Baptists
-4.609109	Bar
-6.040473	Barabas
-5.040473	Barack
-5.563352	Barak
-5.739443	Baraka
-6.040473	Baranquilla
-6.040473	Baranski
-6.040473	Barbadoss
-4.397021	Barbara
-6.040473	Barbaras
-5.739443	Barbaro
-6.040473	Barbecue
-6.040473	Barbee
-4.341503	Barber
-5.739443	Barbera
-5.262322	Barbers
-5.563352	Barbie
-5.563352	Barbiere
-6.040473	Barbieri
-6.040473	Barbosa
-5.137383	Barbour
-5.563352	Barbra
-6.040473	Barbs
-6.040473	Barbuto
-6.040473	Barcade
-5.563352	Barcelona
-5.739443	Barcelonas
-6.040473	Barclays
-6.040473	Bard
-6.040473	Barefoot
-6.040473	Bargnani
-5.438414	Barham
-6.040473	Barhum
-6.040473	Barinas
-6.040473	Barkers
-5.563352	Barkhamsted
-5.563352	Barkley
-6.040473	Barkleys
-5.739443	Barksdale
-5.739443	Barlow
-5.438414	Barn
-5.262322	Barna
-5.563352	Barnabas
-5.563352	Barnard
-4.549112	Barnes
-5.563352	Barness
-5.438414	Barnett
-5.086231	Barney
-5.563352	Barneys
-6.040473	Barnyard
-4.92653	Baron
-6.040473	Baroncini
-5.739443	Barone
-5.563352	Baronoff
-6.040473	Barons
-5.438414	Baroque
-6.040473	Barr
-5.086231	Barra
-6.040473	Barranquilla
-5.739443	Barras
-5.739443	Barraza
-5.739443	Barre
-6.040473	Barred
-6.040473	Barrel
-4.578075	Barrett
-5.195375	Barretts
-6.040473	Barrick
-5.739443	Barrie
-5.341503	Barringer
-6.040473	Barrington
-5.739443	Barrio
-6.040473	Barris
-6.040473	Barritz
-5.739443	Barron
-6.040473	Barroso
-5.137383	Barrow
-4.6255	Barry
-5.739443	Barrymore
-5.563352	Bars
-6.040473	Barski
-6.040473	Barstow
-6.040473	Barta
-6.040473	Barth
-6.040473	Barthes
-6.040473	Bartholomews
-6.040473	Bartie
-6.040473	Bartle
-6.040473	Bartlett
-6.040473	Bartok
-6.040473	Bartoks
-5.739443	Bartolo
-5.262322	Barton
-5.739443	Bartrum
-6.040473	Bartrums
-6.040473	Baruch
-6.040473	Barynya
-5.739443	Baryshnikov
-5.739443	Barzan
-5.739443	Base
-5.137383	Baseball
-5.739443	Baseballs
-5.195375	Based
-5.563352	Baseggio
-6.040473	Bases
-6.040473	Basescu
-5.563352	Bashevis
-5.438414	Basic
-5.438414	Basically
-6.040473	Basics
-5.438414	Basil
-6.040473	Basilica
-6.040473	Basilisk
-5.739443	Basin
-6.040473	Basing
-4.894345	Basketball
-6.040473	Baskett
-6.040473	BaskinRobbins
-5.739443	Basking
-6.040473	Basra
-5.195375	Bass
-5.563352	Bassam
-5.739443	Basse
-6.040473	Bastille
-6.040473	Bat
-5.739443	Batali
-6.040473	Batchelder
-6.040473	Batcheller
-6.040473	Bates
-6.040473	Batesville
-5.563352	Bath
-6.040473	Bathgate
-6.040473	Bathing
-6.040473	Bathsheva
-6.040473	Batia
-6.040473	BatmanandRobin
-6.040473	Batmobile
-5.341503	Baton
-5.563352	Battalion
-6.040473	Battenberg
-5.739443	Battersea
-5.563352	Battery
-5.040473	Battle
-6.040473	Battles
-6.040473	Battling
-6.040473	Battre
-5.739443	Battsek
-6.040473	Baturin
-5.195375	Baucus
-4.999081	Bauer
-6.040473	Bauers
-6.040473	Baughman
-6.040473	Bauhaus
-6.040473	Baum
-6.040473	Baums
-6.040473	Bausch
-6.040473	Bavarian
-6.040473	Bawmannto
-4.660262	Baxter
-4.195375	Bay
-6.040473	BayLittle
-6.040473	BayWay
-6.040473	Baya
-6.040473	Bayard
-5.739443	Bayda
-5.563352	Bayh
-6.040473	Baylis
-5.341503	Bayou
-6.040473	Bayous
-5.341503	Bays
-5.262322	Bayside
-5.739443	Baz
-6.040473	Bazaar
-5.739443	Bazzano
-6.040473	Bb7
-6.040473	Bc5
-4.836353	Be
-6.040473	Bea
-4.095991	Beach
-5.438414	Beaches
-6.040473	Beachhead
-4.961292	Beacon
-6.040473	Beacons
-5.563352	Beadleston
-5.137383	Beal
-6.040473	Beale
-5.563352	Beamen
-5.739443	Bean
-6.040473	Beane
-5.563352	Beanes
-6.040473	Beano
-4.864382	Bear
-6.040473	Bearapalooza
-6.040473	Bearcats
-6.040473	Bearden
-5.739443	Beardsley
-5.739443	Bearer
-4.718254	Bears
-6.040473	Beasley
-5.341503	Beast
-6.040473	Beastie
-5.262322	Beastly
-5.563352	Beat
-6.040473	Beata
-6.040473	Beating
-5.137383	Beatles
-6.040473	Beatlike
-5.341503	Beatrice
-5.341503	Beatrix
-6.040473	Beats
-6.040473	Beau
-5.739443	Beaumont
-5.563352	Beaune
-5.563352	Beautiful
-4.810024	Beauty
-6.040473	BeauxArts
-5.438414	Beaver
-5.739443	Beaverton
-6.040473	Beavis
-6.040473	Bebchuk
-4.095991	Because
-5.739443	Bechtel
-5.438414	Becker
-6.040473	Beckerman
-6.040473	Becket
-5.341503	Beckett
-5.262322	Beckham
-6.040473	Beckhams
-5.739443	Beckman
-6.040473	Beckmann
-5.739443	Becomes
-6.040473	Becoming
-6.040473	Becton
-5.438414	Bed
-6.040473	Bede
-4.961292	Bedford
-5.739443	BedfordStuyvesant
-6.040473	Bedminster
-6.040473	Bedouin
-6.040473	Bedroc
-6.040473	Bedrocs
-5.739443	Bedroom
-6.040473	Beds
-6.040473	Bedtime
-5.739443	Bee
-6.040473	Beebe
-5.563352	Beech
-6.040473	Beecher
-5.739443	Beef
-6.040473	Beefheart
-5.040473	Beekman
-6.040473	Beeler
-6.040473	Beems
-5.739443	Been
-6.040473	Beery
-6.040473	Beesley
-5.040473	Beethoven
-5.341503	Beethovens
-5.739443	Beetle
-5.739443	Beffa
-4.207964	Before
-6.040473	Beg
-5.739443	Begala
-5.438414	Begin
-5.086231	Beginning
-6.040473	Begins
-5.137383	Begley
-6.040473	Begleys
-5.195375	Begum
-4.810024	Behind
-6.040473	Behold
-6.040473	Beightol
-6.040473	Beiji
-4.6255	Beijing
-6.040473	Beijingbased
-5.137383	Beik
-6.040473	Beiker
-4.69805	Being
-4.894345	Beirut
-6.040473	Beisanjin
-6.040473	Beisel
-6.040473	Beit
-6.040473	Beiteinu
-6.040473	Bejbaum
-6.040473	Bejbaums
-6.040473	Belafontes
-4.92653	Belarus
-5.438414	Belaruss
-5.739443	Belarussian
-6.040473	Belarussians
-6.040473	Belfer
-6.040473	Belford
-5.563352	Belgian
-5.739443	Belgium
-5.739443	Belgrade
-4.207964	Belichick
-6.040473	BelichickMangini
-4.961292	Belichicks
-6.040473	Belief
-6.040473	Beliefs
-5.341503	Believe
-6.040473	Believer
-5.739443	Believers
-6.040473	Belize
-6.040473	Belkin
-4.739443	Bell
-5.739443	Bella
-6.040473	Bellafante
-6.040473	Bellamy
-5.262322	Belle
-4.92653	Bellerose
-5.739443	Belleville
-5.438414	Bellevue
-5.739443	Bellingham
-6.040473	Bellini
-5.739443	Bellinis
-5.739443	Bellmarc
-5.739443	Bellow
-5.739443	Bellows
-6.040473	Bellport
-5.563352	Bells
-6.040473	Belly
-4.449409	Belmont
-6.040473	Beloit
-4.262322	Beloved
-5.739443	Below
-6.040473	Belt
-5.739443	Belter
-6.040473	Belton
-6.040473	Beltransgaz
-6.040473	Beltranzgaz
-6.040473	Beltrn
-6.040473	Belts
-5.739443	Beltway
-5.739443	BelwinMills
-4.417224	Ben
-6.040473	BenEliezer
-6.040473	BenGhiat
-4.999081	BenGurion
-6.040473	BenHur
-6.040473	BenShahar
-5.739443	Benazir
-6.040473	Benbrook
-6.040473	Bench
-6.040473	Benchboy
-6.040473	Benchmark
-6.040473	Benckiser
-6.040473	Benckisers
-5.262322	Bend
-6.040473	Bender
-5.086231	Bendet
-5.563352	Bendets
-5.739443	Beneath
-6.040473	Benedetta
-6.040473	Benedetto
-5.195375	Benedict
-5.341503	Benefit
-6.040473	Beneish
-5.341503	Bengal
-5.438414	Bengali
-5.563352	Bengals
-6.040473	Benglis
-6.040473	Benidorm
-5.563352	Benigni
-5.438414	Benilde
-6.040473	Bening
-5.739443	Benito
-4.69805	Benjamin
-6.040473	BenjaminBeechwood
-5.438414	Benn
-4.894345	Bennett
-6.040473	Bennetts
-6.040473	Bennie
-5.739443	Bennington
-5.739443	Bennink
-5.739443	Benny
-5.341503	Benoit
-6.040473	BenoitFresco
-4.894345	Benson
-5.563352	Bensonhurst
-6.040473	Bensons
-6.040473	Benton
-6.040473	Bentonville
-5.739443	Benvenisti
-6.040473	Benz
-6.040473	Berardesca
-5.563352	Berber
-6.040473	Bercot
-5.195375	Berdymukhammedov
-6.040473	Berdymukhammedovs
-6.040473	Berea
-6.040473	Berelowitz
-5.739443	Berenson
-6.040473	Berenstain
-6.040473	Bereson
-6.040473	Berg
-6.040473	Bergamot
-6.040473	Bergdorf
-6.040473	Bergen
-5.438414	Berger
-6.040473	Bergeret
-5.563352	Bergeron
-6.040473	Bergerons
-6.040473	Bergeson
-5.739443	Bergman
-6.040473	Bergotte
-5.262322	Bergrin
-6.040473	Bergs
-6.040473	Bergsma
-5.739443	Berkan
-4.262322	Berkeley
-6.040473	Berkeleys
-5.739443	Berkey
-6.040473	Berkis
-5.262322	Berklee
-6.040473	Berkley
-5.195375	Berkman
-6.040473	Berkowitz
-5.739443	Berland
-4.660262	Berlin
-6.040473	Berlins
-6.040473	Berlinville
-6.040473	Berloff
-6.040473	Berlusconi
-4.999081	Berman
-5.262322	Bermuda
-6.040473	Bernadette
-5.563352	Bernanke
-4.6255	Bernard
-6.040473	BernardHenri
-6.040473	Bernasek
-6.040473	Bernbach
-6.040473	Bernd
-6.040473	Bernes
-6.040473	Bernhard
-5.739443	Bernhards
-6.040473	Bernice
-5.341503	Bernie
-5.739443	Bernier
-6.040473	Bernlef
-6.040473	Bernoff
-4.76172	Bernstein
-5.739443	Bernsteins
-6.040473	Berrin
-5.438414	Berry
-6.040473	Berryman
-6.040473	Berserk
-5.438414	Bert
-5.739443	Bertram
-6.040473	Bertrand
-5.563352	Bertsekas
-5.563352	Beschloss
-4.739443	Besides
-6.040473	Bess
-6.040473	Bessie
-4.76172	Best
-6.040473	Beste
-5.739443	Betamax
-6.040473	Betamaxs
-5.341503	Betancourt
-4.6255	Beth
-5.563352	BethEl
-5.739443	Bethany
-6.040473	Bethel
-5.137383	Bethesda
-5.739443	BethesdaChevy
-5.739443	Bethlehem
-6.040473	Bethmann
-6.040473	Bethune
-5.739443	Betsey
-5.739443	Betsy
-6.040473	Bette
-4.961292	Better
-6.040473	Bettes
-6.040473	BettiSue
-6.040473	Bettie
-6.040473	Bettman
-6.040473	Betts
-4.387261	Betty
-5.739443	Bettys
-5.195375	Between
-5.739443	Beulah
-6.040473	Bev
-5.137383	Beverly
-6.040473	Bevington
-5.739443	Beware
-6.040473	Bewkes
-5.563352	Beyer
-5.739443	Beyonc
-4.718254	Beyond
-5.563352	Bezalel
-5.563352	Bezos
-5.739443	Bezpieczenstwa
-5.739443	Bhag
-5.739443	Bhagam
-6.040473	Bharata
-6.040473	Bharucha
-5.739443	Bhutan
-5.341503	Bhutto
-5.739443	Bhuttos
-6.040473	Biala
-6.040473	Bialkin
-5.341503	Bianco
-6.040473	Bibby
-4.785201	Bible
-5.739443	Biblical
-5.563352	Bickerstaff
-6.040473	Bicknell
-6.040473	Bicycle
-4.999081	Bid
-5.739443	Biden
-6.040473	Bidens
-5.739443	Bids
-5.086231	Biederman
-6.040473	Biedermans
-5.739443	Bier
-6.040473	Biermann
-6.040473	Bievre
-6.040473	Biff
-4.177151	Big
-5.739443	Bigger
-5.341503	Biggest
-5.438414	Bigman
-6.040473	Bigotry
-5.739443	Biguria
-6.040473	Bihar
-5.739443	Bilal
-5.563352	Bilbao
-6.040473	Bilby
-6.040473	Bildnis
-5.739443	Bilecek
-6.040473	Bilin
-3.964926	Bill
-5.739443	Billboard
-6.040473	Billboards
-6.040473	Billi
-6.040473	Billick
-5.563352	Billie
-5.739443	Billings
-6.040473	Billingslea
-6.040473	Billionaire
-5.262322	Billotte
-5.563352	Bills
-4.894345	Billy
-4.961292	Bilotta
-5.739443	Biloxi
-6.040473	Biltmore
-6.040473	Bin
-5.262322	Bing
-5.563352	Bingaman
-5.262322	Binghamton
-5.739443	Bingo
-4.961292	BintKadi
-5.563352	Binyam
-5.341503	Biographical
-6.040473	Biography
-6.040473	Biological
-5.739443	Biology
-6.040473	Biomechanical
-6.040473	Biomet
-6.040473	Biondi
-5.739443	Biondo
-6.040473	Biotech
-6.040473	Biotechnology
-5.739443	Biped
-6.040473	Birch
-5.195375	Bird
-5.739443	Birdie
-5.739443	Birdland
-6.040473	Birds
-6.040473	Birdy
-6.040473	Birenbaum
-6.040473	Birender
-5.438414	Birgeneau
-6.040473	Birgit
-6.040473	Birk
-6.040473	Birkbeck
-6.040473	Birkenstocks
-5.438414	Birmingham
-6.040473	Birnberg
-5.739443	Biron
-5.438414	Birth
-5.262322	Birthday
-6.040473	Birute
-6.040473	Biscaye
-4.484171	Bishop
-5.195375	Bishops
-6.040473	Bismarck
-6.040473	Bissonnette
-6.040473	Bistro
-5.739443	Bit
-6.040473	Bitsy
-6.040473	Bitter
-5.739443	Bixler
-6.040473	Biz
-6.040473	Bizarrely
-6.040473	Bjerg
-6.040473	Bjorn
-4.234293	Black
-5.137383	BlackBerry
-6.040473	Blackbird
-5.739443	Blackhawks
-5.739443	Blackheath
-6.040473	Blackhole
-5.563352	Blackman
-6.040473	Blackmun
-5.438414	Blackrock
-5.040473	Blackstone
-6.040473	Blackstones
-5.086231	Blade
-5.739443	Blagojevich
-6.040473	Blaine
-4.864382	Blair
-6.040473	Blakborn
-4.69805	Blake
-5.739443	Blakes
-5.739443	Blakey
-6.040473	Blakley
-5.341503	Blanca
-5.438414	Blanchard
-6.040473	Blanchards
-5.739443	Blanche
-5.341503	Blanchett
-5.563352	Blanco
-6.040473	Blaney
-6.040473	Blank
-5.739443	Blanka
-6.040473	Blankfein
-6.040473	Blanlot
-5.739443	Blanton
-6.040473	Blantyre
-5.739443	Blaq
-6.040473	Blas
-6.040473	Blaser
-6.040473	Blasingame
-6.040473	Blasts
-6.040473	Blau
-5.739443	Blaustein
-5.195375	Blazers
-6.040473	Blazing
-5.563352	Blechman
-6.040473	Blechmans
-5.739443	Bledsoe
-5.739443	Blee
-5.341503	Bleecker
-5.563352	Blend
-5.563352	Blenman
-6.040473	Bless
-6.040473	Blessed
-6.040473	Bleunwenn
-6.040473	Blige
-6.040473	Blimling
-5.438414	Blind
-5.739443	Blinder
-6.040473	Blindsight
-5.739443	Bling
-5.739443	Bliss
-6.040473	Blitt
-6.040473	Blitts
-6.040473	Bloch
-5.438414	Block
-6.040473	Blockbuster
-5.739443	Blocker
-6.040473	Blocks
-6.040473	Blog
-6.040473	Bloggers
-6.040473	Blogging
-5.563352	Blomquist
-6.040473	Blondell
-4.894345	Blood
-6.040473	Bloodline
-6.040473	Bloods
-5.739443	Bloody
-5.341503	Bloom
-4.387261	Bloomberg
-5.438414	Bloombergs
-5.040473	Bloomfield
-5.262322	Bloomingdales
-5.563352	Bloomington
-6.040473	Bloomsbury
-6.040473	Blossom
-6.040473	Blu
-5.341503	BluRay
-4.248082	Blue
-6.040473	BluePrintViolation
-5.739443	Blueberries
-5.739443	Bluebird
-5.195375	Blues
-5.739443	Bluetec
-5.563352	Bluetooth
-6.040473	Blum
-5.563352	Blume
-5.040473	Blumenthal
-4.593315	Bluray
-6.040473	Blurays
-5.438414	Blvd
-6.040473	Bly
-5.739443	Blyleven
-5.739443	Blystone
-5.739443	Blythe
-5.739443	Bmovie
-6.040473	Bmovies
-5.563352	Bnai
-6.040473	Bndchen
-5.195375	Bo
-3.929884	Board
-6.040473	BoardaMatch
-6.040473	Boardformed
-5.563352	Boards
-6.040473	Boardwalk
-5.563352	Boat
-6.040473	Boating
-6.040473	Boatman
-6.040473	Boats
-5.438414	Boatyard
-4.292285	Bob
-5.563352	Bobar
-6.040473	Bobbie
-6.040473	Bobbitt
-4.609109	Bobby
-6.040473	Bobbys
-5.739443	Bobcat
-5.262322	Bobcats
-5.563352	Bobroff
-4.678746	Boca
-6.040473	Bochum
-4.961292	Bock
-6.040473	Boda
-6.040473	Boden
-5.438414	Bodies
-5.563352	Bodman
-6.040473	Bodmans
-6.040473	Bodner
-5.195375	Body
-5.563352	Boehm
-6.040473	Boehmer
-6.040473	Boehms
-5.262322	Boehner
-4.678746	Boeing
-5.563352	Boeings
-6.040473	Boerne
-5.739443	Boerum
-6.040473	Boese
-6.040473	Bofat
-6.040473	Boggs
-6.040473	Bogle
-6.040473	Bogot
-6.040473	Bohan
-6.040473	Boheme
-6.040473	Bohemia
-6.040473	Bohio
-5.739443	Boho
-6.040473	Boil
-4.438414	Boise
-6.040473	Boises
-6.040473	Boitano
-5.739443	Bojan
-5.563352	Bokamper
-6.040473	Bola
-6.040473	Boldin
-6.040473	Bolen
-6.040473	Bolger
-5.739443	Bolivarian
-5.739443	Bolivia
-6.040473	Boll
-6.040473	Bolling
-6.040473	Bollman
-5.086231	Bollywood
-5.739443	Bolognese
-5.739443	Bolshoi
-5.262322	Bolten
-4.92653	Bolton
-6.040473	Boltons
-6.040473	Boltz
-6.040473	Bolvar
-6.040473	Bomar
-5.739443	Bomb
